0.0143223819,0.0741252216,0.0151625928,-0.0454569015,-0.0259865638,-0.031461941,0.005993219,-0.0344597775,-0.0391487951,0.0688576915,-0.0243317105,-0.0200884603,0.0247181871,0.019252184,-0.0351864271,0.1023012933,0.0988337578,0.1023118634,0.0039324985,0.0063758003,-0.0139860219,-0.0428889335,0.0427246921,-0.0171950875,-0.0109653111,0.0012708892,0.0302068039,0.0177255231,0.012473009,-0.0751543792,-0.1627276377,-0.0034891815,0.0392676134,0.0176305531,0.0175523016,0.0245633986,-0.0237749874,-0.0335634233,0.0180674152,0.0530275292,0.0162190381,-0.0077202557,-0.0171579387,-0.0156353084,-0.0501268702,0.0056079276,-0.0443460602,-0.0238248574,0.0762143978,-0.030519525,-0.0112133298,-0.0375366563,0.1052044932,-0.1363536844,0.001122932,0.0032594148,-0.0281687024,0.0459074459,-0.0726454896,-0.0134067671,-0.0253501751,-0.0625456583,0.0300971363,0.0705495525,0.0087345321,0.022212267,0.0859628097,-0.0574479132,-0.0093290073,0.0313955815,-0.0548881097,-0.0430414658,-0.0179831975,-0.1527797856,-0.0134740669,0.0334580325,-0.0077079965,-0.0306947133,0.0733222628,-0.0130879126,-0.0226797633,-0.0148667379,0.0144165256,0.0446115074,-0.0576097111,-0.0368023267,0.0324691934,-0.0168777434,0.0601626797,0.0474705585,0.0573993083,-0.0373702466,0.0066827202,0.0407784909,-0.0951429459,-0.0316656797,-0.0272928387,0.1038403101,-0.0751765105,-0.1907741473,-0.0637855429,-0.145716796,-0.0883081486,-0.0281611003,0.0123815302,0.1220087323,-0.1057949243,-0.1328936187,0.0341844372,-0.0647241671,-0.0289677868,-0.0713653847,-0.0056560748,0.0029350549,0.1537614274,-0.0117483104,0.0819772853,0.0869359477,0.0919602959,0.0689126516,0.1255668443,0.0417245844,-0.1604311501,-0.1719136541,-0.3164277029,-0.3031363014,-0.3817435814,-0.3823570432,-0.2989690253,-0.2374409029,-0.1001814256,-0.2806749704,-0.359937167,-0.1683200617,-0.1380910693,-0.0777666703,0.0779533227,0.0493343668,0.0419812402,0.0569553814,0.0469948588,0.0551765243,0.0420453176,0.0636868513,0.0448333991,0.1100694786,0.2405252597,0.4864541027,0.2258112384,-0.1603413747,-0.4788177298,-0.2802692295,-0.2283231369,-0.5406722867,-0.6868544569,-0.5771961184,-0.3726457608,-0.3422095327,-0.3628464274,-0.589269149,-0.4467871762,-0.5102099373,-0.2549158974,-0.148125243,-0.0128607134,0.0573001228,0.0317433667,0.0375688288,0.0399317826,-0.0255008252,-0.0376552981,0.0747330762,0.3141075045,0.3796279493,0.5976902933,0.6639388926,0.2885087943,0.0341821541,0.1085544878,0.1128810365,-0.0813162686,-0.0554038397,-0.0192894908,-0.1110637916,0.1473176262,0.0186706572,-0.0613651549,-0.240822798,-0.1151686324,-0.4409508689,-0.2227648042,-0.1929743269,-0.1236590942,0.006399635,0.0175946823,-0.0101207014,-0.0455069044,0.018410633,-0.0324593633,0.2705282342,0.4421317853,0.4290080845,0.44806547,0.4836369314,0.3132539559,0.6548167801,0.70982825,0.4569540116,0.5034289242,0.5256580916,0.454958549,0.0305894606,0.2139011848,0.3928522178,-0.0491396643,0.0080127186,-0.1464480215,-0.2088357428,-0.1781627583,-0.2730771878,-0.2042950156,-0.064563404,0.0723219662,0.0064991223,-0.0342052472,-0.0967384048,-0.034408047,0.1835254092,0.3559540292,0.2099591013,0.1235647516,0.335567123,0.6284863953,0.8018745928,0.9869030007,0.7892608604,0.6198002107,0.495569481,0.5291625054,0.0382846908,-0.2294971434,-0.2005299419,-0.1844857798,0.0809713912,-0.115484797,-0.1693153214,-0.1305710272,-0.3314469813,-0.1557543081,-0.0551758695,-0.0683181346,-0.0368863193,0.0452419756,-0.0031775029,0.0439545915,0.0651418845,0.4318193533,0.0965744692,-0.0277174666,0.2877871149,0.4130610817,0.4491278183,0.0256569529,-0.0186429891,0.0883982996,0.2071229091,0.081513338,-0.4360933059,-0.2092042585,0.0880401764,-0.2141869527,-0.2219221116,-0.2508487719,-0.1413978028,-0.3127680865,-0.3280829733,-0.0947439971,-0.0350815816,-0.0448097099,-0.0787164972,0.0362040868,0.0052630784,0.0260733297,0.1092822053,0.2532522667,-0.0307334676,-0.1574977491,-0.5156759931,-0.4933324311,-0.9430020357,-1.0295581182,-1.0852116167,-1.0290403865,-0.6015118236,-0.3879048443,-0.2614632662,-0.298077064,-0.1864056013,-0.0200838921,-0.3052087816,-0.166463321,-0.3267483564,-0.341745922,-0.247093386,-0.1331987465,0.0232407531,0.0820956971,0.0163867365,0.027781245,-0.0152352537,0.1336355151,0.0696051183,-0.1262530276,-0.4054015088,-0.5044948044,-1.2894403432,-1.5571683073,-1.6814870624,-1.6230925545,-1.3433651727,-0.7665399627,-0.4252386762,0.0483609406,0.1625207709,0.3772037878,-0.1168904017,-0.2965391626,-0.4426805373,-0.2711599147,-0.3897254179,-0.3940387928,-0.2143835905,-0.136084964,-0.067309602,0.0181738691,0.0400164455,0.0065479798,-0.0870296277,0.053598077,-0.1257784035,-0.3152118071,-0.6846084995,-0.9127933739,-1.5390050099,-1.8922261344,-1.6645208447,-1.1857954732,-0.742435962,-0.3354897517,0.0557056205,0.2276935351,0.3436384942,0.5700010253,0.2053194353,-0.3286453605,-0.5735347743,-0.4264524295,-0.37394802,-0.3878623921,-0.2674990614,-0.1891737295,-0.0053120009,0.0612262841,-0.0673235088,0.0145783812,0.0847413442,-0.0359245587,-0.1762255247,-0.4700968252,-0.8462820308,-0.8834825175,-1.1631964471,-1.2322774323,-0.832911971,-0.2762219505,-0.2335226041,0.018396168,-0.0392753867,0.2319648164,0.2517318424,0.6915242271,0.0921395683,-0.3437562616,-0.5559525925,-0.153478681,-0.3247362237,-0.5307753699,-0.4206304244,-0.0156526491,-0.0114815517,-0.02111856,-0.0110200511,-0.0824992298,0.0368897349,0.0179879348,-0.1288133945,-0.251472821,-0.7766816028,-1.0582660558,-0.89321631,-0.7568766813,-0.2033202842,-0.0625749554,0.5438009796,0.5058969825,0.0339210551,0.2343096731,0.6844178639,0.2524423635,0.2191906457,0.4700676749,0.0173173885,0.2039370368,0.1913378412,-0.1314315732,-0.3047112774,-0.1635730637,0.0106291363,0.0312223307,-0.031815096,0.0582038891,-0.0036447632,0.0047373545,-0.0809251144,-0.1689590148,-0.5125750632,-0.7138089592,-0.507157547,-0.3950628244,0.0225165049,0.3410576037,0.6566339303,0.5983075893,0.3243198827,0.3253977691,0.7198444861,-0.063658972,-0.1599898527,0.7230672252,0.5222990173,0.2990260957,0.6970949075,0.3394133665,-0.1352395635,-0.0077901534,0.009038608,0.0033096989,-0.0109748709,0.0319562553,-0.0014771177,0.0214010389,0.0076023125,-0.2117218066,-0.3444309538,-0.4336850267,-0.1703485107,0.1126630044,0.4854357373,0.7789151024,0.7934222492,0.8024412384,0.4867775189,-0.0053215054,0.0947508009,-0.5622710153,-0.1744821392,0.2708666811,0.7052134392,0.2764108794,0.4053227827,0.3477166077,-0.0375547049,-0.0723920837,-0.0248831227,0.0516062701,-0.0463275864,0.0201857284,0.0451200621,-0.0687210045,0.1343075685,0.0294276954,-0.1165607168,-0.2736674251,-0.1345593062,0.079092061,0.0415992387,-0.1616219455,0.1557582045,0.3257458287,0.2864539261,0.0264120166,-0.41784158,-0.4275301792,-0.5828695534,-0.2950852219,0.0689717179,0.2528702009,0.4016300319,0.2679691337,0.0009299863,-0.319722814,-0.1494962951,-0.0373002843,0.0852278945,0.0538389989,0.0130062532,0.0594125776,0.1638181812,0.2454321069,-0.0799549959,-0.3521681254,-0.2386224837,-0.4304266125,-0.4995372809,-0.8525661361,-0.5484601822,-0.6389862261,-0.4729262309,-0.6019534781,-0.5205491598,-0.443447009,-0.2371533501,-0.4428604651,-0.2275148459,0.081347875,0.293512781,0.2455844741,-0.1694745483,-0.2203717861,-0.0787726053,-0.1138348362,0.040334321,0.0705845863,-0.0849145762,0.0344201347,0.1986241895,0.3055636295,-0.0024908179,-0.5638051401,-0.5992800254,-0.5421481258,-0.6879426148,-0.9355047105,-0.9519842232,-1.0399093823,-0.7447040602,-0.8641944093,-0.5722431533,-0.3065243645,-0.3807576241,-0.5738268604,0.0345844409,0.1682099896,0.1666264578,0.1744589962,-0.2296900314,-0.2088270492,-0.176885947,0.0041301882,0.000093091,0.0798022624,-0.0101594583,0.1519025498,0.1594479258,0.1716447214,-0.1750957096,-0.6060302926,-0.7709507728,-0.5716311003,-0.5618310227,-0.4048217792,-0.7366097318,-0.5763734259,-0.669211285,-0.3114599912,-0.1576186488,-0.2744394236,-0.2780777299,-0.3086850292,0.2999164233,0.4502251251,0.1339799045,-0.3054632433,-0.149163988,-0.054396138,0.0792488041,0.0708947105,-0.0216940759,-0.0121896053,0.0311555785,-0.0416016345,0.0538458369,0.1933838871,-0.0010833715,-0.3386246537,-0.5933600572,-0.8409554664,-0.7194053615,-0.2981080005,-0.4323050231,-0.0282742638,-0.2280995504,0.0150845513,0.1487826709,0.164071235,-0.3368402767,-0.1601833325,0.3706175964,0.3174024435,-0.2932357873,-0.4282575092,-0.2170463227,-0.1979537732,-0.0091935328,-0.0935347278,0.0629602797,-0.0045826365,0.0082619021,-0.0004280099,-0.0628202298,0.2019330294,0.2410443679,-0.0026114747,-0.1397148386,-0.5154598955,-0.9652769505,-0.5222651939,-0.2614588749,0.1107433166,0.1064563724,-0.3248264585,-0.0671341493,-0.0560215308,-0.4188977309,-0.1748520451,0.1285536079,-0.1492612533,-0.5080234252,-0.3670429693,-0.2127252285,-0.0034827345,-0.0106268891,0.0666812289,-0.071385231,0.0126330971,0.0255568185,-0.0342598174,0.0794494164,0.210590956,0.3835719172,0.4394039545,0.6354586505,0.2757989946,-0.1417438688,-0.1635943565,-0.2097919083,-0.3445247225,-0.1925074883,-0.2510872033,-0.0141122287,0.0834616926,-0.0359369241,-0.0502032436,-0.4849087733,-0.6334106911,-0.6403612004,-0.5020117866,-0.2124021448,-0.0390324564,0.0043591604,0.0084898652,-0.0150623821,0.0762419315,0.0332783129,0.0309144893,0.0474283987,0.2329941625,0.2992955771,0.4617204436,0.6641998766,0.7925627608,0.5969287133,0.5524006324,0.4554627159,0.002147213,0.1696757743,0.0847999169,-0.0586361829,0.0025794309,0.0898328378,-0.6336293165,-0.6297090724,-0.5437690381,-0.4649519382,-0.2161145621,-0.0387710659,-0.0469625953,0.0025057592,-0.0221354707,0.0455861038,0.0581775642,-0.0056739185,0.0210843781,0.0772164563,0.1568172078,0.1613898979,0.2318975982,0.4344490477,0.6127251432,0.6657349722,0.4865613925,0.2456098024,0.1080957617,0.0242729894,0.1246574998,-0.1360427467,0.1379331362,0.0319943005,-0.1607384705,-0.1371188965,-0.2010726431,-0.2766120736,-0.06996628,-0.0512786986,-0.09374233,-0.0263986951,0.019337521,0.013040068,-0.0668135667,0.0916097039,-0.1186901247,0.1047934775,0.0763797322,-0.018212246,0.0758569723,0.0761589636,-0.0396389647,-0.2275379112,-0.1374638069,-0.1680119392,-0.2780573197,-0.1498021507,-0.1006994805,-0.0250269487,0.0372926378,-0.0239352792,0.0192605191,-0.0834154313,-0.0274822499,-0.0858164471,-0.0670369233,-0.054140315,-0.0427515563,0.0237164911,0.024432131,-0.029400084,0.0220761059,-0.0231675789,0.0029794019,0.0828376848,0.0088792028,0.0140819499,0.0571113009,0.0412736299,-0.0050553864,-0.1153746196,0.022322525,0.0827536236,0.0471109357,-0.0168175692,-0.0028698775,0.0263446929,-0.0478405963,-0.04207588,-0.0083456779,-0.0025963411,-0.1086141361,-0.1084792285,-0.0536060299,0.0112460939,0.0592963359,0.0423284446,-0.0165665068,0.0886373692
0.0682221197,-0.0159711365,-0.0044327882,0.000324344,0.0167800273,-0.0934760546,0.0537428872,-0.0005195422,0.0180999026,-0.0645265414,-0.0216272445,0.0274575755,-0.009756438,0.0350183768,0.0455992164,0.0401812546,-0.1064575942,-0.0236836025,0.0108986383,-0.0008090684,-0.0244012311,-0.0097532879,-0.0498547692,-0.0228328137,0.0951585572,0.0050915278,-0.0517608659,-0.0572024704,-0.0109000242,-0.0054819704,-0.0434044096,0.0376744732,-0.0614261079,-0.0297959379,0.0304845863,-0.0753040273,0.0545261921,0.0582251212,-0.0196400397,0.0551371329,-0.0662277307,-0.0541670387,-0.0598247678,-0.0566720026,0.1247710184,-0.0489503298,-0.0006478056,-0.0613573148,-0.001233848,-0.0668258847,-0.0487815192,0.0424124081,-0.0169109071,-0.0791786012,0.0287313897,-0.02974213,-0.1428185751,-0.0108051741,0.0034668905,-0.0208351082,-0.0750457311,0.0785121835,-0.0188699645,0.0540376746,-0.076432729,-0.00352825,-0.1423031016,-0.0316362742,0.0215059484,0.0126307518,-0.065113793,0.0318106255,-0.0526793631,-0.230595978,-0.1763526164,-0.0895289421,0.0083860032,-0.0314995916,0.0653348638,0.0529701402,-0.0611224216,-0.0668741006,-0.1090233786,0.04220601,-0.0342653355,0.008231516,0.0275023239,0.0082893545,0.0249679058,-0.0157374972,-0.0857398353,-0.0404740837,-0.08249143,0.0073782091,0.1327931247,0.2807181528,0.0808357156,-0.1413002252,-0.3032769487,-0.4873125359,-0.3701701203,-0.4384224527,-0.3015409224,-0.250907098,-0.206716262,-0.1520917137,-0.0388435253,-0.0505370265,-0.0218015978,-0.0190705333,-0.0899073745,-0.0113031946,-0.0014630197,-0.0197245183,-0.0907612289,-0.0549287056,0.0453118909,-0.0951421796,-0.0237515867,0.0219125815,-0.051326242,0.0218336747,0.064244446,0.0761290114,0.2690577941,0.1108445248,-0.117829774,-0.2515170912,0.1451200844,0.2441643199,0.1044349928,-0.0427932332,0.0884962864,-0.1138415841,-0.1537658044,-0.1531067665,-0.0320637304,-0.0870401396,-0.052987649,-0.0043702795,-0.0204713836,0.0335204218,0.0243923118,0.0261984562,-0.0098367618,-0.1119593614,0.1784146733,0.2951861519,0.1918391237,0.3128432868,0.3846296643,0.5581507763,0.5971400762,0.6094433727,0.4174027409,0.8952607124,0.8382982452,0.886047625,0.6632651864,0.1511325921,0.2290394865,0.1164167983,0.1238337918,-0.1124236337,-0.1105315548,0.0191607933,0.0355655932,-0.0123260864,-0.0585976869,-0.0209446158,-0.0839369436,-0.0659652268,0.0484525132,0.1069790467,0.3527918199,0.3663518033,0.3684164111,0.3151291577,0.3852617567,0.1735900543,0.3123358535,0.499520322,0.7018740858,0.5714956001,0.7249352675,0.3684403246,0.3017250482,0.1096489109,0.0199676225,0.2513525139,0.0950397696,-0.1608430789,-0.171593039,-0.0521624352,0.0064507171,-0.0567901894,-0.0213705744,0.0370866771,-0.0274119745,-0.0134908206,0.0907472165,0.115188608,0.4832628132,0.2373750141,0.1062369878,0.2762208013,-0.1317497222,-0.0645353431,0.3169861087,0.2199640026,0.2464109508,0.5903848967,0.7005591298,0.2226034937,0.0130110208,0.1678337916,0.0316044282,0.0323666538,0.1708235012,-0.3239244156,-0.1855058337,-0.1236794008,-0.0165189566,-0.0237510997,0.006484314,0.0640961044,0.024354944,0.1316306747,0.0901547235,0.1474012726,0.184922864,-0.3741563917,-0.1674263122,-0.262017808,-0.2075940359,-0.0739203458,-0.1564502545,-0.6035077187,-0.2030161954,0.1358230768,0.8488769602,0.0653283249,0.2941423593,0.3384435293,0.1156747623,0.0166914734,0.0280355697,-0.206067131,-0.278428588,-0.0616486435,0.0199615306,-0.0140353254,0.0408649224,-0.1076174031,0.0177306504,0.2155098259,-0.0839529922,0.0057329327,-0.126765314,-0.4214201567,-0.3233429593,-0.0579392363,0.234765048,0.0020242463,-0.4120385535,-0.6455664397,-0.89624365,-0.8316169258,0.2304518744,-0.0692146615,0.3740968875,0.0658382558,-0.0031835243,-0.1071498726,-0.0792132895,-0.2571586553,-0.2459945013,-0.0313070705,-0.0373931301,-0.0239190697,0.0628092263,-0.0160804758,0.0217252458,0.1194947855,-0.1552428709,0.0644538149,0.0807112807,-0.1584025933,-0.0045959034,0.0475544048,-0.30702346,-0.537780514,-0.5971345882,-1.1194693533,-1.3935100024,-1.3742321738,-0.214188473,0.0538420484,0.2261161973,0.0223621948,-0.0372833571,0.0098176593,-0.3599272208,-0.3575788537,-0.2057854661,-0.2053318033,-0.1629670525,0.0110479285,0.0957354295,0.0810562454,-0.0349810944,0.0571878052,0.0705489898,0.1117609312,0.1244120971,-0.2693800442,-0.2186114125,-0.5698964081,-1.2317414083,-1.026066281,-1.0918996249,-1.3453412591,-1.6449189045,-0.6148958105,0.0515206468,0.0187652973,-0.1876495578,0.1887819306,-0.0756342647,-0.1774446187,-0.6419009516,-0.6185732017,-0.3187464757,-0.2643852415,-0.0173540319,-0.0191255895,0.034426934,0.0735135868,-0.0362634021,0.1156509576,0.0360666649,0.1016449656,-0.1735437682,-0.4216900963,-0.69386842,-1.1050701363,-1.1870200352,-1.4617397169,-1.4683440091,-1.4430728551,-1.3877676216,-0.3300136056,-0.1555386752,-0.3849018238,-0.2239897872,0.2618295205,-0.4805980847,-0.4850709965,-0.6284266321,-0.6923636768,-0.3690087558,-0.025835519,-0.0137836384,0.0351584506,-0.0709251686,0.0854368501,-0.088973763,0.1306247478,-0.0746437,-0.0592181519,-0.4317167292,-0.8541550408,-0.8816863267,-1.019308846,-1.240552083,-1.4122235328,-1.181031038,-1.0213341332,-1.0974148468,-0.7484329392,-0.6363442279,-0.5009114178,-0.2431036372,-0.2974577403,-0.3403934594,-0.3652560084,-0.5190963843,-0.6456733324,-0.3873162536,-0.0131453595,-0.0400048573,-0.0307034402,0.0511781549,-0.0244679772,-0.0271976213,0.1075009195,-0.1314438233,-0.2555936253,-0.1229960755,-0.3382146878,-1.0011070718,-1.0652036452,-1.2250929548,-1.1449207496,-0.8040177538,-0.813053316,-0.8612347603,-1.2571307709,-0.7234837872,-0.6939209558,-0.8033616922,-0.6357731746,-0.4543672541,-0.6692115726,-0.8380044168,-0.8766704476,-0.4506438219,-0.1370510462,0.0079357859,0.0098382684,0.0148683996,-0.0274140476,-0.0517295361,0.0581426463,-0.1000926785,-0.1927960687,-0.0867173771,-0.2305720638,-0.3933441305,-0.4426074339,-0.8838921366,-0.3742415346,-0.2416881853,-0.3817469719,-0.5158445269,-0.624026553,-0.4803864651,-0.7437788334,-0.5522293281,-0.4726153546,-0.7148416627,-0.9687519506,-1.050960652,-0.9126924531,-0.2402305235,0.0097188734,0.0018871671,-0.0303925587,0.0230374658,-0.0661871489,-0.1848981435,-0.0077328106,-0.1601424194,-0.0916980181,-0.3230919028,-0.3137347573,-0.1026435237,0.0565620575,0.0953883036,0.10364344,-0.0250285622,-0.126004972,-0.2939697935,-0.6951472417,-0.3254344329,-0.4402498902,-0.5445182794,-0.7398350732,-0.9783314255,-0.991167075,-1.0500140898,-0.7717709451,-0.2270017517,0.1411618478,0.0991370478,0.0144024846,0.0298161076,0.0203247442,-0.0126980934,-0.0407017658,-0.1460562833,-0.1809610975,-0.2056972373,-0.4920622276,0.0449133263,0.4835574514,0.6786634886,0.7395046399,0.4692962032,0.4452624566,0.000126515,-0.4097392379,-0.6382782182,-0.6004215064,-0.5908145541,-0.8526637808,-1.0138784139,-1.1378491621,-0.8992735688,-0.5824387723,0.0662804414,0.2645398232,0.1848274921,0.0430866357,0.0044795077,-0.0205031894,-0.0441184826,-0.0804253641,-0.0844207103,0.0437491849,-0.0412502778,-0.0862261065,0.308596789,0.7059995456,0.4898652731,0.3809988888,0.777511958,0.6431338466,-0.216610619,-1.0704151374,-0.9831824867,-0.738508304,-0.3236506263,-0.8182950278,-0.4940460694,-0.740804404,-0.8728347469,-0.1166006892,0.4151867718,0.3723255912,0.1084261468,-0.104913039,0.0220919984,-0.011638913,-0.030125873,0.0177648707,0.117954119,0.1343961544,0.2435425708,-0.0090350212,0.2101525535,0.1957952889,0.3602988008,0.9304598354,0.768630862,0.4636424605,-0.2070895488,-0.7992964666,-0.6993799075,-0.2962736705,0.0336618238,-0.0358760778,-0.0923896301,-0.3260965999,-0.2488226871,0.2761820042,0.5167103344,0.2793436487,0.0093542853,0.016205846,-0.0123529736,-0.0011070095,0.0106384171,0.2699806204,0.5947197897,0.3522663562,0.3331424967,-0.2443781751,-0.0548803435,-0.2464724145,-0.0882803428,0.2358091751,0.0467711101,-0.1227471224,-0.1522465886,-0.1496338411,0.3669020573,0.2872369457,0.2862792232,0.8809780671,0.6631789409,0.3695444059,0.3330916539,0.6995569616,0.4938174271,0.1098076302,-0.0135718925,-0.0307143553,0.0063474442,-0.0044506666,0.0083287897,0.2132553791,0.2305893311,0.3310169073,0.2952469348,-0.0314827269,-0.3754128542,-0.2389439574,-0.2993215181,-0.1244492205,-0.1076849753,0.035704367,0.2871174023,0.4811774676,0.8847280518,0.6954763531,0.9767998649,1.1100045055,1.0020848774,0.8048138079,0.620254889,0.9160104698,0.5808708861,0.1087917031,0.0262796565,-0.0715458538,0.043782017,0.0320077057,-0.0062215995,0.0443614097,0.226479433,0.0672326215,-0.0056782971,-0.0363680943,0.0005613916,-0.1887766682,-0.3849754271,-0.1840880315,0.0113765239,0.6055970804,0.7245968155,0.5161172035,0.7888945726,0.5076369032,0.6126489238,0.7921085103,0.8757688513,0.8406940938,0.7510737934,0.5213672189,0.2713031596,0.0295384933,0.0548147492,0.037085446,-0.1113434804,-0.0047008918,0.015325886,0.0527133082,-0.1105314136,-0.0500714403,-0.319847416,-0.0734129101,-0.020953612,-0.0282877231,0.0620699353,0.0440874119,0.0678179582,-0.1312578487,0.027213731,0.1788555561,0.1434142317,0.111701438,0.5926746636,1.0531646433,1.1709594149,1.040339024,0.6008666473,0.2392146937,0.0869135322,0.0397438177,-0.0329080618,-0.035297364,0.0156882179,-0.0072363479,0.0608087119,-0.0838099713,-0.1641312205,-0.2638572907,-0.4732994489,-0.6206011083,-0.3797782932,-0.3443549077,-0.5278967864,-0.4642718162,-0.4244666316,-0.3621863624,-0.3945629079,-0.0866603955,-0.1396084377,0.076343095,0.2991843628,0.4052813398,0.5233910401,0.5721338364,0.4342254866,0.2544215504,0.0967755776,0.1096537028,0.0658620909,-0.1069927708,-0.1184882372,-0.0292152958,-0.0583519771,-0.0387727172,-0.1157837584,-0.0702033157,-0.1718745261,-0.2677116034,-0.3692608004,-0.5045922358,-0.6530417337,-0.6656874834,-0.6315931932,-0.4869309157,-0.4316094405,-0.3173277841,-0.1889634456,0.0067846735,0.0702028938,0.1529988479,0.1550664348,0.318192609,0.1134477115,0.0018071869,-0.0629218997,0.0350683279,0.0129691337,-0.0383843139,-0.0568589283,-0.0658331709,-0.0691693914,0.0517298799,0.0656425583,0.0831919825,-0.0150089792,-0.0508788747,0.0482371611,-0.1056924605,-0.060315229,-0.0991793131,0.0079980754,-0.0920257642,-0.0625237688,-0.0746691912,-0.1915793882,-0.144752873,-0.0384150579,-0.0130225227,0.0775373724,0.1573368879,-0.0523342802,-0.0029313382,0.0035835413,-0.0124578697,0.0114143905,-0.0064477632,0.0309138246,0.085071381,-0.0116786422,0.0243301028,0.0880552375,-0.1119754307,-0.0055808346,-0.0495854715,0.1080122639,-0.005758843,0.0895199699,0.0047024201,0.0285871793,-0.0800325945,-0.0282772536,-0.0090507239,0.0404114745,-0.0400692169,0.0002265422,-0.0597136331,0.0265233121,0.0624320058,0.0429285491,0.0125274141,-0.0224706566,-0.1063093099,0.0336238026,-0.0108202022
0.0683222007,-0.0793039013,0.049488274,0.0013173372,0.0166406169,-0.0371894628,-0.0027959895,-0.0274557366,-0.0639705237,0.0330817092,-0.0328778357,0.0585464264,0.012419345,0.0180786509,-0.0192431654,-0.0365190623,-0.0218847693,0.0711660506,0.0289780226,-0.0610291528,-0.03845821,0.0298590484,0.03014343,0.0875804688,-0.0217265259,-0.0703916414,-0.1054536951,-0.0922853939,-0.0936049619,0.0413249994,0.0018697938,0.0496271541,-0.0514583065,0.0923310942,-0.0050101755,0.0609878655,-0.0232587848,-0.062863471,-0.0321400195,0.0739679903,-0.0463902019,0.0437270667,-0.0316396301,0.0697194039,0.0232819713,-0.007921463,0.0581836862,0.0229181005,-0.0868753873,-0.0196613868,-0.0494251846,-0.0440193713,0.0556696707,-0.0630325327,0.0165959966,-0.0504643119,0.032971878,-0.0030076647,0.0312185171,-0.0122092212,0.1036301836,-0.0787414508,-0.0991894868,-0.1144108987,-0.0558813315,-0.0254346556,-0.0284042491,-0.0025874164,0.0358754375,0.0582245126,-0.0186566746,0.0003035291,0.0250235902,-0.066774966,-0.037807008,-0.045061596,0.0433977464,0.0031839896,-0.0627968071,0.0068242572,-0.0127857611,-0.0150433461,-0.0378495778,0.0144826655,-0.0006639593,0.0055962979,-0.0178644982,-0.0850451035,-0.0113876035,-0.0397323869,-0.0361539392,0.0036059279,-0.0264012771,0.0955653366,0.077904793,0.11813296,0.009370942,0.1327233879,0.0077832411,0.0290279058,0.0989076142,-0.0986555617,-0.2097938182,-0.1486268661,-0.1292359462,-0.1648507938,-0.0432292503,0.0016398623,-0.0069109065,-0.0027943729,0.085771642,-0.0292356068,-0.0105488646,-0.0184882859,0.0584524076,0.0197213881,0.0410981562,0.0313478393,0.0425018197,0.1858298776,0.073763031,0.1363787197,0.1569972843,0.2136545064,0.3282725994,0.2958624617,0.2486170772,0.213449551,0.1038736054,0.0959075671,-0.1334504013,-0.2867805457,-0.3598526643,-0.2067437568,-0.2453961006,-0.0325123825,0.0432473104,-0.0809261261,-0.0092031058,0.0184583235,-0.0596232631,-0.0266433485,0.040868869,0.0013677066,0.0694368803,0.1045745746,0.1200325042,0.1974433495,0.1454685723,0.2300362943,0.2942406126,0.1524240199,0.3018112949,0.3784261772,0.143869496,0.0113751147,-0.1573612693,-0.1259094954,-0.199312053,-0.3338711799,-0.2871707826,-0.3084412381,-0.4131280074,-0.1277643029,-0.107933405,-0.0191609979,0.0203422239,0.0053735531,-0.0172670274,-0.0311913349,-0.0308751777,0.1155909549,0.0921026472,0.0924037885,0.1638463469,0.1422173493,0.0048881081,-0.1030326494,-0.0672782498,-0.1774421068,-0.0425178673,0.1930109696,0.0370856733,-0.0515650615,-0.0403078682,-0.0442021043,0.0167613321,-0.0212708432,-0.0904987021,0.1123263169,-0.1151522265,-0.097259076,-0.1873502441,-0.0624818403,0.0030752963,-0.0769526308,0.0191658823,0.0275006538,0.0736573582,0.0264079558,0.104220602,0.0183144466,0.1018201249,0.1795575435,-0.168750274,-0.2232679207,-0.5288226904,-0.4624762908,-0.1881167625,-0.082887234,0.0285960083,0.107008433,0.0290947627,0.0033515106,0.1225940311,0.1113511251,-0.0364342064,-0.0054805822,0.0906141234,-0.3045841405,-0.2179249978,0.0167869349,-0.1191462645,-0.0511042575,0.0664843887,-0.1070911117,0.0198836765,0.0013681039,0.0878430111,0.1570623705,0.0523727125,-0.0296133511,-0.1353759018,-0.3746252969,-0.3319890112,-0.4773011366,-0.0309126539,-0.022504406,0.1014666634,0.0998875382,0.1631309754,0.15801917,0.2224054389,0.1214196455,-0.0015370296,0.1676481432,0.147504699,-0.1430089751,-0.3142077669,-0.2158451816,-0.0109015121,-0.014143918,-0.0433540384,-0.0655722857,-0.0036648413,0.0083454057,-0.0874962864,0.0065681313,0.0019828414,-0.2318666461,-0.4855897901,-0.6679626816,-0.4636079525,-0.490586996,-0.2410132645,-0.2610985105,-0.0611745147,0.1302756363,0.3220569894,0.171532528,0.2011717143,0.1429535179,0.3169199364,0.3630607647,0.2104593434,0.0591878644,-0.2884586397,-0.1557264216,-0.004849185,0.0244285672,0.0898100023,0.0096357136,-0.0779703836,0.0598541166,0.0324521137,-0.0832706042,-0.1902538126,-0.4336055203,-0.6993604602,-0.5729578214,-0.7342830024,-0.5329731901,-0.683617819,-0.5932841078,-0.3055159228,0.0084893738,0.2016540386,0.1927477341,0.2325442447,0.2602925502,0.3810380286,0.2780722771,0.2123558723,0.1362370741,-0.0640388489,-0.1593673601,-0.0557832376,0.0418172396,0.0142991921,-0.0133532681,-0.0096060216,0.0358716656,-0.0752164198,-0.1073410177,-0.2593822903,-0.379998277,-0.6125009015,-0.6330428505,-0.623239501,-0.6592781947,-0.7209887843,-0.5244646009,-0.1608532667,-0.0655851055,-0.3558229776,-0.2837796833,0.2602634207,0.145431978,0.1898636548,0.0886023194,0.2034034434,0.1863360497,0.0024139629,-0.1544807805,-0.021160543,0.0098752315,-0.0114577005,-0.0106070099,0.0366368661,-0.0688396304,-0.0355544413,-0.0698067103,-0.415371504,-0.4252796132,-0.5298903569,-0.4078712101,-0.5146214731,-0.6495266438,-0.5828243822,-0.3823971842,-0.3970522597,-0.3342382971,-0.4711732734,-0.3498676139,-0.3501088305,-0.2411459018,-0.0998751802,-0.0729549678,0.1101266233,0.2046401728,0.0235608616,-0.0211154262,-0.0273708414,-0.0708330406,-0.032799815,0.0294156746,0.0066198034,-0.0175595559,-0.1138489446,-0.0581111192,-0.2214431527,-0.4071033493,-0.292851531,-0.3737952479,-0.4721125635,-0.7714712194,-0.550136758,-0.338851452,-0.3149175836,-0.3055556754,-0.2907244208,-0.3886933009,-0.4657553074,-0.5991101004,-0.3855318234,-0.1974419144,0.1062053495,0.1751191116,0.1227248912,0.0020445509,0.1062693301,-0.0472761268,0.0540758235,0.0014867933,0.0163055784,-0.1084708539,-0.0957506996,0.1124291877,-0.2234505548,-0.2939650338,-0.3134053341,-0.1968831972,-0.3766047495,-0.4169390361,-0.4814074782,-0.3037626711,-0.3012341263,-0.4020521263,-0.4301597512,-0.4668120319,-0.3091269145,-0.4763404313,-0.5119923259,-0.1525202056,0.0307993227,0.0519794272,0.1091518355,-0.0746959244,-0.0792360085,0.0727488403,0.0061983478,0.0498050162,0.0388258234,0.0551329364,-0.0728983106,0.0944341866,0.0982679688,-0.0989230449,-0.3113515659,-0.3399960384,-0.4154825487,-0.3831363423,-0.1398492609,-0.066596032,-0.3897797735,-0.6086510653,-0.3692845652,-0.3895931147,-0.1693651527,-0.1348946857,-0.4122973912,-0.1070670561,-0.0181558075,-0.0359888553,0.0540472501,-0.0593859104,-0.0109440316,-0.0646708096,0.017303304,-0.0120823982,-0.0068929127,-0.1010157368,-0.0498890208,0.0364667778,0.1089254997,0.1618336448,-0.1989654702,-0.186562652,-0.3087930223,-0.2554994061,-0.2491712315,-0.2218239712,-0.3118952055,-0.3466034054,-0.2752507858,-0.0803755822,-0.2800825191,-0.0659612007,-0.3340576487,-0.0007028048,0.1290963122,0.1328183946,0.0814737671,-0.0529393942,-0.0092785347,0.0712552182,0.0985009478,-0.0147436599,0.0119309291,0.0798287529,0.1237495663,0.1807179862,0.1053695206,0.0620806881,-0.0514092258,-0.0234115188,-0.1934695022,-0.3825736998,-0.2944969245,-0.3164079859,-0.2837778188,-0.2459119801,-0.3060675941,-0.352866902,-0.2609693775,-0.1738341436,-0.2890044839,-0.0793168739,0.1211767995,0.1034945289,0.0129367655,0.041953385,-0.0921739952,-0.0544659726,0.0420368902,-0.0004797804,-0.0439655079,0.0225469822,0.0605712729,0.0522844537,-0.0560404308,-0.0199498766,-0.0038648999,0.0884768131,-0.2109747539,-0.2615644367,-0.3790271757,-0.3752779131,-0.2557233743,-0.3493986435,-0.4310468713,-0.3218896146,-0.2709397605,-0.1796184713,-0.1496220703,0.0433334455,0.090052944,0.0122321592,0.1810064449,0.0267885312,0.0684777653,0.0192664559,-0.027911499,0.018803996,-0.1248259203,-0.0480440081,-0.0248566135,-0.0079732877,-0.1280250485,-0.2577993256,-0.0701850514,0.0572611666,-0.09273469,-0.3272344459,-0.3972840473,-0.3546592482,-0.3011262737,-0.3108045221,-0.5525403422,-0.3205926616,-0.3082497854,-0.2015682785,-0.1048776832,0.1038890277,0.0894356001,0.147962958,0.0636218709,0.0266784035,0.0129480728,0.0003901338,0.0378608237,-0.0028523104,-0.1032882091,0.0637377902,0.0235854353,0.0521645521,-0.0459761046,-0.3707985602,-0.2169328625,-0.113868007,-0.1781805486,-0.2397345064,-0.1612150165,-0.3516006859,-0.0528211309,-0.3081627334,-0.6295045593,-0.5376077024,-0.5675102224,-0.1971796129,0.091374734,0.1146334189,-0.0666157784,-0.0494061141,-0.0017931482,0.0589821018,0.0042446969,-0.0037292422,0.0697917423,-0.1417065243,0.0532312252,0.0295958852,-0.0348326856,-0.0639099173,-0.0199183261,-0.0220385014,-0.2292207214,-0.2749369942,-0.3243441736,-0.2049496938,-0.2680452622,-0.3154701858,-0.2709632775,-0.2223916536,-0.4368361469,-0.528221378,-0.4196951369,-0.2199051385,0.0615682896,0.153935818,-0.0151759905,0.0082846857,-0.0159265804,0.0732196707,-0.0504841129,-0.0622469192,-0.0419480947,-0.0004342415,-0.0083718414,-0.0456021095,-0.0039896681,0.0868385525,0.0423035457,0.0348589718,-0.0292012597,-0.1949741235,-0.0375252959,-0.0151270802,-0.016890893,-0.0767782698,-0.0025495015,-0.0060429008,-0.3662970182,-0.3600217773,-0.2884942796,-0.0806620097,0.0696547103,0.0236353628,-0.0441749139,-0.1048221233,0.0628726246,0.0328220354,-0.0184215059,0.0401587241,-0.0053277892,-0.0645317485,-0.020239814,-0.0107684352,0.0676504283,0.0461414807,0.0942785585,0.3285873838,0.0750513222,0.1081953653,0.2239004735,0.1789324904,0.1509868376,0.1807771692,-0.0622715557,-0.0394000761,-0.112845727,-0.1332231571,-0.0654505789,-0.0971417036,-0.2029631494,-0.1723868914,-0.0966585896,-0.0831285802,-0.0030157204,0.0375703479,-0.0024677965,-0.017925551,0.0416294231,-0.0874654997,-0.0594142075,0.0575510244,0.1068595468,0.0967221635,0.1992409928,0.3568418521,0.2921430671,0.1732289283,0.0138425295,0.0003462211,-0.0762465267,0.1497397873,0.0100965764,-0.1071792774,-0.1697590179,-0.1867582998,-0.1412084366,-0.1971199416,-0.1570866854,-0.014650876,-0.0049003145,-0.1162300043,-0.0039698774,0.086623627,0.0786831147,0.0131858466,-0.1206580704,-0.0175002739,-0.0843436028,0.0543296047,-0.0380150624,0.0232886419,-0.0002446354,0.0710155708,0.0477147554,0.0476830616,-0.0009259852,0.06965358,0.1627151941,0.1293714617,0.0951397738,0.0181036398,-0.0101794782,-0.0843630282,0.0363953128,0.0031297064,-0.0137747218,-0.0139186278,-0.0080756102,-0.0767599384,-0.0306712912,0.0080152997,-0.0010345889,-0.0585434327,-0.0497133285,-0.0212856393,0.0441309055,-0.042878478,-0.0227492485,-0.0342465968,0.0125700635,-0.0251515653,0.0521984723,0.0406175326,0.1328100022,0.0802102552,-0.0171651979,-0.0223420726,0.1282788979,-0.0075896898,-0.0284694043,-0.0194195541,-0.08417365,0.0123152013,-0.0248425828,0.0787853498,-0.0683378426,0.0449543742,-0.0977576757,-0.0687627098,-0.024063879,0.0174409789,0.0509395848,0.0127646043,-0.0721101932,0.0077439185,-0.0402505185,0.0450229212,-0.0413017289,0.0113101919,0.0367150934,-0.0754555615,-0.113588744,0.0788944997,0.016007053,0.0024276866,0.0476861747,0.015183389,0.0385574471,0.0478280553,-0.0470280487,0.042828374,-0.0315286285,0.0750045273,-0.087428775,0.0586869383,-0.0371140199,-0.0192485988,0.0075866502,-0.0087254453
-0.0652277423,-0.0843987673,-0.0170712638,0.014564451,-0.0019761813,0.0113770246,-0.038967247,0.0435413472,0.0043244329,-0.0485165483,0.004079623,-0.0726300037,0.0772107458,-0.0490240282,0.075113217,0.0213064026,0.0729722101,0.0345535948,-0.006540498,0.0238170541,0.080127818,0.0433575654,-0.0031525781,0.0474247064,0.0305812175,-0.0274921678,-0.0234302329,-0.0036371733,-0.1005417169,0.0746056207,-0.0499514436,-0.0511563274,0.022301383,-0.0246062703,0.0175627979,0.0152476765,-0.0272666232,-0.1120662617,-0.0365249432,0.0546430278,0.0202357784,-0.0517244574,0.0687271116,-0.089666088,-0.0636304827,-0.0806379461,0.0424922197,-0.0632101896,-0.0194214013,0.0764650909,0.0905608251,-0.0008464307,0.0105728832,-0.0055643354,0.0830653384,-0.0107979189,-0.0011638407,-0.0510658511,0.0424860542,-0.0370166354,0.0080671273,0.0103717226,0.021114068,0.0373133302,0.0032362654,-0.0454585184,-0.0162144952,-0.144779778,-0.0854767414,-0.0391566124,-0.0731189041,-0.0357707174,-0.1295712262,-0.0420202445,-0.0393108619,-0.0870938738,-0.0203413404,-0.0300377081,0.0215093169,-0.0324252556,0.0256304829,0.0239588392,0.0661155248,-0.0838768056,0.0280888611,-0.0675503072,0.0554899013,-0.0509248165,-0.030077276,0.0422327768,0.0910369222,-0.0025856323,-0.0428408893,-0.1140426946,-0.2290539379,-0.3532380289,-0.2481563863,-0.2125475074,-0.1681735403,-0.2880795876,-0.4315895212,-0.4452816536,-0.5380784838,-0.3082049637,-0.3587258977,-0.0959608032,0.0988317426,-0.0299230392,0.0232928626,0.0255404437,0.0356750901,-0.0111284158,0.0818232379,0.0559631807,-0.0280533747,-0.0156216513,-0.0463574631,-0.0842604645,-0.1567693373,-0.1093346722,-0.4382547619,-0.4588501945,-0.2140290755,-0.1693072929,-0.112728939,-0.2823046386,-0.4005868661,-0.5825567273,-0.6262020234,-0.6844778112,-0.6730459771,-0.5002557775,-0.306954129,-0.0005490178,0.1341224939,0.1103445981,0.069646553,0.1022468594,0.0162632831,-0.0800078342,-0.0986208764,-0.0913584343,0.0190722864,-0.1098895487,-0.1191687004,-0.2203917244,-0.3841687466,-0.6335318457,-0.5457431465,-0.3343094042,-0.2263494095,0.0122768477,-0.0520565141,-0.5682082142,-0.4502877935,-0.4034502369,0.1603230031,0.4237628314,0.2304513464,0.3624907227,0.1206236057,0.325279546,0.2541165505,0.2674044969,0.2057431241,0.0011063787,0.0244249258,0.0239757541,0.0230316088,-0.0349506376,0.0329139706,-0.2013537762,-0.2278527731,-0.369498505,-0.6089944395,-0.5350297133,-0.2476460573,0.0609022033,0.4575489394,0.359558256,-0.0526088549,-0.4796704135,-0.5318406009,-0.5557369176,-0.6364386043,-0.638112726,-0.012071418,0.3650291641,0.499745189,0.2903654234,0.5297207226,0.6170667712,0.5731286501,0.1906819823,0.0170506711,-0.0266319598,-0.0493536211,-0.027601287,0.030600776,-0.270657198,-0.3571473589,-0.427637133,-0.545892522,-0.2642016335,0.1983980788,0.6093705537,0.6843693347,0.3720593069,-0.3094887367,-0.3931596366,-0.4906986717,-0.5627854558,-0.559526102,-0.5336758557,-0.2032419562,-0.2546868349,-0.124726035,0.2250007366,0.2988105766,0.809471343,0.7409042442,0.2830425746,0.0817394298,0.0687001397,0.0457542965,0.0109730293,-0.042963134,-0.1084419192,-0.4543849014,-0.3643456581,-0.2791260664,0.1291264081,0.583539828,0.7197709998,0.402107385,0.2770022794,0.1547783587,-0.1136133353,-0.5862014086,-0.388819937,-0.0535887589,-0.1349056003,-0.2630519595,-0.1748128337,-0.1663514224,-0.0014418311,0.346342141,0.9428478322,0.9568142109,0.5808045858,0.1561331988,0.1152965542,-0.0099633071,-0.066448649,-0.0825604882,-0.1630974164,-0.4280700237,-0.2769302427,0.1432947543,0.3635658358,0.4991039362,0.6360780235,0.2493253083,0.4681538422,-0.5267063103,-0.9386432821,-1.4274765195,-1.3696191412,-0.4377614326,-0.286191411,-0.3984813166,0.0059657954,-0.1921030953,0.1623947254,0.981735538,1.3642282436,1.2137212778,0.6457316083,0.1534658106,-0.0833329646,-0.0543137528,0.0000413216,-0.0526167282,-0.0710587632,-0.0817246812,-0.0343306356,0.3920481025,0.5258441684,0.6808266052,0.6555115532,0.4115225286,0.2401080457,-0.0316452164,-0.588855082,-1.354672036,-1.5004897409,-1.0783187273,-0.5981100034,-0.1152845991,0.3128584345,0.0086052725,0.0525069401,0.8623377259,1.3444664273,0.8605922252,0.5813549545,0.0705874875,-0.101210158,-0.0900981494,0.0298147344,-0.0566946506,-0.1286257645,-0.0443044426,0.0749556383,0.1521115001,0.578865619,0.939066004,0.454793939,0.3576812412,0.7487454779,1.0733473542,0.3381930234,-0.9169549377,-1.295308502,-1.1688663732,-1.0379039724,-0.2703424398,-0.0248987453,-0.2689201043,-0.1420129795,0.7701036572,0.8915778241,0.5600145058,0.3903675317,0.0861648078,-0.0030795149,-0.0003467344,-0.0425935335,0.0048330389,-0.0067416237,-0.0723297085,-0.0691543702,0.3218415232,0.7542229651,0.7225559413,0.2138402246,0.3622860823,1.2839307304,1.5932503376,0.9388115919,-0.6374495537,-0.9633685391,-0.9646338188,-0.6932132555,-0.4122611506,-0.2152369941,-0.5531123505,-0.2957279485,0.2363585313,0.4063530311,0.112524662,0.1408230672,0.0591076597,0.0291641107,-0.0034642221,-0.0291703816,-0.0667139891,-0.0955213586,-0.2154650363,-0.1730474517,-0.0125678192,0.3282549307,0.6273615372,0.2728460971,0.3258127923,1.3253163342,1.6050251879,0.6080513111,-0.5577551418,-0.5935456992,-0.7592917121,-0.5680412718,-0.3851638538,-0.6328248551,-0.6443431948,-0.6186477336,-0.0309668629,0.0377341149,-0.0607294749,-0.0611329855,0.0567876565,-0.0086010462,0.1193764817,-0.1210010896,0.0712827858,0.0070217742,-0.0853953952,-0.1305471181,-0.114059336,-0.41791922,-0.0915448361,-0.1584565525,-0.2550052814,0.5252067358,1.0971770584,0.6531636855,-0.1890849451,-0.2553013238,-0.3752339928,-0.3649854473,-0.7638119228,-0.9046578347,-0.8721931807,-0.8075787988,-0.3870007954,-0.0898261494,-0.1916133208,-0.054480267,-0.0696957836,-0.0072198173,-0.0366170583,0.0582197886,0.0257650118,-0.1427920185,-0.0822804431,-0.3561311252,-0.6376183072,-0.8337145122,-0.6041119993,-0.0750454417,-0.0949824626,0.025827356,0.6165743061,0.1065813619,-0.381689594,-0.5681046334,-0.3490749281,-0.829387742,-0.8390243676,-1.1497413841,-1.500008847,-0.9847230594,-0.6831549169,-0.0880092117,-0.0810976656,-0.0687452316,-0.0994363709,-0.0099014663,-0.029359618,-0.0274544581,-0.0620844841,0.0134001677,-0.2368640599,-0.4251993658,-0.7823526649,-0.6061503396,-0.2185747206,0.0987630268,-0.001926931,-0.1672893709,0.7156516191,0.6323100251,-0.5567360741,-0.6163998841,-0.9074109024,-0.6914959707,-0.981984211,-1.5591586234,-1.4001572677,-1.0473513101,-0.6337149012,-0.1556561463,-0.0408208494,-0.079453228,-0.0947013719,0.0110972261,0.0011415675,0.0029687928,-0.0331657158,-0.0130075203,-0.1811428239,-0.3168320303,-0.2992516536,-0.1348794407,0.0474611074,0.0744289587,-0.1593672718,0.0725858166,0.8142488132,0.8012769037,-0.0326238361,-0.5704680475,-0.7214739687,-0.441363556,-0.6690055639,-0.9467811297,-0.9603921077,-0.6144607063,-0.588649393,-0.071566972,-0.0069390403,-0.1623005036,-0.0286435604,0.0606482445,-0.0398398466,-0.0375504569,0.0713286977,-0.02566046,-0.2431777154,-0.3506874383,-0.0149327812,0.0185007226,0.0207369175,-0.1081565072,-0.1016399868,0.406375732,1.0218447593,0.6499266078,-0.0782804703,-0.2234387159,-0.7789497545,-1.0718447142,-0.5039413353,-0.4043557048,-0.5468945934,-0.6912448038,-0.70982223,0.0160783948,0.0533536683,-0.1296194491,0.0622247504,-0.0298878855,0.0108561602,-0.0939549838,0.0240841293,-0.0047429884,-0.1639299826,-0.1631588096,0.1299930157,0.1569408759,-0.1137681748,-0.0458146776,0.0547807345,0.2607609542,0.4851685043,0.2579440718,0.0025799924,-0.2086938374,-0.7840587436,-0.8597160721,-0.332705046,-0.2113336338,-0.2310205043,-0.4748358102,-0.6293432956,0.0995594994,-0.1040836902,-0.1237665171,-0.0271696506,-0.0294022016,-0.0205548808,0.0393004631,0.051141093,-0.1567508848,-0.139356047,0.1213086747,0.1325258629,-0.0323883938,-0.1503654046,0.2677830314,0.3980067231,0.6123276181,0.5510548355,0.1231626659,-0.6591055517,-0.5725664026,-1.1268053225,-0.3349501286,-0.2098791896,-0.2965873584,-0.2100467444,-0.1425161997,-0.1043633507,0.1324510323,-0.2327722881,0.0448471331,-0.0542056256,-0.0163817449,0.0752763707,-0.0867023512,0.0125415347,-0.1080206993,-0.1713925199,0.0665795236,0.2084084461,-0.2204755642,-0.3028388964,-0.0405809662,0.0155018014,0.3960930791,0.0563502949,-0.2346446459,-0.6688847132,-0.7724188525,-0.6115118448,-0.1244692458,-0.4641576275,-0.1522883041,0.1934391821,0.2870402843,0.2945043727,0.0756319082,-0.1987915315,-0.1016942541,-0.1049284762,0.0490925389,0.0323036314,0.0198919241,0.0098083311,-0.1751997981,-0.1163200831,0.009026796,0.1237660577,-0.0896676283,-0.2789717005,-0.1370643113,-0.0981093285,0.3702928029,0.3222333189,0.1993351822,0.0188933703,0.4202952995,0.5492535044,0.3087904958,0.3436535916,0.3728627372,0.5378706924,0.2796232982,0.1503774709,-0.0283427167,-0.0302840918,-0.1344035194,-0.0944464251,-0.0573830451,-0.010486434,0.012647305,-0.0710322988,0.0007855721,-0.056080693,-0.279995323,-0.2434443978,-0.2935606028,-0.0568730598,0.2541522353,0.0579684504,0.3064117356,0.9924867669,1.2204804335,1.1820536319,1.2095951688,1.5753363611,0.947132574,0.7814313703,0.6537533012,0.2649431837,0.2017739214,0.0447498073,0.0370157366,-0.1610005759,-0.0178795592,-0.018407657,-0.0549932072,-0.0219326259,-0.0213572299,0.0162851855,0.0235409889,-0.0419261519,-0.3232792963,-0.5077893704,-0.5848594386,-0.3722891463,0.3483320175,0.2267815662,0.5739524803,0.6197412837,0.8487891755,0.5150851103,0.4234740573,0.5875535737,0.6416053002,0.5754874346,0.2624013483,0.0070726131,-0.1069288718,0.0060742081,-0.0220577864,0.0223116998,0.0255588721,0.052130055,0.0110343312,-0.0079350058,-0.093591502,0.011477438,0.0615760274,-0.1482637164,-0.2915982299,-0.5314567976,-0.7716361362,-0.8663026303,-0.4884703605,-0.3959808587,-0.4616363927,-0.2886354781,-0.1983600275,-0.2342044231,0.2827015699,0.3562607086,0.2886644651,-0.0664373189,-0.0467206036,0.0097758013,-0.0369015348,-0.046059306,-0.0441160735,-0.0418813186,0.0896321607,-0.0705958681,-0.0410892849,0.0081327278,0.0419888122,0.1182917739,-0.0302235787,0.0335866384,-0.1128007577,-0.1788746893,-0.2348626665,-0.1978029819,-0.3429872724,-0.2635053532,-0.2115508671,-0.3130115437,-0.2811829283,-0.3081150965,-0.1252423797,-0.1323511697,-0.1513458961,-0.1381913973,0.0114936981,0.0187714615,-0.0068936176,-0.0219685476,0.0069694858,0.0283507656,-0.0023321067,-0.0824816211,0.1051391724,0.0147924012,-0.043992967,-0.0387758485,-0.0491649799,0.0148271058,0.0603326683,0.0051202257,-0.0285173092,-0.0220457884,-0.0261335252,-0.0753097502,0.031123131,0.0187737052,-0.0090948423,0.0040493381,-0.0398212612,0.0150752925,0.0183492672,-0.1427175708,0.0051532044,0.0448988629,-0.0226711719,-0.0428979827,0.0300884289,0.0227487201,-0.0674879649,-0.0586781688,-0.0212193402
-0.0001271167,0.0259425516,-0.0416389069,0.0186192626,0.0280376817,0.0503248754,-0.0742336341,-0.0424451108,0.006352751,0.0648572055,-0.0363745963,-0.0426834328,-0.0551330626,-0.0367934083,-0.0606328767,0.0268266081,-0.0386375859,-0.0340694548,0.0487529313,0.025436163,0.0875149804,-0.0057663482,-0.0415998127,0.0034933722,0.0220582007,-0.0793572233,-0.0543565865,-0.0329434471,-0.0376137786,0.0356856098,-0.0147184697,0.0217430099,-0.018355834,-0.0213931689,0.062564214,-0.0231822378,-0.0581223607,0.042184442,0.0467215182,-0.0092829064,0.0482459448,0.1273818027,0.0542155547,0.111971641,-0.0080780796,0.0663690833,0.0451512844,-0.0527897907,0.0612447897,0.0020088211,-0.0250207166,-0.0093768606,-0.0273563792,0.0304547497,-0.0996370245,-0.0534868187,0.0331218239,-0.0092142562,0.0585188177,0.0196293782,-0.0081535687,0.0447869708,-0.0127380771,0.0416846478,0.0143976456,-0.0898125213,0.0348616544,-0.0188365722,0.0306249365,-0.0191537763,0.0284391431,-0.0179299367,-0.087525654,-0.0044098682,0.0183989324,-0.0256791759,-0.0229929092,-0.0023378041,0.0325764019,-0.0127762011,-0.0378254537,0.0853046771,-0.0032965143,-0.0106495481,-0.0346139047,0.027605054,0.0374216022,0.0362159258,0.018524172,-0.0441282413,-0.025142785,0.000995463,0.0832265459,-0.0482654587,-0.0784285742,-0.124017936,-0.0052585152,-0.1625499207,-0.1893210494,-0.1620131005,-0.1124497433,-0.0908908798,-0.0137158945,-0.102789905,0.0306674916,-0.0707217946,-0.013340291,-0.0589159605,0.0220713166,-0.011743449,-0.0156227587,-0.0201601986,0.0012097757,-0.0553480198,-0.0497410343,0.0591305561,0.015678123,-0.0218383268,-0.063837215,0.054567297,0.0124953308,-0.0268815637,-0.0511667508,-0.1447489618,-0.1133282874,-0.1938714948,-0.177934379,-0.3214258522,-0.4277084462,-0.2446461695,-0.0258195113,-0.2379877927,-0.13931507,-0.0614466323,0.0195881806,0.0175236641,-0.037482808,-0.020895023,0.0353790296,0.0259846291,0.0368233559,0.0583314251,-0.1000538284,0.0075504811,0.0476704722,0.083534145,0.0159701273,0.0014336788,0.1534092818,0.1323924223,-0.052349976,-0.1014526375,-0.0837940543,-0.2471454595,-0.2769987441,-0.3696253484,-0.6485833416,-0.5237709188,-0.3719938428,-0.2758992305,-0.2238310768,-0.1111923486,-0.029932572,0.0125261484,0.0354123123,0.0348002356,-0.0107321239,-0.0189510379,0.0514308901,0.0364771839,-0.0706966787,0.0701238337,0.0637039397,0.0981998641,-0.0415049088,-0.0512869949,0.3428250144,0.1461801919,0.2029249973,0.0742366159,0.2397787086,-0.0616924309,0.0279903283,0.3463519315,0.2582728892,0.0043468133,0.2781362473,0.2624848811,-0.0770535617,0.0895779543,0.0468119117,-0.0519714451,-0.0768427364,-0.010017346,0.028650126,-0.0141118456,0.0567576156,0.000922539,-0.0068596356,0.0244748089,-0.0587592942,-0.2415141053,-0.2846324514,-0.3415431342,-0.0345808982,0.1292070888,0.3666061115,0.5351968873,0.3740656386,0.3919429132,0.3892017107,0.0797300696,0.3322500733,0.5381628878,0.5847787054,0.5702762778,0.2246718523,0.3047959929,0.0203918312,0.0562036305,-0.1632122626,-0.1226749951,-0.0176917839,-0.0234877736,0.0767521406,0.0659600985,0.0325824058,-0.0879028068,-0.1328251447,-0.3702498425,-0.2954852059,-0.1316486901,-0.0672100304,0.0130441246,0.1699307992,0.0474464769,0.0051799034,0.1319879612,0.5957908675,0.2408891131,-0.0048913029,0.0764048806,0.179564513,0.2022745211,0.0106379448,0.0133193683,0.0575779025,-0.0648589533,-0.1828404718,-0.0745385213,-0.0975803983,-0.0264269911,-0.0211770399,0.0580478204,-0.01277787,-0.0764699789,-0.1407382645,-0.1653066587,-0.1907412527,-0.2484241372,-0.2039475204,-0.2256356369,-0.1645436898,-0.4300297403,-0.5523536614,-0.0788317738,0.0246805341,-0.4400504931,-0.3183335737,-0.1502455543,-0.159184797,-0.1034564625,-0.2209884317,0.020521327,-0.0745147562,-0.2043495566,-0.1770480704,-0.045166247,-0.0778670783,-0.0461967103,0.0612201287,-0.0527118287,-0.0121721326,-0.1270415532,-0.0464889191,-0.1169835144,-0.2862467923,-0.0873482489,-0.1139123249,-0.4016497817,-0.0163421446,-0.768077126,-0.9925795829,-0.5312776243,-0.7011345371,-0.6183499158,-0.3387819712,-0.155701995,-0.0908116795,-0.3559786929,-0.1237796972,0.0169156971,-0.0480452055,-0.1888493293,-0.0645960126,-0.1278187363,-0.0009010182,0.0661706658,-0.0092238205,-0.0306984774,-0.1320284369,-0.0165588252,0.0674219743,-0.1470755303,-0.2122828477,-0.0154058136,-0.2786054334,-0.2750222999,-0.3705040237,-0.8377413831,-1.1649566292,-0.9486440335,-0.9275769436,-0.8715795027,-0.387193831,-0.2932232598,-0.0812916294,-0.4598028346,-0.2929304779,-0.1844727823,-0.2426096128,-0.222019529,-0.0026795952,-0.065467038,-0.0171799675,0.097932519,0.0160514888,0.0874894944,0.0000791915,-0.0790915464,0.0794816127,-0.2708264842,-0.2518028714,-0.3035749616,-0.3271287475,-0.3866917471,-0.6664946073,-1.2926402419,-1.3938965545,-1.3245948719,-1.3933210805,-0.7963857469,-0.3013597076,-0.4420409105,-0.3701663046,-0.6341509574,-0.2994650377,-0.2966576204,-0.4687615396,-0.2404501979,-0.1486481588,-0.0804543012,0.0238312127,-0.0230577383,-0.0139105541,-0.0116408391,0.0487010861,-0.0853418264,-0.1445223367,-0.385559851,-0.3564485508,-0.3973054803,-0.5248118988,-0.801804747,-1.0308403393,-1.3667080925,-1.5712313975,-1.2179064092,-1.3431308937,-0.7004310268,-0.2892835742,-0.5266038934,-0.6118692877,-0.6120190053,-0.3290511092,-0.3468531478,-0.3199294106,-0.1988840253,-0.0473551996,-0.0066274324,-0.0614296952,-0.0405553052,-0.0460833351,0.0338528281,-0.0153786331,-0.1048233953,-0.164207913,-0.3265991256,-0.4614811404,-0.5635044277,-0.7654389937,-0.9456539855,-0.9717100645,-0.9740530784,-1.0834514835,-1.1289382609,-0.5051111992,-0.4841453825,-0.238906236,-0.2060225338,-0.0019837515,-0.0190344603,-0.3005977551,-0.1079705197,-0.0449637484,0.0302059195,-0.0009007853,0.1773277493,-0.0398428108,0.003215346,-0.0570049782,0.0696741413,-0.0255123287,-0.0462469792,-0.1052451715,-0.3355644227,-0.3879859685,-0.5153888043,-0.7470224003,-0.9064355215,-0.6557781313,-0.5951538815,-0.5727546355,-0.959048762,-0.5327511619,-0.2805948291,-0.2451140047,0.0785791762,0.2703122254,0.1779595551,0.1713923702,0.1643428683,0.1409225803,-0.0154091668,0.0196729872,0.0268572331,0.0665316141,0.0206157435,0.0108385987,-0.0908040785,-0.0709643113,-0.1022760577,-0.2157486958,-0.111885511,-0.3726450541,-0.3991713245,-0.3767508184,-0.8393504882,-0.6750711884,-0.5045006547,-0.6873949712,-0.7330488627,-0.4380563715,-0.2198531341,-0.3169047718,-0.0756534094,0.125084302,0.0121751394,-0.0666498863,-0.2089976262,-0.0804996149,-0.0146944124,-0.0887282414,0.0106700361,0.0112457602,0.0230128349,0.0055140584,-0.0263794777,0.0018544861,-0.0630918122,-0.0326135631,-0.1777533564,-0.3176997754,-0.3202145321,-0.4296461411,-0.6466257723,-0.4968975424,-0.3272578972,-0.2802552272,-0.1563217494,0.1411770307,0.0174909509,-0.3542622186,-0.4085800415,-0.3166872058,-0.4793369722,-0.4595648565,-0.3085251982,-0.2570020841,-0.0911919085,-0.0874998392,-0.0406972015,-0.0683705847,-0.0921282205,-0.0395171395,0.0942957097,0.0744628988,-0.0393428111,-0.0433252677,-0.1929684927,-0.4416101691,-0.3538767471,-0.5639439667,-0.6676744119,-0.5474888445,-0.0918203583,0.0248116877,0.513653522,0.1408843027,-0.1054530346,-0.8242235188,-0.7127357339,-0.6292817168,-0.7384943528,-0.5311437662,-0.2891525661,-0.344936521,-0.1338583019,-0.2146577273,-0.0103674383,0.029983845,-0.0404950085,0.0859573588,-0.0049162433,0.0441277234,-0.0256042275,-0.0383747278,-0.1905787543,-0.246761687,-0.450286219,-0.4266427825,-0.443073519,-0.2762679798,0.0034780415,0.2384686395,0.4322550957,0.0992712581,0.0474042622,-0.5313557809,-0.6581482212,-0.9133771407,-0.7048701842,-0.2794659191,-0.2621006274,-0.1339450554,-0.0873146704,-0.1497842174,-0.0599605546,-0.0518407213,-0.0135113453,-0.0137289544,0.0201296724,0.025357296,-0.0771097348,-0.1751493457,-0.2055999852,-0.4711245202,-0.4099202591,-0.3101049288,-0.1042821564,0.043207583,0.2209169955,0.5130622994,0.3828860236,0.2242703163,-0.0776224734,-0.5589477988,-0.6152257191,-0.8011658115,-0.6390016509,-0.3283060274,-0.3179748458,-0.2732549813,-0.1792854603,-0.0498151898,-0.033180077,-0.0178302235,0.0169333884,0.0762615976,0.0419006301,-0.0265925897,-0.0474534784,-0.1062648696,-0.246482031,-0.3509495446,-0.2636225036,-0.0194463954,0.1820999178,0.1849597324,0.4323101057,0.346441848,0.4994320152,0.062515226,-0.3302957383,-0.54425946,-0.6596836226,-0.682362221,-0.4677709306,-0.4518468928,-0.4244214373,-0.2814103065,-0.1260595146,-0.086054974,-0.0453237702,0.110659864,-0.0776209078,0.0578564801,-0.0286342545,0.0344803354,-0.1220122763,-0.1786477748,-0.0307433891,-0.065881495,0.2354609608,0.2302957478,0.3719902122,0.2296964806,0.2390724442,0.2309266855,-0.0024330747,-0.1535801691,-0.1268575755,-0.3877371974,-0.8232204611,-0.6322235869,-0.2418246667,-0.3181324724,-0.1917563774,-0.1569765298,-0.1030157362,-0.0408526846,0.0508481256,0.0144754758,-0.0118077373,0.0202458843,-0.0248070584,0.0034031047,-0.093402132,-0.1077616925,0.0336124496,0.344100807,0.3459560841,0.1722259909,0.1528899835,0.0748781121,0.0740994634,-0.1750434704,-0.1575068461,-0.0707130346,-0.4276066966,-0.5863465341,-0.8766865635,-0.4903729066,-0.3374147196,-0.3572103197,-0.2411287016,-0.222037637,-0.0850817705,-0.089941738,0.0035752944,-0.0176413625,-0.0300541527,0.0057913184,0.029359524,0.0384417825,0.0883046287,0.0693363203,0.3029992183,0.4956251493,0.1194997254,0.0184800931,0.162788705,0.0033162793,-0.01740088,-0.3176511658,-0.3273941176,-0.3917517717,-0.4144976976,-0.4491319206,-0.3651835092,-0.3029308545,-0.2496694839,-0.354175532,-0.2471914358,-0.1944777045,-0.0881011894,-0.0209760107,0.1058752481,0.0960798553,-0.0250765633,-0.0428933852,0.002267701,0.0162162937,0.1138467127,0.0709697862,0.1622070976,0.2435094481,0.1824697216,-0.0090033617,0.1463690513,0.1159547417,0.0273613666,0.0608022773,-0.2333044711,-0.2114506321,-0.1099675279,0.1032820577,-0.1652629419,-0.2397160004,-0.2589992997,-0.1515163992,-0.038075149,0.0634603155,-0.1135538602,0.0833962696,0.0538734093,-0.0156549812,-0.0603798068,-0.0118165559,-0.0494560964,-0.02885609,-0.0266345067,0.0719826896,0.0464383285,0.1405566109,0.1403116426,-0.0604843121,-0.104071488,0.0178349417,0.0496831788,0.0083203994,-0.1583742845,-0.1264920279,-0.052578821,0.0335063247,0.0731667956,-0.0784846242,-0.0343365116,-0.1065530378,-0.0523973276,-0.017592585,0.0011063749,-0.0411612325,-0.0454025245,0.0390211789,0.029503963,0.0108169553,-0.0252615573,-0.033388966,-0.0963634458,-0.0039102289,0.0607389326,-0.0578998878,-0.0474987029,0.0319785836,-0.0634576122,0.0007733421,-0.0432943523,0.0728440728,-0.036848294,0.03158034,-0.0432365713,0.0622475445,0.0070223491,-0.0240585851,0.025290039,-0.0513335758,-0.0209760953,-0.0282739176,-0.0256746266,-0.0022811061,0.0650282593,0.0193092756,-0.0396628304
-0.0317094476,0.0346972366,0.0478634646,-0.057550694,0.0528902726,0.0607064501,-0.0088404672,-0.0411458024,0.02122039,-0.0026484282,-0.1074093573,-0.0463976449,0.1352922253,-0.0624807464,-0.0090500735,-0.0688973276,0.0029243724,-0.0055876184,-0.0163474804,0.0487521354,-0.0331940325,-0.0683401907,-0.1333128541,-0.0950356072,0.0421566821,0.0819657839,-0.0108853581,-0.0330717322,0.1565629612,-0.1183809322,-0.025706881,-0.0004382437,-0.033542876,0.0227707287,-0.0129793413,0.0360222113,-0.0505956424,-0.0784742793,-0.0983980484,-0.0223569663,-0.0360746534,-0.0283083541,-0.0452392036,0.004971702,0.0753483294,-0.0341858954,0.029513953,0.0236839801,-0.0587038111,-0.0051014537,0.1005110494,-0.0373644475,-0.028839686,-0.0392575896,-0.0432081843,0.0154011815,0.0948331079,-0.0888478585,-0.0480052341,-0.0292316869,-0.0763127841,-0.0175342258,0.0066434118,0.016065096,0.0237429127,-0.0642696608,0.0184213257,0.0176942905,0.1006401303,0.1149989837,0.266997998,0.1021082726,-0.0311346321,-0.0780742188,-0.1970339796,-0.1092574487,0.0015976086,-0.0788485139,-0.0476258366,0.013155398,0.0060781862,-0.0455224323,-0.0692423286,0.0559368502,-0.0246858385,0.0488284956,0.0546859343,0.0285588458,-0.0574276181,-0.1274743204,-0.0597355367,-0.0706168311,0.1316089818,0.2439236336,0.4786837774,0.5843617283,0.5556752243,0.4471089645,0.400906095,0.169415909,0.2353590068,0.0237771023,0.0233767714,-0.224618688,-0.4234586238,-0.4111009115,-0.3355138093,-0.2405130203,-0.2293675004,-0.0601374369,-0.0986713599,-0.0243121293,-0.0226885182,-0.0396803418,-0.0288967149,-0.0035509664,0.0065014515,-0.0001251272,0.0495869844,0.1363188166,0.3303591766,0.4712537455,0.563971033,0.9304828337,0.5892841901,0.5537724938,0.3091756597,0.4496538546,0.4355468143,0.3227040012,0.0417074787,0.171825324,-0.1587186574,-0.3406360181,-0.4383117941,-0.611068075,-0.4521068466,-0.1596361134,0.0139923096,0.0469812773,0.0113799514,0.1119718622,-0.0180541348,0.0691225419,-0.0661784764,0.0493368907,0.0887454429,0.234252407,0.2270953605,0.3785198339,0.4635209843,0.0950944063,-0.1259599727,0.3896916751,0.7392542852,1.1210185076,0.9468967373,0.4260102811,0.5199236854,0.5991645044,0.3125828407,0.027628101,-0.3304852395,-0.5467254528,-0.6310072326,-0.1276948243,-0.0023348182,-0.0437850022,0.1019544594,0.0286125972,-0.0993214255,0.0125274549,-0.0746853011,-0.138631899,-0.0798211507,-0.1285341368,-0.0860940808,0.0441180063,-0.3445079417,-0.5894770336,-0.5723838457,0.1494743261,0.7613637418,0.6482594013,0.4604589599,0.6513407199,0.6853412463,0.2808046117,0.2083496649,0.279718566,-0.3046421244,-0.7729990921,-0.7278892886,-0.3187710574,-0.1375031818,0.0687096448,0.002611935,0.0648794535,-0.0495044587,0.0295336792,-0.0295916682,0.1263947646,-0.183195024,-0.353919311,-0.6112393881,-0.5533931131,-1.0497228628,-0.9864276851,-0.8591645366,-0.4254896372,0.2174636158,0.4781457451,0.2741122407,0.5773770311,0.7458504427,0.645150697,0.4726882021,0.6263436875,0.1423954939,-0.2732974343,-0.5281440012,-0.2777102711,-0.1071221508,0.0638319257,0.0480532234,-0.0260222754,0.0710906053,0.0597366476,-0.0499084302,-0.1019272629,-0.5025368979,-0.802821255,-0.9733383961,-0.8920791456,-0.8979034332,-1.0357470892,-0.8609464555,-1.125089437,-0.1918228396,0.4038490152,0.9180408304,0.5319685221,0.2636595803,0.1750961047,0.4958343137,0.2399056388,0.2083026321,-0.1420093447,-0.6429120796,-0.3486386213,-0.0412235469,-0.0480910464,-0.0328415817,-0.0038595423,-0.0486147434,-0.0214638435,-0.1424825519,-0.3198536812,-0.6970623623,-1.0810722064,-1.3710020228,-1.1791588505,-0.9363496205,-1.2110684187,-1.3187600454,-1.631701308,-0.9704615465,-0.0915494414,1.0760812645,0.3063174996,0.344822267,0.5658621295,0.8065414935,0.4351492626,0.4361898363,0.215424283,-0.4676783421,-0.2316275832,-0.1036009654,-0.0992402003,-0.0263818283,0.013400715,-0.0160823775,-0.0672347289,-0.2645871721,-0.6258060738,-0.9379088797,-1.4081592229,-1.3381815647,-1.501051271,-1.6291399011,-1.3623274133,-1.0859568879,-1.2891340291,-1.3770400882,-1.036279875,-0.1810765126,0.1138658696,0.7473088974,0.7975514051,0.9915044548,0.5597448058,0.3660666859,0.3972454504,0.0851531708,-0.2656560885,-0.1019806505,0.0055696901,-0.0409349593,-0.0366349469,-0.0547508375,-0.0958000244,-0.3304146988,-0.6283864157,-1.2664328316,-1.4388067077,-1.3215831611,-1.4775231209,-1.5503795122,-0.9022116281,-0.5171752404,-0.9016867798,-1.497358274,-1.6162355746,-0.8588736728,-0.2011292319,0.1581216249,0.7174817229,0.5200480067,0.4897736007,0.3693857922,0.2201731108,0.0267456712,-0.2968488959,-0.038714122,0.0550120235,0.0137596791,0.0207509616,-0.0041685419,-0.1521073529,-0.4598118457,-0.762423286,-0.9935228496,-0.9121539091,-0.5559415377,-0.6397879408,-0.3572819271,-0.1389449257,-0.0641100961,-0.8552654676,-1.7581148576,-1.6185828177,-1.1371209866,-0.8936345295,-0.0350631013,-0.054166146,0.3479748523,0.6449695842,0.4749022264,0.2712533269,0.0885390867,-0.0697092346,0.0505417724,-0.0175273502,-0.0273748356,-0.0366117535,0.0273686801,-0.141327217,-0.2747266242,-0.4744780614,-0.5096767255,0.0589292367,0.3188227822,0.0034759508,0.2483591009,-0.0657036564,-0.4342417236,-1.1822781147,-1.1103736062,-1.5647173954,-1.189147896,-0.7532448395,-0.3527134027,-0.0122275723,0.2924065671,0.4153928615,0.3268298701,0.3380552101,0.2912359374,0.1097116513,0.0792877158,0.0877909898,-0.018207274,0.0859163413,-0.0475378246,-0.047193407,-0.263162244,-0.039149886,0.3217366477,0.8516409922,0.7443997875,0.3461738482,-0.3849608174,-0.6694277128,-0.8482755542,-0.7355517113,-1.2130068333,-1.4019711237,-1.0694785225,-0.4264558254,-0.0717201163,0.0590515447,0.0698212071,0.2150896747,-0.1025683755,0.3810697262,0.160971351,0.1499476982,0.1814449841,0.0281845607,-0.0286655097,-0.0493155815,-0.0326816942,-0.0995191507,-0.0024899134,0.3297485977,0.5450549217,0.7861303826,0.3046598706,0.3740351382,-0.239154734,-0.7515059826,-0.9724684674,-0.9090968052,-1.0648831031,-1.1351323659,-0.7538666149,-0.0489994602,0.2031199787,0.0609645315,-0.0537149419,0.1642207175,-0.2210383324,-0.1749175977,0.1256330648,0.1356075474,0.155782977,0.0116055571,0.0232099575,-0.0610966385,-0.0204183668,0.0384279643,0.4045469285,0.54848363,0.6097961004,0.1731740455,0.3245276298,0.0748877307,0.1448307366,-0.2513882861,-0.4973118478,-0.8935561644,-1.1980105625,-1.0420298674,0.0553423176,0.5377365787,0.2918117222,-0.0724799792,-0.0864988776,0.0287363657,0.1400153206,-0.2365451816,-0.1482902592,0.1349305259,0.1207860626,-0.0188138389,0.088595024,-0.0156861298,0.0653958519,0.0389236027,0.6236377928,0.6990273308,0.1338482246,-0.3048194854,0.2160844618,0.4061357143,0.4537633893,-0.1550128808,-0.6506079974,-1.1324744037,-1.4354556414,-0.8529269273,0.1043157229,0.1567100466,-0.0978708355,-0.1583156476,-0.1393746201,-0.2211245553,-0.0098489285,-0.2996322561,-0.0158044892,0.2811556442,0.0624688895,0.0820540685,-0.0326942265,0.041543703,0.0769100195,0.0703160724,0.5709875334,0.7070273993,0.0301464472,-0.134564964,0.4070626871,0.8269478309,0.374422333,-0.0708365354,-0.5273734073,-1.0736623907,-1.074364496,-0.3620406241,0.4226107443,-0.0072520617,-0.1069398392,-0.361954226,-0.6872699869,-0.3258636753,-0.5069218931,-0.3196148136,0.1752560095,0.2178227328,0.0631357344,0.1017040881,-0.0102766029,0.0265744513,-0.0338979805,-0.0570660249,0.4124929862,0.6956917584,0.2956815366,0.1039778466,0.3709867436,0.5396120897,0.3498321345,0.1895193838,-0.2040627768,-0.6114538564,-0.3943393822,0.1764625966,0.7786319416,0.2311880426,-0.118586502,-0.2967252465,-0.5430395778,-0.5546417955,-0.5415541657,-0.3321928914,0.0264621892,-0.035584209,0.0266087872,0.0807223896,0.0017840562,-0.0898846077,0.036054869,0.1201275867,0.3118480389,0.4537553171,0.3640771139,0.2883286609,0.4977214046,0.5790790023,0.6524392991,0.6083931843,0.2612252867,-0.0517033142,0.4156119269,0.4702894283,0.0750685022,-0.5397707003,-0.4865444915,-0.4102918835,-0.5588413572,-0.3275298621,-0.3029885132,-0.0984743456,0.1504334167,0.1997868808,0.0345286433,0.0040715514,0.0223248211,0.0287048551,0.0447939674,0.2347232251,0.3964240625,0.4177834351,0.2402447485,0.3147306636,0.200501024,0.1170260931,0.1259667901,0.586344952,0.0190875138,-0.2399631743,-0.0755363017,-0.0420920769,0.0105054328,-0.3430534708,-0.3986297776,-0.2938835691,-0.408667816,-0.522349366,-0.1791351437,0.1008285993,0.1907781286,0.0578300255,0.0237329434,0.031532711,0.0063651061,0.0402042047,0.0423108808,0.2891170391,0.3332096927,0.2782668335,0.2225426242,0.1523470969,0.2231224561,0.3601401823,0.6542887742,0.6491567416,0.298761494,-0.0388195458,-0.0972635474,-0.0387668467,-0.1334497039,0.2578569908,-0.1810928229,-0.3998474069,-0.1353401568,-0.1504457578,0.0001253969,0.1844627519,0.2574605127,0.2157425248,-0.0457008724,0.0143796073,-0.0358795437,-0.039582877,-0.0276032611,0.1804832861,0.0689706157,0.0999865127,0.1439367969,0.3806550451,0.2813345747,0.3002084383,0.6652503199,1.081262239,0.7525260014,0.0117195534,-0.2521018034,-0.2652312517,-0.3050230096,-0.2240107381,-0.0664483841,-0.049768029,-0.0242184456,0.0710324966,0.1261724058,0.0655961377,0.102198638,0.079041223,-0.0125067318,-0.044581995,0.0211160089,-0.0211947838,0.0934452662,0.0525666139,-0.0988067777,-0.0309599236,-0.2906573129,-0.1235881739,-0.1732497496,-0.2697130669,-0.1946861388,-0.0673535955,0.1864030017,0.1220960127,0.0475596032,-0.0155138607,-0.2074033037,-0.1796498516,-0.0381378029,0.0127462709,0.0085981033,-0.0960332275,0.0040539714,-0.0550027165,-0.0152823052,0.0002775246,0.0038671356,-0.0383481102,-0.0369156706,0.1176116139,-0.0485714339,-0.0707258053,0.0120372951,-0.1381068067,-0.1474165869,-0.2478327995,-0.2883210783,-0.4914548366,-0.442105684,-0.340879957,-0.2900933307,-0.1413730925,-0.2261743547,-0.1666399704,-0.1218205316,-0.1470467989,0.0075057093,-0.0474675138,-0.0191937858,0.0356796135,0.0501863186,-0.0635218374,-0.0291933177,0.0023183464,-0.0528688599,-0.0505415896,-0.0126049532,-0.0135135531,-0.0481802067,0.0413661322,0.0523418505,0.0252862825,-0.0100926474,-0.0838603289,-0.059003605,-0.1384793422,-0.0364314534,-0.0427918612,-0.0508522156,-0.0607843359,-0.1442826275,0.018487915,-0.0526443637,-0.0578475277,0.0117871033,0.0487754927,-0.0164248502,-0.0524640848,0.0091272276,-0.0046130154,0.0445377818,-0.0020470864,-0.1343828823,-0.104919317,0.0285885672,0.0222170005,-0.0757155136,0.0285754927,0.0480986523,0.0118163323,-0.0060233019,0.0112048439,-0.0130608065,-0.0376455247,0.1293308317,0.0259986748,0.0137176375,0.1115702908,-0.1328698385,0.0184030512,0.0078615042,-0.0097919382,0.0036803573,0.004122294,-0.0002474854,0.0426279347,0.0518631955,-0.048676946,0.0070625384,0.0849366332,0.0483845373,-0.0826536517
0.0223959249,0.0703786831,0.0716915827,0.0659739047,-0.0216815652,0.0070736298,0.0103639858,0.0712777668,-0.0480449521,-0.0074248438,0.0169637083,0.0201661067,-0.0467042086,0.0090882998,-0.0755157003,-0.0006850845,0.0035958492,0.0473224028,-0.0273592034,0.0174530649,0.0912381843,0.0302328876,0.0182457492,-0.0339459093,-0.0164667722,0.0938692263,0.0357473364,0.0295113883,-0.1031076096,-0.0224200352,-0.0158990822,-0.0437788291,-0.0523439735,0.0315910817,-0.0203004513,-0.0229489072,-0.0110009649,-0.012034531,-0.0485557869,-0.0228301585,-0.053492859,0.0068317746,-0.0520872254,-0.0717364747,-0.0645037791,0.0315993666,-0.0405235068,-0.1050848098,-0.0440000092,-0.0498933822,0.0575466963,-0.0252211928,-0.0469032701,-0.0329792735,0.0304613767,-0.0174424055,-0.0609536993,-0.0532376537,0.0534840182,0.0267895315,0.075041914,0.0625106521,-0.0164523314,-0.0360309349,-0.0252119418,-0.039150747,-0.1035417787,-0.0938525371,-0.1336906048,-0.175995896,-0.1587123029,-0.1554987968,-0.11881092,-0.0204647627,-0.0114350293,-0.0836623441,-0.0189044953,-0.0372678368,0.0604198548,0.0144676731,-0.062426327,0.077885706,-0.0090759079,0.0042729346,-0.0495703431,0.0397114448,-0.0261919036,0.0468254748,0.0242266426,0.0343664259,0.0195272962,-0.0312302652,-0.1890495189,-0.1593600602,-0.3332863254,-0.2739879554,-0.3099967586,-0.3561059477,-0.4199945448,-0.7664111532,-0.6405021128,-0.5930519801,-0.2617732729,-0.2115356437,0.0342170436,-0.0116680168,0.0421701804,-0.0657218512,-0.0129816117,-0.0726390061,-0.074974051,-0.0956215356,-0.0340903361,-0.0105045623,-0.025060668,0.102004136,-0.0554699588,-0.06922051,-0.1956246358,-0.3636025468,-0.5922793255,-0.5680016912,-0.827493298,-0.5649346791,-0.6321636934,-0.5142188959,-0.2982531873,-0.487083004,-0.6163766341,-0.4125254857,-0.3611589519,-0.3956370652,-0.2771074284,0.0482444474,0.1393935954,0.0899085541,-0.0425380733,0.1208267101,0.0084772442,0.0126318525,-0.1014373043,0.0112594276,-0.0374328401,0.0214243022,-0.1374463656,-0.2746582164,-0.5619408483,-0.8945700083,-1.1026220593,-0.7696574534,-0.7357734182,-0.2007528006,0.1111462943,0.3347884668,-0.0037133249,-0.4186267631,-0.8788710379,-0.8440687063,-0.5642207778,-0.4780607118,-0.5614757236,-0.1252918874,-0.0619492258,-0.0314254377,0.0191472164,-0.0210464604,-0.0380124699,-0.0951274312,-0.0346375105,0.0555671601,-0.0316501055,-0.029923584,-0.1026882008,-0.3167184015,-0.5753086525,-0.7962748265,-0.9349668867,-0.7461107866,-0.4786925086,-0.0241008252,-0.0190340435,-0.0924448691,-0.4302627207,-0.7199493285,-0.441747475,-0.4897769227,-0.2393431338,-0.1360584438,-0.4110511276,-0.324903564,-0.0429081532,0.0414851016,-0.0621249828,-0.1034800199,-0.0126359945,0.0047726183,-0.0626161883,0.1127970772,0.0766147276,-0.1086461242,-0.4666264162,-0.5763630326,-0.7778221176,-0.9241120993,-0.6681053072,-0.0823136209,0.1594875601,0.0954280897,0.1862490528,-0.069660334,0.0097815989,0.0002533965,-0.0740394675,-0.3790311441,-0.3385302717,-0.1195059159,-0.2780282434,-0.0110320225,-0.0730241608,0.1054357447,-0.0521098522,-0.0008476006,-0.0218942313,-0.0098610831,-0.0100472018,0.0175121941,0.0180980056,-0.0811243619,-0.5071334752,-0.8059255846,-0.8026874196,-0.8988639522,-0.0405212947,0.1760080668,0.2414521722,-0.1100238336,-0.7601225164,-0.4879744047,-0.4366507948,-0.0271429832,0.3887001145,-0.3886968179,-0.1785379858,-0.3923633827,-0.2223517889,-0.0812395817,-0.2110067587,-0.0129271893,0.2219331035,0.0276948779,0.1098306727,0.0314788407,0.0295725388,-0.0546914446,-0.0617187592,-0.2066508667,-0.4231457148,-0.7352754581,-0.5853157729,-0.3156495795,-0.0636874893,0.3492574653,0.6696605497,-0.3164948077,-1.242341348,-1.6718466262,-1.252145358,-0.1699944033,0.4388743167,0.1130970053,0.0511316269,-0.3672472541,-0.4041889182,-0.2076944035,-0.1959511311,0.2871880791,0.4339706669,0.1932967122,0.029798572,-0.0474919051,0.0272770069,0.0820285653,0.0142681243,-0.1113932212,-0.179872906,-0.3481443365,-0.2938513585,0.1653306089,0.3011093796,0.8603864626,1.0686823381,0.3950185981,-0.8528486895,-1.9010141471,-1.6544189691,-0.3866731895,0.5039300799,0.3699647204,-0.3562567783,-0.3747048791,-0.398209543,0.0156626869,0.2991605927,0.5546286976,0.2237909461,0.0925534112,-0.0371042357,-0.0701473449,-0.0344504652,-0.0040838022,0.0114061405,-0.1343358123,0.0996969464,0.1876872965,0.2222798027,0.2090536192,0.8178295686,1.405811923,2.1511023264,1.8754892706,0.242561477,-1.1183883417,-1.2915515576,-0.1383915521,0.8316377611,0.5137596389,0.1139076535,-0.0020182796,-0.0041743862,0.3120361466,0.403737943,0.2797792929,0.187191213,-0.0293038494,-0.0440312468,0.0510688488,0.0357646093,0.0374085371,0.1592047196,0.1073608502,0.3201402669,0.5283355461,0.4188324741,0.2613956363,0.6434149216,1.1011733604,1.8794281338,2.1257316325,0.8700980544,-0.308590899,-0.8200737454,0.2249146986,0.4219542555,0.2740494503,0.4290589957,0.2811188897,0.0202877735,0.3432751271,0.3447536589,0.2931289409,-0.0107450404,-0.2614985606,-0.063253533,0.0470993458,0.0491292634,0.0511180186,-0.0810880079,0.0201342374,0.4027371298,0.5610640521,0.3116397402,0.3841907359,0.5318097546,0.7735220523,1.2494688434,1.289564109,1.0078901509,-0.2796852695,-0.4859629257,0.1237195978,-0.3072897756,-0.3327788211,0.1358229528,0.308811709,-0.006373559,0.0224372485,0.3212926259,-0.0237122905,-0.3010545003,-0.1985069539,-0.0382707507,-0.0712721081,-0.0140630316,0.0389306652,0.027300989,0.0360008615,0.2431189092,0.277659489,0.0683794434,0.283115966,-0.0187435049,-0.126143174,0.5158630896,1.2722529168,1.1034309164,0.1276365291,-0.5203865838,-0.8373184638,-0.2712508539,0.1062146068,0.218659876,0.3553854812,-0.2631013452,-0.7512190495,-0.2009601165,-0.0225739204,-0.2415218768,-0.0901509272,0.0025764357,0.038708289,-0.0189344876,0.058251672,-0.0635933976,0.0673237181,-0.0692220062,-0.1340637075,-0.0982537623,-0.0410417833,0.0189737948,-0.4325055813,-0.1213632391,0.6112397533,0.70590982,0.0734698893,-0.7221672018,-0.3270069703,-0.4508135858,-0.5409201317,-0.0644896404,0.1087667876,-0.6751463436,-0.9499831077,-0.5854609717,-0.2761190533,-0.2580787114,-0.2257268738,0.0368675682,0.0174772393,0.0414762039,0.0173806085,0.000014546,-0.1284047894,-0.4097016801,-0.2611901902,-0.3616625565,0.0928405468,0.2774302056,-0.0069020735,-0.2272543694,-0.2095497903,-0.1161968246,-0.1845680383,-0.6738833421,-0.3619759959,-0.588993263,-0.4708790218,-0.4792167148,-0.5756239558,-0.7165608083,-1.0229153754,-0.924842035,-0.6614312367,-0.3666501468,-0.2098883159,0.0949973798,-0.0414140859,0.0258815694,-0.0426634131,-0.0171226136,-0.3672133672,-0.5957770986,-0.3159582033,-0.2218105049,-0.0616976261,-0.1067980295,-0.0581816808,-0.0872589334,-0.0250055403,0.3455432639,-0.0350785191,-0.1959616209,-0.6686771073,-0.496923922,-0.324706565,-0.4670660947,-0.8210879905,-0.6544127022,-1.0206603722,-1.2617999243,-1.0063468354,-0.3648799993,-0.3307579329,-0.0520325014,-0.0059813607,-0.0441753227,0.098321915,-0.0270711177,-0.3107051319,-0.5838841322,-0.4220152566,-0.2646643447,-0.4495994326,-0.4861168742,-0.6528053579,-0.5650604117,-0.307359475,0.1846117574,0.016092104,-0.2509600323,-0.7666084974,-0.4520462867,-0.691074565,-0.4360360981,-0.5737447477,-0.3867419296,-1.1365628336,-1.2752458416,-1.073274275,-0.4583830583,-0.2127559164,-0.0715084617,-0.0015323782,-0.0210323392,-0.03774255,0.0497925096,-0.1801146499,-0.5042471539,-0.468684298,-0.485869835,-0.7422240584,-1.153354156,-1.0085111961,-0.577040989,-0.0481727977,0.3146381239,-0.2723786266,-0.4862837303,-0.7072308691,-0.6031070035,-0.3604553781,-0.052853829,-0.7804492284,-0.6768881043,-1.1481351756,-1.2260595109,-0.6961697765,-0.2854493664,-0.1269578835,0.0164956023,-0.0684465469,0.0624426792,0.0942507916,-0.0520756435,-0.2295305981,-0.3307210091,-0.2568449836,-0.2852441278,-0.7283110262,-0.8980105235,-0.4254946844,-0.1285182228,0.1124065337,-0.0748348537,-0.7284158062,-0.9394875839,-0.2811908225,-0.5723014554,0.0613830698,-0.1760642148,-0.644551572,-1.1101542927,-1.1696210312,-0.7348217959,-0.3415784371,-0.2034391863,-0.1161401619,0.0030437565,0.0652853681,0.0774156352,-0.0125594694,0.0232552646,-0.2264894317,-0.3909802424,-0.1772283332,-0.0746190685,-0.3311543092,-0.5398703864,-0.1741294454,-0.1981739352,-0.500070546,-0.4302007785,-0.9125788648,-0.854314879,-0.3790702848,-0.2021520478,-0.0323152212,-0.0204543111,-0.83425345,-1.0625613121,-0.5192096248,-0.3996011404,-0.1468886559,0.0475404115,0.0383039775,-0.0358476982,0.0010538735,-0.0515919817,0.0536629636,0.0190321553,-0.1420059886,-0.3134580682,-0.2940888379,-0.1861370323,-0.3838360525,-0.5693938601,-0.6239540676,-0.406826606,-0.0938756497,0.1659417864,-0.024933748,-0.0492444554,-0.279591746,-0.4794297625,-0.2089889959,-0.3478230873,-1.0334780933,-0.3914065831,-0.3718007631,-0.209929648,-0.0427634005,0.1191723117,0.0667455232,-0.033798821,-0.0370965562,-0.0693609142,-0.0698503322,0.0584949908,0.0370431349,-0.141374817,-0.3663837419,-0.6306736616,-0.4909017281,-0.1378915272,-0.4028687374,-0.3858324052,-0.1353751218,-0.1467534904,0.5274476476,0.6970900345,0.2539989021,0.0723229906,-0.3357628298,-0.3750929835,-0.3040738553,-0.0522289039,-0.028909446,-0.0587738314,0.0556389585,0.0651787384,0.0923558457,-0.063132626,-0.0509546315,-0.0219252319,-0.0269265911,-0.0514495393,0.0532688181,-0.1283827039,-0.1858781122,-0.3192308497,-0.4697087905,-0.3562074701,-0.5846681442,-0.4779370055,-0.4468503467,-0.3233854023,-0.0251407685,0.1199419392,0.0228291751,0.0651869449,0.0137039929,0.2785198664,0.3587266035,0.2425523182,0.2427105865,0.0559953935,0.0850709929,0.0330200939,-0.00887152,0.0334444344,0.0196632203,-0.0063939883,-0.1019654785,0.0243836084,0.0951299371,-0.1155529987,0.0842583804,-0.1785068155,-0.212989987,-0.0524793264,-0.2559714406,-0.1651944608,-0.2491863174,-0.3697513599,-0.2991527957,-0.1206595081,-0.2005752761,-0.2802559731,-0.1045797809,0.2617987403,0.5072206389,0.3288296499,0.1706417471,0.1069135376,0.0822723278,0.0641731369,0.0263117185,-0.0092624109,-0.021467923,0.0386316184,-0.0716594395,0.009693849,-0.0178050638,-0.0771254602,-0.0032781228,0.0783142876,-0.0184420865,-0.0515523324,-0.1612832286,-0.1383331788,-0.1550536913,-0.0921752506,-0.0298399909,-0.0025482973,0.0550192814,-0.0915661605,-0.0247495382,0.1838261133,0.1520241627,0.1134733895,0.0846835267,-0.0182793648,0.013583805,0.0999819544,0.084706888,0.0479274753,0.0339859945,-0.0707225919,-0.0031776101,0.0244379251,0.0383847693,-0.0119639965,0.0243705587,0.0346415854,-0.0227706997,0.0005124019,-0.0285869257,-0.1008710102,-0.0355048729,-0.0768568395,-0.0338920323,-0.1715867329,-0.0783838326,-0.0759218541,-0.0827384195,-0.0107525333,0.0083107248,0.0138370784,0.0063352999,-0.0407358254,0.0308008426,-0.03144789,0.0152300467,-0.0334434501,0.0263752331
-0.0177663336,-0.0309800664,0.0639218517,-0.0282191413,0.0163004187,-0.02577403,0.0023759798,-0.0426559341,0.03415609,-0.0539171576,-0.0397207258,-0.0158073874,-0.0329459655,-0.0127881803,0.0401904656,0.0908222826,-0.0012332932,0.0020856546,0.0011916568,-0.0130046716,0.0487001586,0.0410791362,-0.0034049495,-0.0425439259,-0.0352746133,0.0155670218,-0.0186881865,0.0621250396,-0.0038388632,-0.0230973493,0.0318312468,0.0241450662,0.0091257934,0.0651604452,-0.0532221016,0.0291013025,-0.0609800173,0.0033957154,-0.0425916869,-0.025042997,-0.0327639431,-0.0272296306,-0.0205632263,-0.0156743971,-0.0396255158,0.0120263587,-0.0472974565,-0.0376498531,0.0446837158,0.0705578172,-0.0057484101,0.0263810977,-0.0063276717,-0.0422072862,0.0765824666,-0.0344909461,0.022182637,-0.0178143333,-0.0299507344,0.1278131397,0.0927737711,-0.0876759515,0.0141687621,-0.0218939696,0.0675948902,-0.0308425279,-0.0243575757,-0.0224488875,-0.0740188762,-0.00506485,-0.0208407152,0.0281815567,-0.0178102958,-0.0646220012,0.0391338592,0.0071527954,-0.0358330675,-0.0758866864,-0.0442902312,-0.0000706524,-0.18384406,0.0297039202,0.0394506621,-0.0670512167,0.0444060821,-0.026424432,0.0448434353,0.0080120772,-0.0283337634,0.0194536173,0.0477536179,0.0283430879,0.0952121722,0.1042489562,0.0156750681,0.1478111816,0.2364218688,0.2429951123,0.3705401259,0.1481644705,0.3002325712,0.1156185322,-0.0357092994,-0.2321044702,-0.355727596,-0.3183355495,-0.1591929935,-0.0846844396,-0.1063859637,-0.0536281368,-0.0324156014,-0.0323227479,0.0362652614,-0.062239745,-0.007043102,-0.0022600292,0.0004440801,-0.0255916293,0.0526631192,0.060366471,0.1314533095,0.2159989853,0.2361292916,0.2477846037,0.3140490308,0.3983607324,0.3185147547,0.1554440077,0.4679361667,0.1586620541,0.1230802061,-0.1526155039,-0.3872056894,-0.5800187968,-0.2256755698,-0.2645749949,-0.1912147654,-0.0471375511,-0.0334561698,0.0451260449,-0.0369819523,-0.028064337,0.0807813544,-0.0498701136,0.0276043724,0.0452040851,0.1062581092,0.1376239086,0.0669353698,0.0567189784,0.1745454804,0.092956251,0.0654830854,-0.0917879365,-0.0651965993,-0.0100311435,0.5111137713,-0.0868490995,-0.019683576,-0.2907547752,-0.2153242619,-0.269519949,-0.129252269,-0.092413389,-0.1191994537,-0.0459994082,0.0059281447,0.0154782041,0.080235826,-0.0499974488,0.0228855148,0.0790817263,-0.0059334155,0.0636484747,0.0760242544,0.0258071795,-0.1841685042,-0.0253410023,0.0147860374,0.0761492079,-0.194321962,0.06676262,0.0970709256,0.2250276141,0.2446930505,-0.148169158,-0.0950583712,0.1049154336,0.1820765879,-0.0918013838,-0.0803876241,-0.3189425863,-0.2832799101,-0.144505215,0.0667162139,-0.0656209045,0.0630164235,0.0179426499,0.0082113039,0.0541619022,0.016400104,-0.046712319,-0.0808288505,-0.1491911881,-0.0645262686,0.1696040247,-0.108247658,0.131021963,0.0912880721,0.3927492251,0.511951346,0.3680779727,0.3685512673,0.1695762146,0.0149509685,0.2931342877,0.3337322043,-0.1102291442,-0.0966523985,-0.6047124944,-0.3844964232,-0.0157845537,-0.0013776415,-0.0429026632,-0.0084454816,-0.0323826724,-0.0260564675,-0.0140796752,-0.0570969377,-0.1285496136,-0.3200964045,-0.3985983762,-0.1726142121,-0.5198723584,0.0675957148,0.5430155606,-0.0338838343,-0.0354615834,0.4955807417,0.596057623,0.3772522904,0.223623151,0.0641184594,0.3705939424,0.1643090065,-0.1702854119,-0.1087348164,-0.6130657956,-0.6101592545,-0.149440452,-0.1168654716,0.0234833522,0.0144411411,0.0709278524,-0.0537535516,0.0104789628,-0.2158570318,-0.2711845918,-0.5595934785,-0.3995809475,-0.203390694,-0.2531450509,-0.0954259333,0.1692921669,0.3218429328,-0.4358978688,-0.5406401987,-0.1563079455,-0.0588055168,-0.3966907049,-0.0266922352,0.0634817975,-0.3348985985,-0.1551720894,-0.0099631972,-0.4927412891,-0.5574885049,-0.1495688074,-0.0635487648,0.0367461673,-0.079360228,-0.0025252212,0.0065256312,-0.0343175584,-0.2700801527,-0.6206121228,-0.7415289809,-0.6565286419,-0.5184504652,-0.7228370078,-0.7458765236,-0.8129907618,-1.1219508823,-1.4855942468,-1.7347960945,-1.0379310153,-0.3857634242,-0.1708362277,-0.0292997507,-0.089407998,0.2049770827,-0.0178327518,-0.2317148626,-0.3900846916,-0.3106793726,-0.0785157735,-0.0213940353,-0.0450296457,0.022161058,-0.0255853619,-0.052918621,-0.0928733007,-0.4121815907,-1.0059463828,-1.1881004569,-1.3293963676,-1.51730207,-2.1256992842,-2.0803563419,-2.1114598662,-2.2615880292,-2.5861513631,-1.6623802566,-0.6984180312,-0.2555448591,-0.207810716,-0.3804378609,0.0738966622,0.1109264239,-0.3147312113,-0.4660381371,-0.2894659744,-0.321706684,0.0292606744,0.0585437522,-0.0284964265,-0.0276580851,0.0178243826,-0.0474843499,-0.1462617984,-0.688573516,-1.2194813899,-1.5992173443,-1.7864964439,-1.9879886572,-2.1876766884,-1.9494808591,-1.4646636114,-1.3650500152,-1.2703713476,-0.8515619661,-0.222057161,-0.304221617,-0.6481614451,-0.3288600425,-0.2992001016,-0.0719208699,-0.2998550706,-0.2683220487,-0.3296799189,-0.0380102146,0.0836005734,0.0175582623,0.1102075895,-0.0089212804,-0.0360495767,0.0636619307,-0.3154865066,-0.6735538234,-1.062160365,-1.3520559917,-1.3174126488,-1.2983540055,-0.9855210734,-0.4618931444,0.0560387447,0.562157522,0.4538676742,-0.1447795953,-0.3619741236,-0.5424695433,-0.5524497344,-0.5072752844,-0.1722013943,-0.0511594816,-0.0032534519,-0.2892199138,0.0400637192,0.0188893649,0.1156572645,0.0285884388,-0.0671889786,-0.0569680389,0.025187266,0.046565893,-0.2986933863,-0.4434311637,-0.5655807044,-0.4366797463,-0.250017946,-0.3702163074,0.1399873455,0.6657487117,1.0002836987,1.2563564335,0.6926185271,0.1033673772,-0.2156788311,-0.3068045551,-0.3549112513,0.143355257,0.4014282355,0.1842208613,0.1887070032,0.0687672701,0.1416377208,0.2475203198,0.2263005957,0.1163431549,0.0443772248,0.0109987799,0.0329264461,0.001045947,-0.0902017439,-0.0538355384,0.0569868989,0.2937896129,0.4937334173,0.3305570507,0.8359035159,0.6057502081,0.4995300673,0.4425983073,-0.1746120026,-0.2192105499,0.3423515202,-0.0150399107,-0.2175325986,0.1481215534,0.2811051075,-0.1617247294,0.246362756,0.1231214458,0.1204060475,0.306923187,0.1723291721,0.0285631529,-0.0190381746,-0.0389595853,-0.0808183645,0.0458121757,0.0283917536,0.2037920839,0.4834632403,0.4124454446,0.5506063995,0.6782876282,0.8085557236,0.229992016,-0.3230783578,0.0376348939,-0.3254661373,0.0258692,0.2332592848,0.1221396982,-0.0451399516,0.0443623061,0.2689937122,0.072602034,0.3815684172,0.1269897322,0.1110220797,0.3972168874,0.2916464701,0.2464905423,0.0213211928,0.0081006386,-0.0500666167,0.0364177928,0.1617507783,0.5875342533,0.4643606589,0.4175738561,0.2858381934,0.7714850478,0.5574397168,0.0599042766,-0.0255216531,0.1642345686,0.190381049,0.1974176824,0.5713071812,0.2216891464,-0.097300943,0.1077043168,0.008472553,0.0727674418,0.0755464321,0.4032998947,0.4099971651,0.5093411448,0.4064978773,0.1505545475,-0.04723658,-0.0222595547,-0.0508613476,-0.041960216,0.2297058732,0.422979407,0.6836784342,0.4635854486,0.4438485253,0.6374171883,0.3349550052,-0.3011463527,-0.3280918185,-0.1963669878,-0.1687311859,0.0112760163,0.4622581972,0.2932674793,0.135278181,0.29669663,0.0644163245,-0.3296776313,-0.1034658361,0.2725124647,0.3395044424,0.3108027208,0.2309985395,0.0225333461,-0.0698293889,0.0503422047,-0.0444333566,-0.0247226206,0.0776071515,0.3903592239,0.5912569848,0.3533346507,0.2835851124,0.297545449,-0.1726004886,-0.2718408961,-0.3298787246,-0.3340284302,-0.1732551235,-0.6491129585,0.0233744406,0.1651887786,-0.1198247474,0.0234278454,0.0931630125,-0.085572339,-0.405368595,-0.2525749021,0.0479921197,0.2497067891,0.1959805933,0.0518039526,0.0370621673,-0.0018126307,-0.0097587644,-0.1044656393,0.099787619,0.4632765096,0.4458036312,0.1613245185,0.1136306234,0.0527043553,-0.1037360255,-0.2567062395,0.0370111127,-0.2658640428,-0.2672822254,-0.1044894767,-0.303134981,-0.1593108322,-0.5692656564,-0.206330846,-0.070897916,-0.0117828065,-0.2350866791,-0.4617897292,-0.0141089514,0.1637892368,0.1510671026,-0.0910482587,-0.0605149189,0.0173702226,0.0463001049,-0.0453785487,0.1291949851,0.3371490536,0.2835863141,0.0223162327,0.0708507968,0.4058995032,-0.1301330727,-0.1820387876,0.0705165556,-0.1870728613,-0.2097044123,-0.4954719056,-0.4508994525,-0.3385252808,-0.7193044077,-0.5333793318,-0.0743178058,-0.0025224115,-0.1906520772,-0.3158930003,-0.2211059216,0.1077439123,0.0628132319,-0.0598812931,-0.04586714,-0.0045167963,-0.0126746919,-0.0150961031,0.0837217401,0.2420619769,0.1846986148,-0.1482579221,-0.0801964476,-0.1307863331,-0.2767957309,-0.4986900705,-0.362249483,-0.3665108638,-0.4770093248,-0.4415300659,-0.3776924237,-0.1228189343,-0.2318822598,-0.2011628576,-0.1260825508,-0.366294225,-0.2806508837,-0.2328882095,-0.1073720704,-0.0259193425,-0.0279590599,0.0367459144,0.0569974985,-0.0134985182,-0.0604829776,0.0527035706,0.0719283094,0.2064775544,0.0305595853,0.1839223296,0.0506072352,-0.3621335102,-0.6184541409,-0.4121652292,-0.1171175841,-0.3208166145,-0.5588304866,-0.4497243628,-0.3820977907,-0.171287786,-0.5257875068,-0.2818114228,-0.2996588796,-0.3578344347,-0.3216934989,-0.2887657339,-0.2059943742,-0.053031293,-0.0110267293,0.1237012565,-0.0035760271,0.0887558793,-0.0197850657,-0.0480009623,0.0356399045,0.0728580976,0.0288281749,0.0469557333,0.0811240784,-0.1186452366,0.0398352919,-0.2347662987,0.1931954223,-0.2001772235,-0.4642625086,-0.4733633131,-0.5820727901,-0.5439538669,-0.2293941019,-0.3476133471,-0.5217897407,-0.4005216924,-0.2286702251,-0.2098375096,-0.2314886665,0.0044405123,-0.0515001797,-0.0587331668,0.0552828506,-0.0885965882,-0.0048463032,0.0247426912,-0.0137748922,0.0441292102,0.0033880116,-0.0146482592,0.0492576758,0.0782584902,0.0373321226,0.065981441,0.0990720249,-0.0611821363,-0.0924363947,0.0371197604,-0.0768073765,-0.2937203695,-0.3244646416,-0.4514519695,-0.3320788213,-0.3170303483,-0.2799739901,-0.1042969105,-0.0993367327,-0.0966341381,0.0271877265,0.0520848529,-0.0033087222,-0.0954168368,-0.0052833569,0.1298157553,0.0585118469,0.0688130749,-0.0251971179,0.0059081362,0.0127127687,-0.0932955939,-0.0108256136,0.0361231673,-0.1176566073,-0.2076407077,-0.0921524415,-0.0135449806,-0.0727649963,0.0388202668,0.0121021387,-0.0990445678,-0.3287417256,-0.15059413,-0.1784304237,-0.030038499,0.0777434562,-0.0168227094,-0.0255606448,0.013137563,-0.0153545331,-0.0236540437,0.0238054434,0.0039865107,0.0752084127,-0.0287270137,0.0441920664,-0.0041021964,-0.0206977267,-0.0231246489,0.0472133743,0.058488669,0.0796563837,-0.058611593,0.0092069957,-0.0634607389,0.016998568,0.0214273964,0.0115158826,-0.0679882506,-0.0138116845,0.0108255997,-0.1090310144,-0.0962799932,-0.0289081941,0.0186610718,0.0671331335,-0.0119254805,-0.0384389528
0.0172661171,-0.0360820791,0.0060706248,0.141807652,0.0101865527,-0.0285460004,-0.0230835054,0.0990811901,-0.05956904,-0.0246730793,0.0091568382,0.0333624696,0.0022159878,-0.0458104501,0.055224485,0.0061379436,0.0362665024,0.0824649562,-0.096099469,-0.0159985208,0.0442120586,-0.0349715884,0.0001485961,0.0514700029,-0.0153611821,-0.0171381525,0.0216506279,-0.0324745623,-0.0319605433,-0.0941312614,0.0952898163,0.0102079434,0.0203634966,-0.1018316935,-0.0656463968,-0.0237562817,-0.0144469743,0.0854192996,0.0521173316,-0.0148214112,-0.0952204892,0.0325032855,0.0003564683,0.0093591443,0.0304960516,0.0165593688,-0.0107140046,0.0330621339,-0.0624801948,-0.0173968311,0.0397961287,-0.0479581492,0.0063642939,0.0516287278,0.0298283453,-0.0470837699,-0.0082393665,-0.0242935572,-0.0294418529,-0.013831141,0.0168816305,-0.1007699391,-0.0337503545,0.0386498035,0.0409571199,0.0591460709,-0.00378869,-0.1164098302,-0.0386891609,-0.0030924202,0.0792355055,0.0360580561,0.0116460181,0.0073201516,-0.0483835328,0.0353773316,0.0512665623,0.0616076467,-0.0143551829,-0.0113477391,0.0822966893,-0.1238528722,-0.0377322171,0.007020505,0.0359055764,-0.1190987899,-0.0234490819,-0.0012425857,-0.0637691795,-0.0275118812,0.0389721933,0.0564307168,0.0818783378,-0.0063256685,0.0320957248,-0.0562649041,-0.0319838158,-0.0881141988,0.0391615596,-0.0090815342,-0.0730983859,-0.0410245792,-0.109818852,0.0389717846,0.0157865101,-0.0357968703,-0.0310057683,-0.0288987514,0.0343148168,-0.0206207731,0.0811386766,0.0592495708,0.0891170122,0.0253356947,0.0357854287,-0.0285208789,0.074026945,-0.0273502929,0.0002577849,-0.0558381471,-0.0489296469,0.0177778551,-0.0425633929,-0.1169331442,-0.128686559,-0.1577767213,-0.090225454,-0.1086448494,-0.1235919665,-0.207541298,-0.1762546418,0.0062039013,-0.0399860449,-0.1102938833,-0.0369704835,0.0223759887,0.0760733366,-0.0255188519,-0.0420610518,-0.0606431151,0.0183278797,0.0154623518,-0.0423014931,-0.0205445794,-0.0990052187,-0.0244170833,-0.0513296508,-0.0613969397,-0.0284605061,-0.0637491389,-0.0257369976,-0.0021611368,-0.1133428353,-0.2047042483,-0.1085979707,-0.2288795064,-0.2095602053,-0.2007695726,-0.2142379897,-0.104218038,-0.1704405115,-0.0857709881,-0.0766924238,-0.0437149693,0.0066041258,0.0469341301,0.0137311508,0.009550811,-0.0374910355,-0.0447041696,-0.0356298851,-0.027506377,-0.0603003403,-0.0482888201,-0.0884746955,-0.0563648534,-0.0012447561,-0.1024761161,-0.0868317691,-0.0317242192,-0.1433413914,-0.0466148613,0.0674645204,0.0708102293,0.0200307271,0.0614531165,-0.1045758897,-0.1485939099,-0.2533653347,-0.0723902738,-0.0151148762,-0.025360366,0.0292986583,-0.0251745715,-0.0475879956,0.0415819436,0.0158526316,-0.0809728805,-0.012892168,-0.0031877797,-0.0603877174,-0.0710521167,-0.0165390349,-0.0637547507,-0.046435409,-0.0053565232,0.0538542679,-0.0736404452,-0.013670509,-0.077768618,-0.0474645422,0.0472721701,0.0105174367,0.0226207501,-0.184000306,-0.2415579631,-0.2837554955,-0.1252835395,-0.0587864965,-0.0383497941,-0.1546754884,-0.0413843246,0.032043143,0.044732854,0.021290647,-0.0145926531,0.0063622939,0.0023212087,-0.1163802975,-0.1077669701,-0.1059062946,-0.0594738696,-0.1114448676,-0.1001908668,-0.0990370872,-0.0302811589,-0.0908247918,-0.1335988106,-0.2300905656,-0.0007095314,-0.1719828567,-0.1246944835,-0.2162656645,-0.2055426943,-0.1043602754,-0.0511146885,-0.0772002245,0.0650624867,0.0538287708,-0.0377507731,0.0015672417,0.0144214129,0.052553863,-0.0106822904,-0.0957451253,0.0808766929,-0.0450691833,-0.0728653499,0.0100893458,-0.1158504678,-0.0514020317,-0.0838606599,0.0179183408,-0.1273893289,-0.251121996,-0.098381575,-0.2528334758,-0.0730582076,-0.2005478572,-0.1459208383,-0.1683228289,-0.0430783774,0.0181462295,0.0547300009,0.1050009872,0.1201866255,0.1092583495,-0.0263094255,0.0432266093,-0.0227858213,-0.0993061297,0.0009320299,-0.0012646325,0.0235870748,0.0304274406,-0.0623840403,0.0756190493,0.0156276092,-0.0293498528,-0.0304402539,-0.0803803884,0.0066386575,0.0080909666,-0.1251801166,-0.216015537,-0.1550258142,-0.1592315129,-0.0259239039,-0.0607952628,0.0542711164,0.0219075586,0.0325018407,0.0982518533,0.0715603909,0.1367771222,-0.0068588702,-0.0271010832,-0.0118269498,-0.0382087021,-0.069836293,-0.0623202546,-0.058445915,-0.0587364967,-0.0227947413,0.0512395025,0.0054043666,-0.0887247961,-0.1374931613,0.0144366088,0.0249487958,0.0296863569,-0.0661257527,-0.1202660257,-0.2839378878,-0.1365642056,-0.1336156652,-0.161422343,-0.0148966332,-0.0350076053,-0.0047102286,0.0646350045,0.1238259271,0.0618892402,0.0737873962,0.0473650602,-0.0262463515,0.0217008821,0.0081236207,0.028205176,0.0286681209,0.0174259296,0.1383482691,0.0979104229,-0.0149069431,0.0207229275,-0.0457810924,0.0683237905,0.1108777865,0.1268156092,-0.0331519743,-0.2236449165,-0.1508191879,-0.0349326905,-0.0109373322,-0.0005685973,0.0222808476,-0.1024574913,0.0460496111,0.0685213362,-0.1212566933,-0.0633780934,-0.0039526651,0.1685705076,-0.0678633362,-0.0036067691,0.0179991016,0.0278109343,-0.0470152823,0.0122096154,-0.0246891463,0.083921286,0.0010444499,0.0875619056,-0.0596740401,0.042860072,0.0442458657,0.1109051219,-0.1619622508,-0.1821244653,-0.127537682,-0.0568295458,0.0071007972,-0.051283013,-0.0096962161,-0.150130114,-0.0823233062,-0.1135168835,-0.0525622428,0.0063172864,0.0467426693,-0.0324026953,0.0251930018,-0.0405869883,0.0109088159,0.0096182662,0.0046899644,0.0338653128,0.0148962708,0.0052159951,0.0858055465,0.0396749328,-0.0818326089,-0.0402391768,-0.0932491991,-0.0406411481,-0.310398212,-0.2614950422,-0.1337168664,-0.1026255158,-0.059435789,-0.0534512101,-0.0283516674,0.0036876418,-0.0633673325,-0.0524843432,0.0121654515,-0.0466583971,-0.0573715066,-0.0393850071,-0.0332312985,-0.0549829869,-0.0904032057,0.0053526194,0.0422208962,0.0195112944,-0.0763365427,-0.146009029,-0.1678623498,-0.0653826522,-0.1626083202,-0.0317259058,-0.1052680494,-0.1572941778,-0.4155816156,-0.3624038878,-0.2978642198,0.002816175,-0.0735466129,-0.0904494332,-0.0636819931,-0.0509974435,-0.0868366307,-0.059233121,0.0028828884,0.0168383529,-0.0558629648,-0.0711339669,-0.0317491237,0.0741134164,-0.0061741176,-0.0660053505,-0.0441078276,0.0413615945,-0.0624369472,-0.1513479446,-0.1387275029,-0.1888494761,-0.1336900376,-0.1303080342,-0.032398556,-0.2305617643,-0.3621472921,-0.359025095,-0.3448683963,-0.2324964909,-0.1265976069,-0.1864047236,-0.1358421609,-0.1077419212,-0.066770911,-0.1001136656,-0.1299380401,0.0339312899,-0.0532311092,0.0077091676,-0.030935712,0.0276175118,0.0527481236,0.0326807487,-0.1193460858,-0.0729618724,-0.1248892927,-0.1067713678,-0.1747803,-0.0599539092,-0.0008666946,0.0317977598,0.049308258,-0.1168625251,-0.3618150192,-0.3765920328,-0.284325786,-0.1835592949,-0.2477173299,-0.1888490721,-0.1035557829,-0.0906241125,-0.0796252421,-0.0974022452,0.006420841,-0.0773149504,-0.0044942834,0.0492105963,0.0071516568,-0.0052871318,-0.111267132,-0.0679314748,-0.0321103814,0.0129307507,-0.1627464637,-0.0928942029,0.0406602275,0.0443524418,-0.0493196734,-0.0419118006,-0.0921714316,-0.1313900748,-0.2392021434,-0.3133631792,-0.1584342662,-0.170388091,-0.1522946014,-0.1148081856,0.0259072492,-0.1111129158,-0.0821767728,0.0425348331,-0.0509684637,0.0529954262,-0.1384683363,-0.0033654327,-0.0557950709,-0.1552482655,0.0108705631,-0.0026770166,-0.0237952036,-0.0484387791,-0.0770692889,-0.0575101357,0.0442281138,0.0559695804,0.0186756793,-0.0058160208,-0.0151522375,-0.0784215062,-0.1843852323,-0.1833312478,-0.2576178838,-0.1776538501,-0.1438609411,-0.0789201979,-0.1670018907,0.0056706421,-0.0408448676,-0.0021608353,-0.130043853,-0.0006701119,0.0095306779,0.0075804672,-0.0581736817,0.074035812,-0.0637275276,-0.02290111,-0.0549042711,0.0211688614,-0.0658112961,-0.0986472305,0.0367617037,0.0160123433,0.0094279477,-0.0733525907,-0.1708401793,-0.0867909434,-0.1476399077,-0.1763524931,-0.1931744091,-0.2251770133,-0.2329390817,-0.017704348,0.0032736077,-0.0446922503,-0.0832773956,-0.0025008012,0.0567230397,0.0314349642,-0.0398089988,-0.0284677915,0.0168009631,0.0011391404,0.0957185128,0.0611896621,-0.0646340842,-0.0879190018,0.0017827842,-0.0039788599,-0.0688073911,-0.0721698323,-0.1680059912,-0.1193482321,-0.1701798986,-0.1129844763,-0.052968682,-0.1656662583,-0.1796546757,-0.2455065703,-0.1754944625,-0.0848703018,-0.0571922654,-0.0445345601,-0.1121456072,0.0232797518,-0.0218244335,-0.0038782146,-0.0797598267,0.043351149,-0.0560585177,-0.0146552532,-0.0664419974,0.0342298607,0.0619718628,0.0242378089,0.0069398895,0.0065346394,-0.0754708837,-0.1372088891,-0.2465966531,-0.1221645698,-0.055273194,-0.0206692309,-0.1760629935,-0.1940874933,-0.2519351206,-0.2972246082,-0.1413655063,-0.1533013064,-0.0115419902,-0.0729114115,-0.0889078546,-0.0725084906,0.0535232169,0.0614882973,0.0119137629,-0.039753942,0.0027820096,0.0494625159,0.0764264639,0.1093484693,0.0796216781,-0.0011436772,-0.0299124781,0.0311834065,-0.0019068592,0.0034386055,0.0364384872,-0.0391331018,-0.0182946902,-0.0555318387,-0.0207622553,-0.0651689929,-0.1659848153,-0.1783677034,-0.1335475417,-0.164302677,-0.0422345746,0.0351795072,-0.0544588084,0.0206376683,-0.06225496,-0.0042213608,-0.0273280424,-0.020713132,0.026880778,-0.00669621,-0.0538969076,-0.0328025515,-0.097853763,-0.0296792326,0.0376923337,0.0436877769,-0.0293921523,-0.0182743915,-0.0458766072,0.0868379543,0.0288421962,-0.0406107562,-0.0943825269,-0.0620513599,-0.050241745,-0.0170360422,0.0609365445,0.0218103639,0.0858613235,0.1712629888,0.0228296552,-0.0411850605,-0.0014142601,-0.0029030512,-0.0455085763,0.007006553,0.0676115909,-0.0529913091,-0.0548662851,-0.0509220674,-0.036907029,0.0185651757,-0.0047282685,-0.0043350859,0.0798355423,0.0267837668,-0.0060056068,0.0423302757,0.0158214621,0.0342561277,0.0393146685,0.014221075,0.0051434359,-0.006682527,0.0004427645,0.0654730355,0.0261563764,0.0691946407,-0.0037462468,0.0455039967,0.0185732816,0.0738952497,0.0143092934,0.0175302915,-0.0863441,0.0284733159,0.0150901929,0.0291829638,0.0127178348,0.0504922735,0.0255997706,-0.0429834951,0.0149715994,0.0990705794,-0.0696619502,-0.1104029178,-0.1461485756,-0.0633578467,0.015121992,-0.0052226563,-0.0567848803,-0.0177918278,-0.0859570562,0.013227565,-0.0295300978,0.0990198016,-0.0142591218,0.0025773903,-0.1066241694,0.0357454056,-0.0244483176,0.0476879243,-0.0074944256,0.0641941901,0.0291011625,-0.0383251869,-0.1027032167,0.0208136158,-0.0601606184,-0.0653407658,0.0079905676,0.0889743961,0.0327263,0.0074474519,-0.0045465898,-0.0247359699,-0.1094029779,-0.0669785482,-0.0351067219,-0.0363379111,0.0337611774,0.0132981128,0.0522644042,0.006586596,-0.0100536869,0.0592780588,0.0040862993,-0.0298554288,-0.0949780602,0.0652752876,-0.0325041265
