0.0477711577,0.0229823289,-0.0486282524,0.0250452457,0.0254438058,-0.0147416533,-0.0649527104,-0.0211147807,-0.0099108786,0.0009987842,0.008234427,-0.0410204842,-0.1141414625,0.0270431306,-0.0436166387,0.0355000088,-0.063266054,-0.0182548368,-0.0155013257,-0.0493281244,0.0383788672,0.0129102847,-0.0658493726,0.0323020287,0.0028967565,0.0399076784,0.1216514945,-0.0661591634,-0.0878767178,0.0281536769,-0.0249528459,-0.0039786832,-0.0326327542,-0.0419129319,0.014832646,0.022239007,0.0177260372,0.0138292791,-0.0554258359,-0.046061039,0.0217842159,-0.0489109846,0.1024192995,-0.0730166876,-0.0248384084,-0.0038012631,0.1066697028,-0.015856109,0.0274118753,0.0319888075,0.0873164642,-0.0084733118,-0.0006128024,0.0360459946,0.0361833488,-0.0599648556,0.0286734979,0.0161011932,0.0327719564,-0.0101099078,-0.0049309913,0.0441597538,-0.0677070767,0.0166172855,0.0454569588,0.0542182178,0.0176552714,-0.0310092973,-0.0137075087,0.0509307852,0.0390386018,0.0959889294,0.0721006019,0.2360891414,-0.0366667675,0.2085626072,0.1254383883,0.1309763006,0.18589716,0.0537350756,0.0294896556,-0.0403287632,-0.0050460088,0.0292671386,0.0153298423,-0.0431396633,-0.0016754562,0.06712757,-0.0078346735,0.0055515561,-0.0401121385,0.1247850735,-0.0310058899,-0.0275336722,-0.1252174105,-0.2021275693,-0.2588705648,0.0065269185,0.120425688,0.0976353125,0.0437135926,0.141911815,0.5381220025,0.6150077,0.4197589064,0.4217398887,0.4876254937,0.334191092,0.1605744386,0.0599619032,0.0532878761,0.0315265007,0.0205067556,0.0184712442,-0.0209482722,-0.0266905471,0.0764810472,0.0142305505,0.0120934766,-0.0903876282,-0.064848455,-0.1344561407,-0.1900140558,-0.4201776814,-0.6478056686,-0.4193537637,-0.0653385193,-0.2604094848,-0.2313158717,-0.2017980128,0.043992876,0.4743698718,0.6183737984,0.6086670204,0.3630743672,0.2697158549,0.0920570156,0.0341877398,-0.0854554711,-0.05192629,-0.0640511746,0.0836674264,-0.0236711341,-0.0488445551,0.1311079933,0.0208534989,-0.0052213823,-0.1665277009,-0.1729936469,-0.3612826998,-0.4025148523,-0.5446739471,-0.566598809,-0.264821989,0.0182263504,0.5363249099,0.3520889587,-0.1549423698,0.0522796532,0.2421972377,0.1906353501,0.1143903788,0.0885784704,0.0137130476,-0.0721204653,-0.1045668628,-0.0894275009,0.0239570263,0.0442966131,0.0778587763,-0.0000578618,-0.0515448291,0.1228550646,0.0615568356,-0.1798141029,-0.270839581,-0.3937593244,-0.6886446982,-1.0224424562,-0.6741997635,-0.5418432695,-0.4900919526,-0.0839820372,-0.0053259574,-0.0968441576,-0.7231852977,-0.4876534952,-0.4204740937,-0.1166229983,-0.2254322677,-0.3255321502,-0.3232681845,-0.2150939726,-0.1398281594,-0.0032957818,-0.0459351257,0.1398247306,0.0684624903,0.0668838041,0.0315774735,0.0802536359,0.0378119608,-0.2186624151,-0.502363056,-0.7309736222,-1.2468796931,-1.0377503906,-0.355377159,-0.2180100762,-0.1141888996,0.1881656214,-0.3457889991,-0.7732271118,-0.5734119478,-0.8240362343,-0.9457759806,-0.3951705833,-0.6190743068,-0.4187088211,-0.4362002957,-0.2504201379,-0.1709138472,-0.0180449169,-0.088856297,0.0071385589,-0.0310772153,0.0299038295,0.0195128241,0.1166716194,0.0021206788,-0.3469662121,-0.6291488947,-0.8732749212,-1.1973690872,-0.5524254085,-0.204974846,-0.3136926428,0.1463933739,0.2642015458,-0.2160770978,-0.7699524931,-0.8931647246,-1.2183999112,-0.9533228237,-0.8295125525,-0.8213820777,-0.7616466701,-0.5964170441,-0.4647958966,-0.262512095,-0.1184115589,-0.0668757858,0.0254520133,-0.0486791147,-0.0144724621,-0.0272185685,0.0982324228,-0.2057398031,-0.48018161,-0.5128652476,-0.9917876822,-1.1890882716,-0.6963670469,-0.6716680523,-0.2666694012,0.4259384919,0.3977530342,-0.1288151891,-0.6961731175,-0.9917647858,-1.3655342645,-1.3525277757,-1.0420293578,-0.9331822428,-0.8455019976,-0.9611849819,-0.6884019555,-0.2990317891,-0.2083749584,0.0700622861,-0.0104164159,-0.084821828,0.0072884123,0.0117674871,-0.0146596685,-0.1130835531,-0.6275052133,-0.6271097278,-0.9302286589,-1.1888622181,-0.6995718414,-0.3501670394,0.0949287449,0.7073875254,0.0990058342,-0.3429700585,-0.8858658484,-0.8302837022,-1.3022866768,-1.3324196016,-1.1333917586,-1.0651143416,-0.778028948,-0.8774615597,-0.7173197825,-0.2268795934,-0.0889312067,-0.0711343832,0.0477761095,0.0058418087,-0.0852794162,-0.0379722848,-0.076473891,-0.4042281843,-0.6762464153,-0.6660735824,-0.7749984133,-0.9830062526,-0.5918350952,0.0202555845,0.7257542061,0.7990388872,-0.2985466567,-0.8685527185,-0.8673836046,-0.90995096,-1.1783782785,-1.122666638,-0.9393104727,-0.6728847053,-0.7318628432,-0.6162754568,-0.6555889506,-0.3382998083,-0.1441330273,-0.0030177812,0.0354313602,-0.049864391,0.0172819207,0.0185779634,-0.2092589102,-0.4414695166,-0.5106973029,-0.2792119331,0.0399799327,-0.055993744,-0.1933529072,0.5357313369,1.5515105945,0.7142654754,-0.4905686824,-0.08522996,-0.24264285,-0.7584146056,-0.8594187919,-0.709452997,-0.6304323641,-0.2067920267,-0.2225263961,-0.2048584291,-0.1989390708,-0.0525225788,-0.036829584,-0.0209515631,-0.0496126851,-0.0925786746,0.0942279634,-0.0204886965,-0.0193370485,-0.1056784163,0.0245006094,-0.0226220929,0.5733854164,0.7097672395,0.207356982,0.1367235523,0.9193567168,-0.0254708484,-0.58636536,0.1654503764,-0.1203986017,-0.5391389666,-0.6645939051,-0.2840665332,-0.3161063123,-0.3505390638,0.0250652094,0.3933399565,0.1145486629,-0.1090258209,-0.1255919401,-0.0693895989,-0.043218262,-0.0258694675,0.0519634281,-0.0251832099,0.0207252782,0.0201849997,0.3435529473,0.4077416473,0.6978378605,0.9508425416,0.3866136166,0.1247632787,0.1441045632,-0.1053259886,-0.0490438329,0.0158317367,-0.3680849207,-0.8977758167,-0.5029364804,-0.0895925156,-0.1243971697,0.0050661546,0.3075282992,0.4415009887,0.2351446912,-0.0611366423,-0.0009945407,0.0395665837,0.0979316296,-0.1345872858,-0.0535375054,0.1292204295,0.0541588893,0.0110244483,0.6345050223,0.9490605119,0.7179363734,1.0719434996,0.471848318,0.0073732182,0.3261564024,0.1792615363,0.3105226583,-0.1853999464,-0.1233221047,-0.4740908388,-0.1559491056,0.1102454911,0.1760026362,0.173335068,0.342831827,0.1127814149,-0.0358185146,0.0416383661,-0.0032039054,0.0006693451,-0.027201967,-0.037441891,-0.0123919347,0.0204976573,-0.0956345543,0.0860159316,0.5590843117,0.9625067974,0.6543608568,0.8641011486,0.2545414355,-0.0011817646,0.2241933342,0.4045278836,0.6699270945,0.1159633426,0.189962565,0.1968277257,0.131622713,0.2254761534,0.3923654272,0.4844912503,0.4070661357,-0.0203723719,0.1393922419,-0.0379783201,-0.0143628221,-0.0385867129,0.0394961293,0.0191162394,-0.0792586482,0.0046325849,-0.078536992,-0.3278373611,-0.3296784178,0.3269786458,0.4673641244,0.3985563602,0.473879259,0.3992674264,0.527998435,0.5387350372,1.0870434026,0.6371186575,0.2648034069,-0.1402519679,0.1655257623,-0.0613745869,0.4263826393,0.6982715363,0.4236948123,0.0366189138,0.0968274785,0.0280266811,0.0134553178,0.0127038618,0.0132973206,-0.0131278381,-0.0640412178,0.0651382156,0.0311165913,-0.3644475995,-0.7148308507,-0.459364898,-0.0512765953,0.1797706851,0.0681723565,-0.0872123218,0.3965815975,0.2583050221,0.564603664,0.5688571716,0.4356211226,0.1794830659,0.139916289,-0.0537576403,0.08719353,0.4209856774,0.056081152,-0.0586448857,-0.0070278908,0.046453365,0.0331247149,-0.0319416735,-0.003891259,-0.0622191083,-0.0896871441,-0.0052332498,0.0017250484,-0.4103679312,-0.5806848102,-0.7363910087,-0.4599272322,-0.0972101145,-0.0740691842,0.1323326213,0.1233498628,0.0627316697,0.2261298429,0.7810046636,0.6496328198,0.1790428916,0.2755897162,-0.1169425582,-0.0122694262,-0.0378751323,-0.2075822773,-0.2499770805,-0.2318451094,-0.0103140723,0.017286843,-0.0004489497,0.0101174777,0.020521353,-0.006496555,0.0252404219,-0.0356461611,-0.3915606732,-0.6328358688,-0.3815488264,-0.4734626157,-0.3701886594,-0.4821280963,-0.1140809897,0.4849446221,0.1225293115,0.8080310278,0.9161687571,0.4782136912,0.3993402931,0.7358175413,0.2772538354,0.019189611,-0.2351355894,-0.3691117888,-0.2597825211,-0.1701802976,-0.0612845671,0.0162263071,0.0215507246,-0.053644564,0.0385019094,0.0818971429,0.0386011665,-0.1122881439,-0.3081123826,-0.4601249001,-0.1706348941,-0.267522272,-0.2403384772,-0.0520176505,0.0530438586,0.6072379048,0.3324026157,0.5256288569,0.5598110111,0.4465163733,0.6874419268,0.7620315201,0.3617643812,-0.0366439352,-0.4472958714,-0.3649370871,-0.4573190626,-0.1235772018,-0.0483102959,0.0740231299,-0.0967126804,0.0245559161,-0.0287579874,-0.0542227504,-0.0414067217,-0.0794782269,-0.1359647837,-0.414767252,-0.4815013376,-0.5536541833,-0.7283697613,-0.4735637717,-0.6246345773,-0.2473676689,-0.3448632066,-0.5222542159,0.2232732871,0.4405419798,0.527815928,0.7242219961,0.5421944391,0.2865028641,-0.2740059717,-0.2928408533,-0.363706594,-0.1139710945,-0.0393114864,0.0654352136,0.0089874245,0.1037973159,0.0316329442,0.0341905843,0.0693646949,0.0024239964,-0.1992521197,-0.3066380349,-0.4601337104,-0.6264281354,-0.7582290845,-0.8931358155,-0.9699481469,-0.7434057036,-0.6513912587,-0.6294868768,-0.2787642832,0.1566743152,0.3177029552,0.2522561856,0.0914758962,0.0197778144,-0.3087840173,-0.2643554181,-0.1452293902,-0.0847062541,-0.0362495494,-0.0641405754,-0.0110168839,0.0007730142,0.1206374089,-0.0878675255,-0.0732229837,-0.0334429829,-0.0739695606,-0.086974457,-0.2468016733,-0.398718783,-0.1351673754,-0.1698417835,-0.2569039462,-0.5122770145,-0.6688462509,-0.6389795631,-0.7791376912,-0.2951424429,-0.3691741174,0.0056149608,0.0364999742,-0.0148036464,-0.1921298464,-0.2516360297,-0.067032602,0.0227639027,-0.1273014194,0.0392338744,-0.0396391449,0.0078330844,0.013352801,0.0387079544,0.0331047824,0.0516980323,-0.0509667111,-0.0402641672,-0.0121499686,-0.1173983148,-0.1348228331,-0.2217027732,-0.1830186709,-0.5879460028,-0.8164392935,-0.9489250935,-0.9394331381,-0.7438987552,-0.8579921485,-0.5691208021,-0.3637527936,-0.0914795146,-0.073599493,0.018386993,0.0685830472,-0.001895983,-0.0493707463,-0.0078814006,-0.0096521076,-0.0753523017,0.0248060715,-0.0102039869,0.0056025919,-0.0751285435,-0.088056043,-0.036440546,0.0450857024,-0.0104234043,-0.1117612152,-0.060663977,-0.1225099827,-0.2459975536,-0.3156120489,-0.5540639018,-0.3806421719,-0.2747108721,-0.2773381731,-0.2281323532,-0.1804646975,-0.034497732,-0.0102307361,-0.0873706104,0.0416248692,-0.0060005884,0.003224961,-0.0342263303,-0.0259183542,0.0196899496,0.0246531519,-0.057966421,-0.0844113217,0.0012552878,0.0114528244,0.0309107874,0.0554211183,-0.0326285557,0.0680313386,0.0079835034,0.0091221509,0.0171905882,-0.0340328384,-0.1087229265,-0.0255556432,0.086159524,-0.0434001561,-0.1149612946,-0.0872761967,-0.0634287806,0.0057497455,-0.1106546549,0.0289886225,0.0143541304,-0.04496014,-0.0365785423,-0.0901680724
-0.0246808427,0.0349600162,-0.1012298087,-0.0024623435,-0.0050567501,0.0352907561,-0.0780775663,0.0641008489,-0.0277825345,-0.0037501166,0.0477707498,-0.029847154,-0.0674558215,0.0002619161,-0.0446559421,-0.0778323701,0.0362140706,-0.0667595514,-0.0448072523,0.0370353446,-0.0283616143,0.0157994254,0.0589815359,-0.0380630759,-0.0356750175,-0.0037794858,0.040987891,-0.0160139131,0.1020107396,0.0868273409,0.0040958926,-0.0127591534,-0.0343034116,0.0625677107,-0.0066913449,0.0078743746,0.041751981,-0.0049757112,-0.0477929976,0.0312950924,0.0578601299,0.0855883557,0.0366726169,-0.070929047,0.0186037671,0.0026663307,0.1505713099,-0.0432861072,0.007674351,0.0222705242,0.0955494707,-0.0289507949,-0.0452820732,-0.0506415889,-0.0169324005,0.010882964,-0.0492266843,-0.0339321857,-0.1119108558,0.1015620773,0.0229851127,-0.0086580225,0.082626391,0.0026208774,0.0029740889,0.0582056868,0.0676863089,0.0572174416,-0.0139038349,0.0027338227,-0.030417002,0.0326749665,0.0664126328,0.0104906139,0.2031094269,0.1750575598,0.2283890606,0.163174222,0.0148413871,-0.0315330485,0.0006612629,-0.1114310993,-0.0021306658,0.092878884,0.0414726519,0.0292134027,0.0306626234,-0.1356082798,-0.0008940916,0.1019963691,0.0554842034,-0.0357602282,0.0570548586,-0.0185009513,-0.1164433408,-0.1551098169,-0.1717933336,-0.3469435486,-0.1193231582,0.1292560578,0.0946237333,0.1632682437,0.2580364948,0.4245663333,0.3953866825,0.2592065634,0.0244143951,-0.0200533939,-0.054209436,-0.0416661742,-0.0382321504,-0.0110713432,-0.0570555033,-0.04885006,-0.0289163034,-0.0412320196,0.0202236097,-0.0070237472,0.0690515063,0.0502180481,0.0283494662,-0.170916078,-0.2343690045,-0.4228589496,-0.5513585501,-0.4997849436,-0.281662434,-0.0721759844,-0.0908543513,0.0489848429,0.1600109697,0.3926159913,0.4873817891,0.1862707056,-0.1365954835,-0.1970466378,-0.2736087692,-0.1512553753,-0.1605860575,-0.0403107642,-0.0091179,-0.0056958929,-0.0249016262,-0.0096906124,-0.0445255341,-0.034468078,-0.1103636305,-0.1734696353,-0.1931734414,-0.4313711312,-0.5280763047,-0.6266482876,-0.4794403558,-0.1724536314,0.0717012987,0.3453415721,0.0399276689,0.2154232302,0.4555570614,0.3745622935,-0.1616391101,-0.3556146318,-0.7462005597,-0.5951966395,-0.5262759642,-0.2217292818,-0.0075960087,-0.000989401,0.0445618414,0.087422906,0.121224404,0.0444755638,-0.0551180398,-0.1990492966,-0.1726254548,-0.2184643681,-0.3271490819,-0.4917875852,-0.7691768934,-0.6797945915,-0.4782257111,-0.0515413575,0.0963363029,0.0796621747,0.14696328,0.2853680935,-0.1561469558,-0.0192195456,-0.3511526564,-0.2828217747,-0.6799572397,-0.9031104667,-0.640487901,-0.4190539493,-0.0490718105,-0.0481069435,-0.0328233226,0.0184498389,-0.0562586431,-0.0980521412,-0.0897637896,-0.1068882188,-0.1215056522,-0.4277305795,-0.5886749132,-0.7708110807,-0.6688017016,-0.5427336948,-0.1422784747,0.1358223525,0.2938289302,0.5103986826,0.4871178434,0.2768208582,-0.0285963285,-0.3033432373,-0.4043890838,-0.5410087416,-0.5293152905,-0.8672510114,-0.5306634712,-0.3874989345,-0.1329848842,0.0150985471,-0.0325709421,-0.0361517776,0.0338408387,-0.0951879737,-0.0230932494,-0.1527356333,-0.2559344831,-0.615441768,-0.7948415705,-0.683627767,-0.7709398158,-0.2871058525,-0.0136653331,0.0008662499,0.237879044,0.5666098206,0.3611927644,-0.0316247426,-0.3238934788,-0.6543100184,-0.6619576614,-0.4809851778,-0.6487851756,-0.6901720919,-0.6635225168,-0.2344675456,-0.087311917,-0.1089444257,-0.023933214,-0.0275511766,0.0120475855,-0.1158424866,-0.1038512444,-0.0518195187,-0.3936191634,-0.5683416689,-0.4131013981,-0.488165209,-0.3181036864,-0.0984754371,-0.1542238175,-0.1684237367,0.2599322227,0.341305389,-0.0379049774,-0.5364595225,-0.2036867286,0.1595498738,-0.3285766542,-0.4863943562,-0.5627163481,-0.5817304017,-0.4485103023,-0.3328122786,-0.1423842117,-0.013123875,-0.0691534351,-0.0017522214,-0.0704629826,-0.0783751483,-0.062564113,-0.1984548691,-0.5151400538,-0.4723316116,-0.2407008811,-0.2465210251,-0.3153863488,-0.1426544559,-0.052368783,0.0028607153,0.0666722137,-0.5446322854,-0.7513435598,-0.5713505415,0.0661561136,0.1862381468,-0.0554698351,-0.4260761769,-0.4928122108,-0.5266921035,-0.2975593872,-0.2620461722,-0.1308207244,0.1011311389,-0.0701822547,-0.000258979,0.0269403917,-0.0160686345,-0.0070003495,-0.27990279,-0.3296532112,-0.2019214324,-0.1758051784,-0.1582667904,-0.1028688344,0.2145446587,0.1923284078,0.5005953799,-0.4922896259,-1.4739527082,-1.4551662952,-0.8088088034,-0.2523008485,0.1354444493,-0.039849368,-0.0358701292,-0.5238197793,-0.4676078373,-0.1695219231,-0.2015257749,0.0054384429,0.0706803431,-0.0803073403,0.0025382143,0.0413860113,-0.0858727124,-0.273650993,-0.3098150177,0.0150701293,-0.102907905,-0.2282576121,0.4503566239,0.4640846405,0.3663554759,0.5511589642,0.3972815294,-1.1779459094,-1.7525872308,-1.4430518262,-0.7292790289,-0.0120663813,0.1861969469,0.1726896084,0.2036939789,0.0491310313,0.1069024284,0.1547782551,-0.1747977242,0.0005179284,0.1241213442,0.1070695399,-0.061032573,0.0570541928,-0.0564521044,-0.3706402277,-0.0978794338,-0.122437775,-0.330678596,-0.2672818729,0.6072973928,0.4028247912,0.0432705408,0.1604921648,-0.6374614644,-1.4783961952,-1.5729312348,-1.1619968793,-0.6466567342,0.0759430351,0.2350765591,0.0518647132,0.0211421364,0.2303597103,0.3451077688,0.1558438645,-0.0657985904,0.0029994428,0.0254768681,-0.0805167726,-0.0474467378,-0.131243503,0.0390403021,-0.1971873354,-0.0477239517,-0.2249710525,-0.6046602185,-0.1801884904,0.8051169634,0.3460098187,0.5331406856,-0.0737754592,-1.120223603,-1.19451582,-1.2229717556,-1.0135775071,-0.194834834,0.2789933716,0.3859480711,0.0633609796,0.0399087384,0.1716540178,0.386589316,0.0767469159,-0.0995845466,-0.0275295694,0.0414317076,0.0210474955,0.0461771986,-0.0194345527,-0.0699690861,-0.2466325119,-0.1209817491,-0.5870951358,-0.2991068628,0.4020730563,0.8105494001,0.8681136453,0.6391669966,-0.0473341807,-1.1065422883,-1.2529444361,-0.9989984259,-0.6388052489,-0.2549664747,0.2630942283,0.2176942702,0.2279700382,-0.0098871855,-0.147601045,0.1494138656,-0.1844060365,-0.1389087726,-0.1318082816,0.0325335989,0.0981289067,0.0547241324,-0.0352996913,0.0031529127,-0.2511832406,-0.3050019915,-0.6151373808,-0.1478221737,0.5906599812,0.6661369491,0.7815155629,0.5423857029,-0.4449857278,-1.2707320722,-0.8166333079,-0.6237673235,-0.2558597018,-0.0822554772,0.1118336941,0.0551427148,-0.1138203933,-0.3607733641,-0.364984418,-0.2018247144,-0.2132474503,-0.317239045,-0.2303923647,-0.0490301495,0.0527611056,0.0444786964,-0.1525575197,-0.0540940865,-0.2212017487,-0.3709061612,-0.5012016818,-0.1339217537,0.5482346969,0.749559725,1.1412070185,0.6006462088,-0.4905674163,-1.0224250827,-1.0385434346,-0.7769441958,-0.2116366315,0.1917039706,-0.0942939801,-0.1484239548,-0.1084424261,-0.0700355634,-0.2474449944,-0.1427766681,-0.3746048674,-0.2175044524,-0.1725446119,0.0626668781,-0.0554253819,-0.0203688048,0.0441545187,-0.1263136701,-0.2467527688,-0.3423964834,-0.4304761282,-0.4252119061,0.1875573068,0.4229719372,0.9802240227,0.5708999011,-0.3217453821,-1.3498713778,-1.6030789971,-0.7661409545,-0.4128600545,-0.4393358883,-0.0729600311,-0.0060590968,-0.0787584197,-0.036826015,0.0309577476,-0.2183556681,-0.3083439103,-0.2083454293,0.0405573275,-0.0687807383,0.0734895343,0.1311435545,0.0011512061,-0.2363297114,-0.2854058924,-0.309486821,-0.2825880206,-0.3393994347,-0.048987469,0.3340647614,0.9036223459,1.0268393202,0.278273027,-0.6823817406,-1.0670730317,-0.7248610572,-0.7770090126,-0.7832319148,-0.4076600485,-0.0582212509,0.0309697935,0.1452997396,-0.0242507848,-0.3081948334,-0.3780659469,-0.2137087931,-0.0149467559,-0.0415728654,-0.0607369243,-0.0212619422,0.028209639,-0.0922266049,-0.245037435,-0.1489387735,-0.4205563505,-0.4867688089,-0.2393198533,0.2389629154,0.740022268,0.84130862,0.6060682076,0.0708387379,-0.165340254,-0.342588399,-0.8596071035,-0.842639515,-0.5417476858,-0.087871347,0.3497162017,0.1064035063,-0.2066561291,-0.4662838236,-0.3780052778,-0.0010731519,0.1093522822,0.0243981286,0.0632093763,-0.0737210768,0.0130576119,-0.0564817081,-0.2139706828,-0.057091567,-0.4135135902,-0.3468453961,-0.1490739334,-0.0133318967,0.2525402913,0.4516019032,0.5435721193,0.3342262225,-0.0322702962,-0.307070949,-0.365339438,-0.5840795175,-0.2366778647,-0.2784955832,-0.084155446,-0.3010314041,-0.2919023062,-0.1630948259,-0.130912479,-0.0146612963,-0.1155412718,-0.0063873481,0.1187620908,0.0615974599,-0.0764974636,-0.0271043727,-0.1413400399,0.015297383,-0.1596488411,-0.0645981545,-0.1532886842,-0.1517026188,0.0049893511,-0.0387274315,0.4363418007,0.5337869387,0.2750466271,0.3851207092,-0.0275295589,-0.1080031458,-0.1524557196,-0.1591047951,-0.2441826572,-0.0995860499,-0.1571620026,-0.146857246,-0.0685526764,0.0613518163,0.0525906454,-0.0294179622,-0.0253144033,-0.0810795732,0.0977891008,-0.0083482318,-0.1891063228,-0.1744827835,-0.0179892948,0.0153095084,-0.1050096782,0.0366430118,0.0291263821,-0.2040761325,-0.1328763963,-0.13685362,-0.1210079249,0.0204840141,-0.126547881,-0.1239321362,-0.2439643921,-0.4243885342,-0.2376457324,-0.1314005495,0.0416104203,-0.0461066076,-0.0309840302,0.0452115961,-0.0087160843,-0.0293452575,0.0432269284,0.0638354885,0.097430293,0.0331252872,-0.035293049,-0.1474069324,-0.0798323249,-0.1595705031,-0.1967572292,-0.1715930691,-0.1424225595,-0.28433606,-0.2639394231,-0.4231254907,-0.2197231798,-0.1514208769,-0.2606451961,-0.2226164809,-0.3428594238,-0.3831582131,-0.1056033576,-0.1022662124,-0.129996455,0.0144170265,0.0075982643,0.0152521127,-0.0165130682,0.1043769702,0.049373464,0.0223201312,0.0289154288,-0.0436181986,-0.0654630226,0.0204288708,-0.0794000712,-0.1720281959,-0.1418134712,-0.2390555724,-0.3580058783,-0.298007486,-0.3725200846,-0.354658937,-0.3737136683,-0.3117767612,-0.2552709151,-0.1651216497,-0.0864773054,-0.1057018966,-0.1423587686,-0.0654185823,-0.0533714097,-0.0392813753,0.0461617862,-0.0584079693,-0.0695289511,0.0672424922,0.0538725565,0.0544143398,-0.0109465068,-0.0568108412,-0.0073721491,0.0088020351,-0.021050989,-0.0189308958,-0.022691059,-0.1637148263,0.0308529572,-0.0763114023,-0.0354780474,-0.0456836908,-0.1275858351,-0.034285012,-0.1196764372,-0.128503297,-0.0130297666,-0.0661933855,-0.0257201831,-0.1018195419,-0.031794525,-0.042565591,-0.0564688737,0.1042275288,0.0339157842,-0.0151505377,-0.0678776723,-0.0543400857,0.0273536542,-0.0333483508,-0.056598706,-0.0151965172,0.0066790294,0.0225216517,0.0361532483,0.0388942681,-0.0370925946,-0.0293461129,-0.0082438792,-0.0365906282,-0.0347365284,-0.023363602,0.0567400788,-0.0701427684,-0.0148438,-0.0271753274,-0.0304223438,0.0055532935,-0.0206978171,0.0881950989,-0.0368891265,0.0195514666,-0.0091737749,-0.0464202477
0.0321379091,-0.022479966,-0.0062825751,0.0271456985,-0.0151601004,0.0358682615,-0.0126354649,0.094849317,0.0342048597,0.0815452855,0.0375977022,-0.0463178722,-0.0103508045,0.0332724652,-0.0413162355,-0.0331426845,-0.0706909604,0.0369535048,-0.034370982,-0.0578705487,-0.0462826592,0.0099577999,-0.0311111454,0.0401613845,-0.0490301872,0.0149470585,-0.0124259594,0.0090853402,-0.0151367796,0.1070130402,0.0888509959,0.0165025163,0.0630402444,-0.0135362945,0.0361768218,0.0708753657,0.0222955994,-0.001163135,-0.0741511442,0.0104532981,-0.0203823042,0.0631300614,-0.0120028327,-0.0313458471,-0.11592062,-0.0645526874,0.0407575416,0.0128137978,0.1013405989,-0.0232015546,0.0344352952,-0.0217784693,0.0036264139,0.0292370754,0.0047004447,0.0343433717,-0.0528779373,0.0782350955,-0.1031837013,0.039437639,0.0244999713,-0.0680410351,0.0760542489,-0.0646225649,-0.00637584,-0.074497831,0.0282595562,-0.0448505948,-0.0529881887,-0.0761435846,0.0027436392,-0.0581806671,0.0256191431,-0.1576984906,-0.1889296086,-0.1314918999,-0.1132158231,-0.0947198136,0.0564128601,0.0179962079,-0.0047531294,-0.0555341912,-0.0496809889,0.1261122967,-0.0429665337,-0.0420779465,-0.0604064843,0.0148506973,-0.0810402352,-0.1001824776,-0.138497993,-0.0525645189,-0.1948066947,-0.1754693041,-0.0470122121,-0.0148494306,-0.1479446791,-0.1377964171,-0.1412182214,0.0500967805,-0.1287186247,-0.3970683807,-0.4681014064,-0.4117630113,-0.2444949179,-0.134911516,-0.0227830553,0.0108208861,-0.0115369681,-0.0112290493,-0.0692955878,0.0468378648,-0.1041686268,0.0330633054,0.0324031651,-0.0192462041,-0.0161780831,-0.1923997366,-0.1131475558,-0.0334403539,-0.1709058562,-0.1020102031,-0.2157186781,-0.0457940974,-0.1911608001,-0.074976037,0.049530165,0.4304473986,0.2178297736,0.0462982779,-0.2288772064,-0.4869966978,-0.0705830596,-0.0410035944,0.0209135661,-0.1104253225,-0.14674445,0.0186329554,-0.0378977295,0.0067349183,0.0619289199,-0.0326766491,-0.0705150616,-0.0613717253,-0.0679109951,-0.1628306341,-0.1181988635,-0.1558746012,-0.1211957675,-0.1288960798,-0.19340915,-0.3867019814,-0.1688247236,0.1340120197,0.3950832738,0.5430494739,0.1687137542,0.0761758002,0.0861915503,0.0334753025,-0.0226181036,-0.0694564903,-0.1443014784,-0.1928787388,-0.254699774,-0.1294687374,-0.0734602842,-0.0338369374,-0.016885303,-0.0343316334,-0.0037129428,-0.0999866731,0.0127016661,-0.0044943294,0.0557465531,-0.161135988,-0.1976017908,-0.3624223779,-0.4793713587,-0.2746237264,-0.1985122909,0.0596572542,0.2372759985,0.1417470362,0.1046198901,0.2689262981,-0.1322687557,0.0982684086,0.0485357019,0.0541662757,-0.1344342787,-0.3441920533,-0.5097537586,-0.4571280183,-0.1070476154,-0.043870725,0.1095358154,-0.0136527937,0.0067670187,0.0186093971,-0.0344596796,0.0216174571,-0.0293194717,-0.211340188,-0.5052774407,-0.4894947791,-0.4187064542,-0.1441671528,-0.047303663,0.0570897307,-0.2416730416,-0.1980411934,0.0283940733,0.4617116733,0.6653643608,0.5927434839,0.2372788717,-0.2608364506,-0.1585500644,-0.2477074701,-0.4680291327,-0.1832449531,-0.1455785093,-0.0720609221,-0.0053186772,0.0349936314,0.0152914524,0.0130530561,-0.108702716,-0.1228235582,-0.3995524338,-0.5280507783,-0.4137933051,-0.3064506457,-0.2992851893,-0.3441028964,-0.2989294421,-0.5171605679,-0.2366455188,-0.0198689837,0.3037048686,0.3803733134,0.6930355214,0.5415987013,0.3363376518,-0.3291026268,-0.1094619208,0.174435938,-0.3326967988,-0.097476729,-0.0694864882,0.0632783579,-0.0577328919,0.0210481511,-0.0300229927,-0.0537903549,-0.2231929529,-0.3586407023,-0.5788396186,-0.5322422775,-0.4077463564,-0.4187954386,-0.4791366647,-0.378837617,-0.4324168427,-0.231718747,-0.2860824039,-0.3592453972,0.013498892,0.2347956586,0.6238345837,0.9842616717,0.5734225582,0.299684408,0.1649664678,0.2992537953,-0.1486406462,-0.2403815547,0.0001973899,-0.0416854328,0.0149348121,0.0952941568,0.0211986559,-0.0786614989,-0.2629037645,-0.3932977644,-0.6178570393,-0.3865936316,-0.3189791592,-0.4329622727,-0.6146225637,-0.3020166538,-0.2327811162,-0.397965017,-0.236433932,-0.455802809,-0.463537783,-0.1142742359,0.3505379097,0.8331210542,0.4754549955,0.3940491064,0.2749331843,0.3796045652,-0.0512362456,-0.2374422171,-0.0986163899,-0.0663139417,-0.1334210176,0.0118899664,0.0144462537,-0.1481259753,-0.425346665,-0.4701984227,-0.2905256989,-0.0467783665,-0.3687214751,-0.3643871914,-0.4025599884,-0.2575643547,-0.2029341796,-0.1337043428,-0.7509702128,-1.215994559,-1.5545229426,-0.9260926637,-0.1281194891,0.5569901862,0.4619559415,0.1171993739,0.3730399185,0.3509291543,0.2665180612,-0.0832400698,-0.0860358617,-0.0019031829,-0.0310466212,-0.0171168122,-0.0475522678,-0.1367608516,-0.4039959908,-0.3740061995,-0.0576668573,-0.2183669184,-0.2726179631,-0.5271063468,-0.1690884138,-0.0032135618,0.1883789411,0.0107934969,-0.7652625093,-1.4057630516,-1.7983731787,-0.9942232017,-0.0492864731,0.1412263895,0.0387706775,-0.2758181301,0.1563303991,0.5715860028,0.4026613642,-0.0034255334,-0.0318513473,0.0917512325,0.0051210217,0.0101413268,-0.0917100822,-0.2159919183,-0.3800684336,-0.2499981921,0.0645310291,0.0254420134,-0.1146374148,-0.1945254499,0.2428973514,0.1614262034,0.079516206,-0.4554866103,-1.0468110212,-1.9835014649,-1.6997307779,-0.6903531676,0.1198559813,0.1034897497,-0.2028154368,-0.3490053178,-0.0617933349,0.5795035446,0.384042619,0.013745161,-0.0462951661,-0.0162592225,0.0607567403,-0.0134604781,0.0342694628,-0.1316901869,-0.1537734469,0.123934053,0.1156775018,0.3238022315,0.3606800773,0.4279324468,0.3900152289,0.3031306422,0.0083891046,-0.5669745281,-1.1943069295,-1.6105664094,-1.213539842,-0.2407170884,0.0682321605,0.0685476066,0.0192508275,0.1013938779,-0.0260630717,0.3807212178,0.2284362689,0.0178863239,-0.124123654,0.042091621,0.0544816824,-0.0049388771,0.0096536176,-0.0158532363,-0.2027355306,0.3933449095,0.1057146989,0.3484288402,0.3665138462,0.5533917295,0.6172535842,0.2114319639,-0.2259070141,-1.0920379646,-1.2369378651,-1.2642049146,-0.561651328,-0.1885931805,0.2040737429,0.0521975578,0.0637888532,0.2667348144,0.1653116404,0.1622161408,0.0509645495,-0.1291293843,-0.0036601965,-0.014234569,0.0312776277,0.0577671419,-0.0277551347,-0.1515950456,-0.0761826247,0.2658648397,0.0660097669,0.2938577918,0.691228365,0.4413263093,0.5317004324,0.0095790425,-0.9124637713,-1.2904468944,-1.0648823502,-0.6174041099,-0.2556775076,0.0122693087,0.22551992,-0.0933271859,0.196318601,0.2219651584,-0.0882705163,-0.1310060092,-0.023445402,-0.1192783607,0.0075267534,0.0516679957,-0.0333681235,0.0069423521,-0.088531085,-0.1842599977,-0.0292090744,0.1337529108,-0.0529227195,0.2982547826,0.3935468199,0.510143987,0.5827387659,-0.2819206697,-1.1159473891,-1.1216531894,-0.8245890024,-0.3669601472,-0.2299197993,-0.0145024698,-0.2306155642,-0.0482166193,0.0081990231,-0.0296075256,-0.0370916857,-0.2307013859,-0.1384802233,-0.0821614471,0.0800542643,0.0005318718,-0.0099578467,0.0903012261,-0.0423027411,-0.1059927055,-0.1934207742,-0.0530903012,0.0209480068,0.2409065077,0.5672424284,0.9150015304,0.5771448584,-0.2795823096,-1.309857435,-1.07210274,-0.7130712467,-0.1906149774,-0.1826934375,-0.0306291403,-0.2737168988,-0.195227842,-0.3325463191,-0.2190741749,-0.2943292591,-0.2268988423,-0.2581724293,-0.109606994,0.0183148612,-0.0067437185,0.0773081188,0.0025362568,-0.0250715835,-0.2974791016,-0.3900429793,-0.2100443885,0.1922383628,0.3995545784,0.7718586899,0.9585863086,1.023925821,0.3424175797,-0.1522975253,-0.5548220399,-0.512843331,-0.315452084,-0.2983605581,-0.4689139606,-0.4659554174,-0.447370682,-0.4566475367,-0.3626591206,-0.2708785099,-0.1525674872,-0.0863049948,0.0186835156,-0.0385749397,-0.1295021464,-0.0597390329,0.0447626056,0.0041148243,-0.2221990353,-0.2462507955,-0.1079210535,0.0824596773,0.2446672713,0.3492116692,0.7154346243,0.987336217,0.5618735844,-0.081626399,-0.3856022956,-0.6432649044,-0.4450750971,-0.6330569052,-0.6124601164,-0.6895120845,-0.6716184351,-0.6361854307,-0.3654833913,-0.2135222196,-0.1342317368,0.0066098488,-0.0220106346,-0.0408845379,-0.0269604381,0.0124271827,-0.0111323198,0.0417220189,-0.1119880957,-0.1554099563,-0.0836330364,-0.0368059493,0.1969709596,0.3468484577,0.3961556066,0.5172855507,0.5099165436,0.1114238146,-0.3852660981,-0.3605993485,-0.3914610599,-0.6675973601,-0.6755468833,-0.5403403521,-0.4262455265,-0.3912921589,-0.144148149,-0.160434713,-0.1153529854,-0.0251482396,0.0592132426,-0.0374022999,-0.0397560645,-0.0525941955,0.020641583,0.0465599772,0.0103738267,-0.144826308,0.0058595138,0.1188678293,0.3441522101,0.3823790538,0.5515594336,0.5924317568,0.5486882448,0.2158234501,-0.0665751487,-0.1038661238,-0.1376586357,-0.394272947,-0.3257665563,-0.2846861866,-0.2137045231,-0.2693486377,-0.1972583614,-0.1089109793,-0.0611185465,-0.0829955108,-0.0286876703,-0.1115724453,-0.1012627316,-0.0045424393,-0.0429689461,0.0018670416,-0.0505893974,-0.1383621307,-0.112451427,0.0775061701,0.2500889199,0.1363888887,0.2437346313,0.6805580467,0.5829432924,0.4097039766,0.1667411972,0.1780051604,-0.1136265332,-0.2054905771,-0.281127037,-0.3331125902,-0.3250363061,-0.3339700834,-0.1134824331,-0.0668765063,-0.0370232034,-0.0153940644,0.0297766201,0.0059694946,0.0092611956,-0.011022747,-0.0612635109,-0.0122609321,0.0494340835,0.0276874475,-0.0761735658,-0.1845009715,-0.2857379586,-0.2408611637,-0.3966438642,-0.3117436586,-0.4180323371,-0.1129978858,-0.0825167497,-0.0547667774,-0.2801520044,-0.4476630568,-0.4149642183,-0.3311680858,-0.306429829,-0.3362835114,-0.1985900069,-0.013963502,-0.0837853515,-0.019456726,-0.0408374842,0.0202504053,-0.0161578972,-0.0652866391,-0.0294550018,-0.0596350754,0.1147437076,-0.1799044256,-0.0320266415,-0.1225428165,-0.1580547534,-0.398678716,-0.5627858151,-0.7549715793,-0.5950747125,-0.5948425237,-0.5012676342,-0.4820960101,-0.466858396,-0.408021337,-0.3033961338,-0.2887258687,-0.2448552445,-0.2192003298,-0.1006360699,0.0148539066,-0.0612299896,0.019031405,0.0391913665,0.0538323091,-0.0204002769,-0.1105007124,0.0105842386,-0.0022988645,-0.0320135739,-0.015079471,0.024128752,-0.0427506332,-0.1515559467,-0.0889521119,-0.2218997648,-0.1412571118,-0.3117027862,-0.3348769597,-0.2272318722,-0.2272238018,-0.2668871669,-0.1487153546,-0.0758108374,-0.1585972608,-0.0427376794,-0.0241590276,-0.1172006003,-0.0875329118,0.0191018588,-0.1010244729,-0.0231394556,-0.0304648876,0.0175335448,-0.0365651836,-0.064394443,-0.1752689699,-0.0405549169,-0.0780536044,0.0067798698,0.0553896276,-0.0601231861,0.0610285126,-0.0525090102,0.0407540701,-0.0024422751,0.0474863604,-0.0344998931,-0.0631674501,-0.0532619657,-0.0901754823,-0.071217212,-0.0592812645,-0.1025321103,-0.0862619191,0.0096277704,-0.0546682659,0.0364868148,0.0303685071,-0.0073527225,-0.0158687943,0.0685875647
0.0180003597,-0.0202276535,-0.0489427349,-0.0921144884,-0.0016952312,-0.0481386592,-0.0048107116,0.0875414835,0.102182857,0.015596001,0.0482241972,-0.0055896749,0.0754072992,0.0218490772,-0.0640471107,-0.0526301444,-0.0936527833,-0.011129505,-0.0149852933,-0.0586852496,-0.0327164054,-0.1006674173,0.0288363646,0.0602504125,-0.0435027356,-0.010135568,0.029123866,-0.0300853063,-0.0235391875,0.0419313355,0.0850063542,-0.0199607114,0.0339562169,-0.0161372119,0.0130776903,0.0405640654,0.0166819245,-0.0395577997,0.0041125674,0.0583814764,-0.0157388097,-0.0504598037,0.0080946242,0.0528591856,0.0153649639,-0.0898227358,-0.0056621195,0.0188081197,0.0104164822,0.0288091819,0.0186287576,0.0603166908,0.0562864405,0.0477892482,-0.0486230498,-0.0143471582,-0.0557103419,0.14172438,0.0211139428,-0.0124663578,0.0337861402,0.0231616898,-0.0760081818,0.0227464338,0.0592498553,0.0424231061,-0.0643435099,-0.1171576185,-0.061799181,-0.0646174787,-0.0797312997,-0.0088155594,-0.0508554856,-0.0121147046,-0.0334083347,0.0403228074,-0.0027994203,0.099118922,-0.0403334143,-0.0398675152,0.0051423127,0.0232106316,-0.0578483616,-0.0366565644,-0.0056532878,0.0186012763,0.0856931706,0.0263091272,-0.0275290014,-0.0356856563,-0.0566664806,-0.0743162867,0.0075248534,0.0102733111,-0.0755038513,-0.0668625383,-0.1355970506,-0.060333061,-0.0796668054,-0.1535223176,-0.0058771778,-0.0657781991,-0.108265961,-0.0622712485,-0.0964962098,0.0230010802,-0.081100845,0.0320843527,-0.0315227414,0.0282543693,-0.063237445,-0.0329537592,0.0570882984,-0.0412219428,0.0207770356,0.0168607242,-0.0138773035,0.0455191934,-0.0716799367,-0.0521011099,-0.1172484065,-0.077324372,-0.1120470629,-0.2224435882,-0.1904142697,-0.2579941442,-0.1952635057,-0.4059865125,-0.2160000783,-0.2477940457,-0.2377241611,-0.4779071144,-0.2590628395,-0.3260377441,-0.253117168,0.0499867685,0.0601635377,0.1027090399,-0.0683969983,-0.0656523344,-0.1494755162,0.0417294508,-0.0505612698,0.0145063336,0.0432215333,-0.025443264,-0.1411007984,-0.2318657587,-0.0381360488,-0.1825290495,-0.0480566289,-0.1812025584,-0.2733333581,-0.3985095937,-0.3943719391,-0.4160263124,-0.5628693885,-0.5768492966,-0.6433608508,-0.84582497,-0.4288752052,-0.2102145628,-0.231897168,-0.0229194996,0.0827472936,0.0927065964,-0.0187850343,-0.0420987855,-0.1180599995,0.0369974183,-0.0136169195,-0.0204930697,-0.043330114,0.0196743033,-0.1493411589,-0.1495543705,-0.0751110144,-0.1029660703,-0.1812347261,-0.2647695825,-0.3771494435,-0.3209461824,-0.2869395937,-0.5951194106,-0.7608664511,-0.6587543973,-0.4692445124,-0.6059088986,-0.5477711232,-0.2029549396,-0.0729938376,-0.0372110639,0.0111066808,0.069703112,0.0475851287,0.0178251822,0.055267728,0.0608259809,0.0395783932,-0.0810363613,0.0013144164,0.0422402863,-0.1418314469,-0.0349164217,-0.0499122624,0.0946851482,-0.0123469013,-0.2405892837,-0.0287186253,-0.0558210762,-0.2855012952,-0.5270969231,-0.6198553305,-0.4661217981,-0.25430043,-0.3795386626,-0.1177515833,-0.0582440755,0.2237540292,0.4442354915,0.4730447664,0.2115849157,0.1639740903,0.09983521,0.0250479118,-0.0216448756,-0.0424380327,-0.1325946421,-0.0099833238,0.0847154832,-0.0381141707,-0.1397447977,-0.0301362763,-0.0433887645,-0.1668731152,-0.3186232655,-0.1001255219,-0.1792316432,-0.2469202841,0.0128237786,0.0042771868,0.0323775437,0.3283106416,0.6152605566,0.8595888309,0.8574052582,0.9101191701,1.1563205905,0.7567364602,0.4199573622,0.0713634854,-0.0388242627,0.0860458295,0.0082917142,-0.123183088,-0.0854657065,0.1142723077,0.010827762,-0.1730816956,-0.1286834689,-0.2700250136,-0.3404829813,-0.4773644894,-0.2362452053,-0.0245796,0.2852048898,0.1602008077,0.4025560554,0.5999979667,1.1630356402,1.194025865,1.063399205,0.9299378761,1.1062647165,1.0426398414,0.9475705718,0.8019458999,0.5175392194,0.2404730384,0.0416928239,-0.0794320305,-0.0080759613,-0.0122779038,-0.0163596678,0.1018238773,-0.0601542952,-0.1129996767,-0.1858841801,-0.1973920349,-0.1298353727,-0.1515533642,-0.100904814,0.1907294338,0.5388450709,0.0966526845,0.5212227344,0.4006033838,0.3455948161,0.1485572282,0.2718820119,0.6282863937,0.7641310245,0.5554282039,0.1424019846,0.4362923419,0.2971962479,0.1647258689,0.040815096,-0.0360903199,0.1006024481,0.079068167,-0.0354326087,0.098738806,-0.0307321316,-0.0412459385,0.0161761992,-0.0354687699,0.0736445163,0.0766777734,0.1149685665,0.3949130041,0.2219206889,-0.0741614037,-0.3131790408,-0.3809276159,-0.7438622607,-0.9872251869,-0.6898351004,-0.4306906261,-0.2706687905,-0.3302868267,-0.2042202066,-0.0827932984,0.2486474581,0.056319661,0.0256894459,-0.0038844039,-0.0565151195,0.0099775273,0.0260600251,0.114834847,-0.0775581291,-0.0685912615,0.312604242,0.1942402242,0.3303248638,0.6004682782,0.0068356372,-0.0138616848,-0.1018338325,-0.5760317681,-0.6642298032,-0.8726299364,-1.4948783143,-1.4386803402,-1.2166110674,-0.9572245538,-1.0007076785,-0.7791851958,-0.6001542493,-0.4593669305,-0.0619781643,0.0343410538,0.0842888888,0.0522660625,0.0986496608,-0.0062246433,0.0252318887,0.0557262255,0.0705730697,-0.1376366363,-0.1592490124,-0.0790819558,0.2700191007,0.3708091545,0.2053939592,0.0436711499,-0.3196783538,-0.229539171,-0.5612887913,-0.6635092509,-1.2044563499,-1.2162899355,-1.119531798,-0.9510643826,-0.9450432215,-0.8192252578,-0.6650352622,-0.4354507994,0.0315639823,-0.0558381129,-0.0291925076,-0.001812731,-0.0437147625,0.0411377366,-0.0754705858,-0.0183435243,-0.090278003,-0.4384510469,-0.3628001212,-0.3625205717,0.0159517238,0.2348478059,0.0363859611,-0.1025799848,-0.5117131022,-0.2511696801,-0.3958985161,-0.5768593393,-0.7231267461,-0.8386260631,-0.9747111663,-0.7747131219,-0.8724867384,-0.5536360939,-0.5228207748,-0.4072727907,-0.0079861385,0.0603818208,-0.0492654506,0.0312120416,-0.0709890767,-0.0175476002,0.0223530563,-0.1322127699,-0.375669692,-0.3932661929,-0.4437646858,-0.533410897,-0.1216843555,-0.2442164057,-0.2114903233,-0.296907964,-0.3481887526,-0.5986048538,-0.3577539214,-0.5440122987,-0.1964852297,-0.3414544169,-0.4418599855,-0.5905088974,-0.5139156556,-0.4802739421,-0.4349435705,-0.3984925465,0.0374760044,-0.0613170464,0.0288999464,0.024663747,0.0691203694,-0.044391439,0.0137228744,-0.1328255998,-0.5360863092,-0.6720232714,-0.5125829824,-0.3173623765,-0.238294253,-0.2128727396,-0.5637607486,-0.4153800158,-0.1435644855,-0.2063234433,-0.3370003643,-0.1838257996,-0.0235857631,-0.0524430415,-0.1318325346,-0.3439436921,-0.4903782771,-0.4449560509,-0.3341676316,-0.2225950906,-0.0753458693,-0.0396724973,-0.0412689898,-0.0135046517,0.0195804754,0.0211503467,-0.0630343821,-0.0181152194,-0.4464782711,-0.7642551314,-0.435506363,-0.0927437624,0.1442637279,0.0486916437,-0.1404079545,-0.2579669854,-0.1714952926,-0.3089034559,-0.2308080397,-0.3471947195,0.0169496743,0.1705776815,-0.159793506,-0.2328682899,-0.4852589469,-0.3227828636,-0.1766126107,-0.1702179526,0.1168034257,0.0769580525,0.0047015722,0.0469851091,0.0017653711,-0.0271282061,-0.0201590158,-0.1821715071,-0.6591474028,-0.4534800961,-0.3110408664,0.0021632464,0.0337126508,-0.3341960162,-0.2401172371,-0.2369366816,-0.1832288698,-0.431139304,-0.3500198943,-0.4065713144,-0.2455650265,0.1551012033,-0.0154062021,-0.2106187575,-0.4416763464,-0.4991556962,-0.2483836011,-0.0677801785,0.0724794695,0.0011753169,0.0262503008,0.0548392974,0.0277715384,-0.0517784425,-0.0690191394,-0.2698549728,-0.7017806142,-0.4963328135,-0.178313855,0.2162255285,0.1293644981,-0.1966860548,-0.2856070911,-0.119062637,-0.2902822818,-0.4430270457,-0.1847106143,-0.0749836667,0.0641445639,0.028570082,0.1550807919,-0.3084457128,-0.6657717636,-0.4505914385,-0.1014515238,-0.0596716286,0.0242954983,0.0401776467,0.1127686045,-0.1399300482,-0.0165973374,0.0894892388,0.0306584038,-0.2231911558,-0.5026841699,-0.4500518588,-0.0341799462,-0.110930625,0.1433563425,0.0480586001,0.1023647156,0.0952229865,-0.1352687011,-0.1016089447,-0.0381016854,-0.0203720492,0.0551682377,0.1025660967,0.0851708818,-0.3461941004,-0.433082378,-0.2758259234,-0.0030708744,-0.0364930965,-0.0696181871,0.0336918719,-0.0545371943,0.0034542818,0.0475735932,-0.0157881044,-0.0857409817,-0.2776710134,-0.4459848724,-0.5347615418,-0.3007608264,-0.0350310426,0.0746728881,0.1560402253,0.4202586708,0.3098777219,0.0949469782,-0.1392236692,-0.3781908102,-0.290690625,0.1827388179,0.0696442543,-0.0897493671,-0.156000788,-0.1428515283,-0.1020589192,-0.0105187334,0.093812099,-0.0179666212,-0.0101056786,-0.0716639308,0.0377222449,0.0412055882,0.011128124,0.0031679498,-0.0045387257,-0.144174651,-0.2391145809,-0.198855179,-0.1053884394,-0.0048500269,-0.1256117543,-0.0481017454,0.0153120225,-0.2449275344,-0.3629880619,-0.055251328,-0.178967808,0.1270537648,0.0677653021,-0.0776747027,-0.0880886515,-0.0450363416,-0.0770377359,-0.1130628404,-0.0579149578,0.0558222145,-0.0422540794,0.0809654473,-0.004791766,-0.0334925675,0.0079563836,0.0949375788,0.1496763386,0.0781345177,0.2610702399,0.0725756739,0.0286447259,-0.0400369449,-0.164671708,-0.1364675284,0.0008597598,-0.3186399339,-0.361077149,-0.1307883661,-0.1991598697,-0.028230499,-0.0651156629,-0.0770497216,-0.0437919596,-0.0790825543,-0.1194984642,-0.0617140379,-0.0410623369,-0.0178420542,0.0550710392,-0.0126208026,0.096791558,-0.0316088519,-0.0802616779,-0.0431973975,0.0654955495,0.1582275701,0.1486504305,-0.0163490585,0.0364672482,-0.1712733299,-0.1028804104,0.0254071229,0.0759533692,-0.1719608604,-0.0391616212,-0.1457834875,-0.0551696149,0.1195470607,0.0118118903,-0.0597228653,-0.0196627876,-0.027263562,-0.1252846477,-0.0622947411,0.0640349956,-0.0241215886,0.0489964411,-0.0063118559,0.0886783824,-0.0295703112,-0.0333970604,0.0134965432,0.0541885324,0.0834173175,0.1110711192,-0.080918758,-0.1577964485,-0.1378840078,-0.2698297385,-0.0778954382,-0.0041054587,-0.1607680866,0.0636174947,0.1112253462,0.2333129848,0.0749546752,-0.0408006004,0.0256872478,0.0012180335,-0.0670447126,-0.0934368842,-0.0101106607,-0.0170979013,-0.0327265797,-0.0455305996,-0.0657753203,-0.0248094974,-0.0004878612,-0.0216759523,0.0051859163,0.0075229278,0.0179664601,0.0095098221,-0.0609225898,-0.1507979229,-0.18140553,-0.2620737063,-0.1511401762,-0.0915107043,-0.1318746958,0.1589969291,0.0857732117,0.0374816007,-0.0892551484,-0.0160981739,0.0065998684,-0.0150603345,-0.0123495595,-0.0618260573,-0.0378114895,-0.0400585617,0.0122696749,-0.0813904118,-0.0283055863,-0.0681431571,-0.0014915095,0.0861430261,-0.0209523058,0.0362409329,0.0033122101,0.0890347711,-0.1140531822,-0.0868202476,-0.0488330647,-0.0756190369,0.0072089157,-0.0330867039,-0.0648505013,-0.0333718327,0.020460524,0.0338003099,0.0594892906,0.0551332385,-0.0663084083,-0.0331863701,0.0194167899,-0.0152108737,0.0005569307,-0.0231113926,0.0307216469,-0.0238362779,-0.011149681
-0.0234888631,0.0644000429,-0.0467071952,-0.0413023809,0.0021108747,-0.0352605473,-0.0179781743,0.0701522235,-0.0254858753,-0.0637743598,-0.0206249503,0.0832516483,0.0046603735,-0.0101213639,-0.0117297375,-0.0003206126,0.0668703708,-0.0139782105,-0.0444827269,-0.0675875379,-0.00777681,-0.0959523147,-0.0525177119,-0.113073507,0.0705527546,-0.0198538935,0.0215709963,-0.0379521376,0.0484958308,-0.0661068458,-0.056291726,-0.0068486025,0.0808289872,-0.0974466707,0.0355103466,0.0302795993,-0.0275299972,0.0354028299,-0.0490982168,-0.1092177958,0.0550709833,-0.0117621223,-0.0357259489,0.0139219163,-0.0063563278,-0.0125490955,0.0815693961,-0.0988737674,-0.0208392348,0.0244084658,0.009446477,0.0194081391,-0.0072881083,-0.0973189545,0.0450543718,-0.0267319162,0.0681630354,-0.0308225673,-0.0388641152,0.0937628775,0.0693853819,-0.0338813052,-0.1033303714,-0.0131616803,0.0118597785,-0.0558172996,-0.0649380754,-0.1602534092,-0.0923465729,-0.2127891732,-0.178450995,-0.1458392167,-0.1263996022,-0.1336001485,-0.0891943551,-0.155623488,-0.0753910553,-0.1310218891,-0.1429725493,-0.0123460519,0.0250800627,0.0033978393,-0.0216194243,-0.0406507556,-0.0403785971,0.0109384777,-0.034480545,0.0850904043,0.0387389946,-0.009562628,-0.0580659675,0.0061821193,-0.0523921613,0.0478478257,0.0430052451,0.007658871,0.1103716881,-0.0074645593,-0.1407233074,-0.2050607089,-0.2955480314,-0.2949493836,-0.2857263768,-0.3573416415,-0.2420185894,-0.2418994475,-0.0596782629,0.0413056685,-0.0057809566,-0.022412932,-0.0002384394,-0.0004973143,-0.0203124481,0.0487308797,-0.0013511013,0.0822980234,-0.1180873012,-0.1177891896,0.0229720151,0.0147084716,-0.1397652382,-0.0663396474,-0.068672316,-0.0412606201,0.4084642844,0.401869377,0.0972230277,-0.2849269572,-0.0848792897,-0.1147222329,0.0421123383,-0.1528957161,-0.1391064797,-0.2010432592,-0.3398505277,-0.3596842828,-0.1701745767,-0.051507193,0.0116399699,0.0962731806,0.0116734098,-0.0957296896,-0.0622578654,0.0137980185,0.0112872882,-0.1063706697,-0.0570596016,-0.2724227928,-0.5030813238,-0.2927822911,-0.7316830128,-0.42069975,0.0851566457,-0.1507195343,-0.1651402317,-0.1430561913,0.4172845301,0.7461546287,0.6064716747,0.0096969632,-0.0701078056,0.0504707479,-0.2782172943,-0.3459146826,-0.2698120328,-0.0077441579,0.0409285902,-0.0170940755,-0.0746394421,-0.0214403859,-0.0124861728,0.0199793797,-0.1155580737,-0.2733770586,-0.2116152427,-0.6696968495,-0.6332309186,-0.2894108899,-0.3684136072,-0.1869821249,0.0469494589,-0.5550011622,-1.0773201005,-0.0982633315,0.0217369882,0.2120135599,0.6273290338,0.439692072,0.0269736069,0.2138436213,0.0204774915,-0.137902049,-0.0978919725,0.0181931489,0.0863321624,0.0220019166,0.0063425362,-0.0025439323,0.0276329287,-0.0367271971,-0.0886618417,-0.1649151102,-0.3577222369,-0.5232331636,0.0919664696,0.0400411326,0.3788069124,0.3676065669,0.2181491327,-0.2036813941,-0.7418580403,-0.3325196227,-0.1428681204,-0.1509131145,0.7841308045,0.7712505361,0.169133177,-0.0905518626,0.1565867614,-0.1512171634,0.1416081186,0.1491456994,0.0257986048,-0.0082137146,-0.0760745901,0.0611544813,0.0813525537,-0.0447941876,0.0225216291,-0.0979773383,-0.0020481207,0.1560560042,0.2368378059,0.6351644859,0.1554516151,0.0958655999,0.2262704976,-0.1587302239,-0.6178280877,-0.3771216457,0.0683990308,0.1668577036,0.5697397918,0.7968859371,0.1913761908,0.0646669965,0.2249067573,0.197161496,0.2231715476,0.2161988385,-0.0481834898,0.1058581941,0.0361522258,-0.0681233802,0.0376617114,-0.0303493039,0.1771606031,0.0783784442,0.1011543779,0.0452291239,0.2198626746,0.3110049246,-0.3684681858,-0.2770767279,-0.3806775414,-0.9754956936,-1.28003185,-0.5416585537,0.1682001916,0.1921324049,0.2486400383,0.5361237568,0.3568469127,0.4111791442,0.412819154,0.2694216329,0.2459216088,0.1994589985,-0.0220225988,-0.0136625606,0.0515429541,-0.0212600336,0.005365017,0.0239861613,0.0629322513,0.1491350409,0.0316780873,0.0976109817,0.236195159,0.0333747724,-0.2843062616,-0.3193388625,-0.5924603533,-1.2973459741,-0.4233633293,0.30956226,0.2734982147,0.0184128698,0.7490420216,0.8413167968,0.3068372688,0.2371540754,0.2828215197,0.380065342,0.1058178335,0.0275317416,-0.1145804388,-0.0404024916,-0.0787054263,-0.001660311,0.0517611859,-0.1846867589,-0.1731413144,-0.1561033482,-0.2537737058,0.0321519143,0.0648868801,0.0329972497,-0.2969935695,-0.7046598834,-0.6348043405,-0.6548300461,0.4062910983,0.5092871669,-0.0390329491,0.0351192091,0.183951467,0.378888333,0.0251373192,-0.3763184239,-0.0472325301,0.0967832445,0.208071087,0.0419174664,-0.1374198611,0.1075882027,-0.0383945598,-0.0776919377,0.0562202988,-0.0875693686,-0.2148515379,-0.392117798,-0.5763980053,-0.4098139246,-0.7186376851,-0.6405903414,-0.8957968374,-0.862240116,-0.1323112053,0.7031325422,1.1482686738,0.4819209981,-0.167287497,-0.1101657423,-0.1558932916,0.0477695646,-0.0281107981,-0.0729765782,-0.3401750937,-0.0176581685,0.0399055664,0.0648844532,-0.0284157624,-0.0489539538,0.0354847335,-0.0681324459,0.0107921017,-0.0452704889,-0.4272425482,-0.84117859,-1.008796971,-1.1988238398,-1.0984875639,-0.9940043556,-0.99871231,-0.354501795,0.6800375534,1.4144345708,1.2144668295,0.2757997152,-0.0502340686,-0.1459958902,0.3363446606,0.2220989589,0.4043752315,-0.2899223194,-0.7067048308,-0.8115549321,-0.187913759,0.1830752216,0.0825667537,-0.099632172,0.0551900878,-0.0361450576,-0.0521925318,-0.0995487713,-0.291297429,-0.8530558603,-0.9672712369,-1.2264718826,-1.2515887189,-0.9852618467,-0.4837980878,0.3909969239,0.8687666963,1.3929834741,0.6052268736,-0.280015111,-0.1434709037,0.1620630681,0.5689783045,0.2329132171,-0.5264098091,-1.0597078127,-1.0068939361,-0.7365395578,-0.2519217695,0.0644951045,0.0184486468,0.0254271149,0.0753259447,0.061527184,-0.0320611385,-0.1279351167,-0.2265773414,-0.699646962,-0.8500633945,-1.36002576,-1.2445325528,0.1060194622,0.0562596885,0.604393156,0.6165629525,1.4548572527,0.858354573,0.0739942136,-0.167533214,-0.3291859082,-0.5006485013,-0.6554813522,-1.272330226,-1.2957875205,-0.880664619,-0.7040113961,-0.2342273399,0.0797707961,-0.036069801,0.0272583016,-0.0248602746,0.0573083754,-0.115350212,0.0806966805,-0.0357936664,-0.6240322882,-0.8425727951,-1.2362023631,-0.8612353964,0.2269170439,0.3475434313,0.5242563681,1.2837037657,1.3204169958,0.2489775862,0.1527168208,-0.2436752257,-0.4083252196,-0.9609148663,-0.8992900419,-1.2201802031,-0.8468612302,-0.5190142137,-0.2494063067,-0.138707418,0.0817895948,0.1569596177,-0.0065990328,-0.0973279234,-0.0967462378,0.0127654104,0.058571811,0.1483786308,-0.4267361961,-0.4406492282,-0.740674043,-0.0604489529,0.2313744757,0.09769148,0.3276176304,1.6432046227,1.2680029677,-0.1090180681,-0.4510669768,-0.3291514289,-0.5676755083,-0.7176781736,-0.5980860168,-0.606157317,-0.3104055845,-0.2654959998,-0.0396610441,0.3486952451,0.1690910103,0.1777075927,0.0218762832,0.0058476386,-0.0001051681,0.0747437545,0.1244601561,0.0878661974,-0.0833130536,0.0025629755,-0.1442554077,0.4655048423,0.3592192786,0.5839253888,1.3006173679,1.9795844018,0.6636141963,-0.8769157982,-0.5630391438,-0.3206834302,-0.3358249304,-0.5265488969,-0.1834771854,-0.3470090801,-0.3641032632,-0.0918922324,0.2633803315,0.3673598058,0.1420169584,0.0092204103,0.0312143391,0.0253392012,0.0319661566,0.0447794652,0.1365420169,0.2885454368,0.2558899149,0.1121165736,0.4084739961,0.4628510873,0.5847614431,1.0462822939,1.5358027418,1.0434026983,-0.3697362547,-1.6405093087,-0.6253862905,-0.2756167275,-0.2416641176,-0.1593739816,-0.1037103866,-0.3456875708,-0.2679272753,0.0373300764,0.6179099758,0.225589793,0.1610071771,0.1200968549,0.0176787096,-0.0099330788,0.0014459027,0.0967376398,0.114451868,0.2419228,0.4480580289,0.7299977989,0.7411746464,1.0403202853,1.2273098503,1.3121496746,0.9820287425,-0.0105127269,-1.3118966801,-1.2536936473,-0.7700354893,-0.8699855536,-0.3230820033,0.0312165481,-0.0204444651,-0.2224944139,-0.1300839264,0.146209418,0.4419083981,0.1777517017,0.0242011986,-0.0197814532,-0.0012083903,-0.0305191943,0.0424535527,-0.0290246073,0.0488842979,0.010912822,0.1916751683,0.5558025622,0.6574648486,1.1444198765,1.1282085838,0.6506880877,0.371384609,-0.5092448782,-0.7358483201,-0.8463421713,-1.0184389105,-1.0013915686,-0.54155593,-0.2680006556,0.0101388284,-0.1214877139,0.1799965133,0.4646487238,0.3515783866,0.0679424323,0.0472690315,0.000586719,0.0233214738,-0.050888417,-0.0338154033,0.0637915028,0.0126227923,-0.0374100155,0.0507800766,0.6298941995,0.5095567453,0.5897127178,0.6358592222,0.1566356384,-0.1041538431,-0.4609768042,-0.4691179571,-0.5915518794,-1.0868522191,-1.0489418811,-0.6166063606,-0.0108121402,0.0061259462,0.0897003929,0.2648383097,0.3598396567,0.0333665429,-0.0457919512,-0.0337935926,0.0782019701,-0.0593961314,-0.0966456914,-0.0570437291,0.0049313822,-0.1026070225,0.0993906409,0.1649721451,0.4774259053,0.4293335212,0.176156533,-0.1873103002,-0.4477243045,-0.3491742667,-0.6183138211,-0.1774460373,-0.1818484411,-0.1160763839,-0.0227588997,-0.2432448215,-0.0109401951,-0.0059672759,-0.2229567026,-0.020886367,0.0160723536,0.0589890254,-0.0193557532,0.0305220147,-0.0489590512,-0.031130469,0.0979391506,0.0416474055,0.0400173327,0.0267698953,-0.0895010637,-0.0326212932,0.0215411309,-0.3511364001,-0.3563703677,-0.6140188484,-0.843481423,-0.5145816322,-0.1234501013,0.2766038692,0.421292176,0.4078000999,0.521781551,-0.0422234,-0.11415756,-0.1307637501,-0.3170598709,-0.1389612328,-0.165527429,-0.1595413832,0.0638358227,0.0106230917,0.0443082002,0.0219517709,0.010759913,0.0486202423,0.0453217526,0.0397996025,-0.0074901937,-0.1453248386,-0.1489848122,-0.2986969679,-0.4662208511,-0.5910337252,-0.5315201708,-0.2029153756,-0.0628946458,0.1953378531,0.319862401,0.4567095966,0.2166986517,0.1131157337,-0.2162758255,-0.3030629803,-0.1816461214,-0.1795052573,-0.0475105253,-0.1551307598,0.075574595,0.0146400543,0.0919166344,-0.0460600722,0.0085989226,-0.0186355233,-0.0379221866,0.029176914,0.0267712091,-0.1217250093,-0.156936347,-0.1841688716,-0.2067098,-0.1860807285,-0.1995008819,-0.2085708067,-0.222291933,-0.092240867,-0.0591845029,-0.0711280053,-0.1817201972,-0.0724493748,-0.0308525675,-0.0714958272,-0.1480242174,-0.0937570079,-0.0859624194,0.0879308642,-0.0140832714,-0.008108834,-0.0233088877,0.0666099578,0.0053716072,0.0864898944,-0.0483272608,0.0734739566,-0.0450140163,-0.0127064148,-0.0008844814,-0.071392507,0.0648891379,0.029579998,-0.0737501392,-0.017622559,0.0146157949,-0.0061492868,0.0399395452,-0.0824876103,0.0577371407,-0.0418898883,-0.0900812707,0.0017166762,0.007926692,0.0537123209,0.0198082377,-0.0144273838,-0.0260577508,-0.00656206,0.0696844872,0.0502151994
-0.0376981554,-0.0472086129,-0.0218921714,-0.0319022912,-0.0188690991,-0.0255481477,-0.0844520256,-0.0002320735,-0.0057700582,0.0086733041,0.0328072552,0.0733664924,0.0492540298,-0.050473355,-0.0494150505,0.0322131868,-0.0960239607,-0.0002720982,-0.0076022554,-0.082883382,0.0642130315,0.0275783618,-0.0467630591,0.0709583513,-0.0302427364,0.0506183149,0.1118961844,-0.0282730144,0.0386139453,-0.0421112947,0.0343628018,-0.0500522412,-0.0783160984,0.0578785271,-0.0322765177,0.0270696614,0.0379092986,0.0054857193,0.0266113123,0.0383456717,0.0468843064,0.0439846759,0.0821672037,0.0060920995,-0.0050194598,-0.0233005088,-0.052036278,-0.0474366552,0.0468297357,-0.0219171993,0.0452779841,0.1180908979,-0.0273215971,-0.1119699343,-0.0149963911,-0.0380011775,-0.0478928344,0.1134958441,0.0361304004,0.080302359,-0.0103440132,-0.0398180356,-0.0351919238,0.0137850995,0.052091507,-0.0121926041,0.0953892471,-0.0275813416,-0.0788267457,-0.109208789,-0.0644784158,0.0289633729,0.0504760984,0.0955015953,0.0689612986,0.0444991585,0.0749061204,0.0691235323,0.0391248461,-0.028547637,-0.0754429359,0.0441668951,-0.059459275,-0.0502936284,0.019665952,0.0437836374,0.0815067379,0.0971696242,-0.0593691041,-0.0775038717,-0.0160934998,-0.0562749588,0.0271966915,-0.0381999778,0.0306657433,-0.098216355,0.047717417,-0.027794411,0.022535119,0.0547443638,0.092187485,0.0233668119,-0.0075963561,0.0640107329,-0.0358424089,-0.0646889499,-0.1937586466,0.0439328468,-0.0133787348,-0.0220930378,0.000415773,0.0121311191,0.100420942,-0.0261103877,-0.0149311799,0.0797416332,-0.0036680222,0.0149409945,0.0989948069,0.0172684774,0.1780706691,0.2357813984,0.1916181296,0.5529927074,0.2540706891,-0.0895174699,-0.2522185906,-0.0330539657,0.061229015,0.0092920019,-0.165235332,-0.1346307066,-0.2283025004,0.2101417716,0.2107756187,0.226032823,0.1629432185,0.1024632172,0.1266875816,-0.0245742317,-0.0322441869,-0.0519642724,0.0164120663,0.0001820424,0.0395804066,0.1404906031,0.2096133077,0.29813583,0.2417692404,0.3386531587,0.5485750643,0.5370843268,-0.0031817327,-0.2685436147,-0.4381391689,-0.428781445,-0.2090088719,0.1869402892,-0.052737183,-0.1092515688,0.3536333006,0.3510247958,0.4206243873,0.3248426102,0.1959009456,0.0251040635,0.0743006842,-0.0423978043,-0.0456915478,0.0422055685,0.0107603137,-0.0693332854,0.154872268,0.2409202384,0.3246422574,0.3052212468,0.360647586,0.6527257335,0.6592223914,0.6439448913,0.1495520733,0.1429018032,-0.0817489692,-0.4458117148,-0.2525904589,-0.1869354213,-0.1783983194,-0.1679668667,0.2353879275,0.1897375434,0.0925199964,0.1832170651,0.2738450174,0.1124414884,-0.0294815437,0.0020961565,-0.0048146439,-0.0452158941,0.0583821599,0.0264170918,0.068143011,0.2249271164,0.2352872241,0.2063027133,0.1532473848,0.0599006717,0.2854328375,0.2822934617,0.092449772,-0.099767511,-0.402321675,-0.3345838786,-0.1784959156,-0.0209211682,-0.1416679604,-0.0431676435,0.0337482388,-0.03936625,0.0030970529,-0.0431094247,0.026536079,0.2996842545,0.028348588,-0.0010791245,0.0126560999,0.0001652701,-0.121972561,-0.0248764159,-0.0635318028,-0.1430303259,0.1259627623,-0.0961209636,-0.0993245034,-0.038780552,0.076603178,0.2073695634,0.3515052852,-0.1745952336,-0.2493985923,-0.4652213144,-0.5321235696,-0.4239965815,-0.4347359321,-0.7287302865,-0.350826848,-0.4598863284,-0.4073222637,-0.0889364968,0.1329220284,0.3536156468,0.0535993166,0.0314649572,-0.0104509693,-0.0174440106,-0.1264249717,-0.101320103,-0.0398193861,-0.1881386513,-0.0924784422,0.1026132919,0.1650104496,-0.2592067994,-0.1697704337,-0.0309852743,0.4582168494,0.4989228609,0.0650768735,-0.3777942429,-0.8207845131,-0.8535445422,-1.266612836,-1.233108184,-0.8104274473,-0.6640781617,-0.6193518531,-0.5353852197,-0.1163595809,0.1174374825,0.0025644988,0.0180121077,-0.0024788095,-0.0861604889,-0.0265756122,0.0155201148,0.0674229639,-0.1807678484,-0.0409790827,0.1888935952,0.0265499497,-0.1362303456,-0.0971276057,0.459717328,0.9662938181,0.9961314567,0.4795134687,-0.0614099399,-0.8149557616,-1.1707319767,-1.3452063161,-1.4265442596,-0.8894189918,-1.0180337075,-1.0953594183,-0.8200014872,-0.4519437674,-0.0273885559,0.0507692869,-0.0379800123,0.0066783031,-0.0911126843,-0.1822340794,0.0321604446,0.0717752729,-0.2463760319,0.0528597961,0.117993637,-0.0870472621,0.0493705129,0.5087387395,1.1113435277,1.1571935028,0.3620201402,0.1820642849,0.1868662355,-0.5293532942,-0.3271023321,-0.3504443402,-0.7554401253,-0.4537666421,-0.5379242522,-0.8191353296,-0.9736745265,-0.5262635542,-0.0786232021,-0.0018859078,-0.0398658754,-0.0134749611,0.0055474982,-0.0616726691,0.0153632317,0.0678187952,-0.1051226097,0.0026556529,-0.0826317052,-0.1181646352,0.1281990748,0.5631576119,0.6628554049,0.5234955359,0.0597718869,-0.0739927633,-0.0973953151,-0.1526209084,-0.0951586917,0.088193402,0.1595004515,-0.0363833865,-0.2158456654,-0.5802439404,-0.5802262427,-0.5837366464,-0.1865957137,-0.0320869152,0.0144091704,0.0158940252,-0.087178769,-0.0142570236,0.0528730043,0.0838019592,0.0629649186,-0.0959847555,-0.1885130968,-0.0177850154,0.2636931723,0.2542620125,0.1834309852,-0.0148011329,-0.266897274,-0.2720765211,-0.219172438,-0.1071286624,0.0277101537,0.0599238026,0.2806991448,-0.0601215507,0.0303136025,-0.2326401769,-0.5060355268,-0.5046879167,-0.0892357372,-0.0433553031,0.0141182563,-0.0745976639,-0.0670545568,0.0408866435,-0.1246061607,-0.0126038659,-0.1585133635,-0.2384335179,-0.5149841273,0.0043472639,-0.1791129566,-0.1210636584,-0.4283759692,-0.2208655869,-0.423907088,-0.0346837616,0.2785410913,-0.2712054607,-0.0882642945,0.0149079433,0.1609946985,0.2056606589,0.2270972234,0.0243287752,0.0535823069,-0.2405013473,-0.1956983943,0.0386619367,-0.0773530558,-0.0140957206,0.0793413975,-0.0547427411,-0.1363161853,-0.2851720668,-0.4194719424,-0.8225037254,-1.1764567007,-1.2194799545,-0.8869785643,-0.3656593867,-0.4101956229,0.0723791313,-0.1327431734,-0.0803870146,-0.0317074071,-0.3115107337,-0.2762548047,-0.2795556934,0.2136861685,0.2554652569,0.2960739826,0.1564414442,0.2785323715,-0.1864869553,-0.1389404196,-0.0537441182,-0.0436106471,-0.0419917514,-0.0479752492,0.0184945066,-0.0465747679,-0.2334715292,-0.5479563089,-1.3083436951,-1.6507835547,-2.1047029784,-1.9579461416,-1.09967075,-0.7069743489,-0.1671702696,-0.1289451346,-0.2437481021,-0.3176477207,-0.3012637718,-0.3488483135,-0.2926730222,0.0336360578,-0.1290636406,0.0521176061,0.2125748095,0.2492035501,-0.1700099919,-0.3056080806,-0.0853214484,0.0671080389,-0.0090300907,0.0026277595,-0.0329769559,0.0023355464,-0.1795624603,-0.5424917116,-1.0201191855,-1.3032103898,-1.962391147,-2.2834049283,-2.1043452217,-1.7421430415,-1.6112237099,-1.092189447,-0.9453345839,-0.6797660182,-0.0385861995,-0.0731594606,-0.4093091255,-0.2152796515,0.0608859867,0.1476995236,0.1889599513,0.140323947,-0.2748968335,-0.1608256152,-0.0309295841,0.007439164,0.0140583072,0.0444060925,0.041842582,0.1043206691,-0.072777962,-0.5349173717,-0.3068991225,-0.1681382622,-0.8780549704,-1.7289400693,-2.1499292636,-1.6642466274,-1.6937482213,-1.5776688391,-1.1945448709,-0.5067395955,-0.0462597931,0.1617105537,-0.3937582972,-0.2616303839,0.4694276017,0.3543491782,0.0321285905,-0.0349831333,-0.1479318976,0.0627331393,0.011994177,0.0046819116,0.0468881733,0.0188340071,0.0843393593,0.1026786911,-0.0608286003,-0.2311005806,-0.0592981438,0.4707451967,0.4049313073,-0.2857202091,-0.5173500016,-0.782767663,-0.6638103573,-0.6623279932,-0.6241150688,-0.2323526811,-0.0460620844,0.0206540919,0.1545030308,0.350744743,0.6428804162,0.0100924304,0.0598885016,0.2638617541,-0.0550185615,0.0139086077,-0.0331862498,0.0086800435,-0.0709646298,-0.0203675347,-0.0300552957,0.0626146551,0.0198661256,-0.2129586487,0.1894784896,0.4450319356,0.8537828924,0.4187038514,0.7058900263,0.6181077241,0.0488855227,-0.1907144447,-0.1295820394,-0.0274765719,0.1881095066,0.444867279,0.4564277314,0.4161050519,0.2600763602,-0.0674406368,0.4740234276,0.175187582,-0.0391365453,0.0029281393,0.0019179681,0.0014886608,0.0260459093,0.0086231028,-0.0376598871,0.0121147198,0.21988581,0.0244212809,0.0732395383,0.3093388821,0.3099537132,0.2519484533,0.6790098148,0.4862115362,0.4939637843,0.4499908263,0.5530678399,0.3347107,0.3268500717,0.3454811815,0.2253614822,0.3275346103,0.2005509424,0.2999214712,0.4723531343,0.0898339934,-0.0002630126,-0.0263822459,-0.0355794316,0.0473712231,-0.0649766514,-0.0535647017,-0.0121688553,0.0221580538,0.1260170025,0.1634053636,0.0040754926,-0.2876272072,-0.1341689358,-0.0305283321,0.3084370426,0.1238043507,0.0519932946,0.2527725644,0.2154686988,0.1363720174,0.1843158397,0.0295301776,0.014267052,0.3374789901,0.2608627768,0.0017839158,0.2048319005,0.0252821308,-0.018650358,-0.0287476136,-0.0089506687,-0.0331103305,0.0474931387,-0.1070745509,-0.0407086303,0.0625443244,-0.0276718839,-0.042622968,0.0925983039,-0.2417350484,-0.189820627,-0.0254026475,0.2864819498,0.290060953,0.0176313176,0.1028973013,0.0709917668,0.1250712504,0.1070913128,-0.0604117061,-0.0285216524,-0.0327034209,-0.0238886586,-0.1461381722,-0.1365171157,-0.1287099781,-0.103888319,-0.0137358704,0.0162679438,0.0131886002,0.0088565525,-0.0091468752,-0.0670075238,-0.0382326943,0.0964022506,-0.0399905097,0.0105601197,0.0987631298,0.1261198402,-0.0608781953,0.0939089928,0.1508364071,0.1745968998,-0.0572868219,0.0194815834,-0.0662992625,-0.1354561925,-0.1720811355,-0.0667646177,-0.1909192318,-0.1824511439,0.0091373483,-0.0495437899,-0.1009553663,-0.0741260283,-0.0194034933,-0.0709229326,-0.0007320295,0.040032923,0.0218812354,0.0143039333,0.1146056977,0.0646749456,0.0341974015,0.0047624202,-0.0065035712,0.0145142786,0.0094715518,0.0736217957,0.157886692,0.2515028942,0.1185126126,-0.0414250672,-0.0116584354,0.0081747217,-0.0747306213,-0.00066454,-0.0477714508,-0.0185449429,0.0388817098,-0.0170016162,0.0860985535,0.0409536013,0.0545132658,0.0119886381,-0.030587791,0.0093856042,-0.0151391268,-0.0090389629,0.0520926639,0.0592087505,-0.0323695581,0.0554431912,-0.1063486495,-0.0191593462,0.0917580786,0.0242548191,-0.0843079616,-0.1554214848,-0.11544414,-0.1881266903,-0.1557674296,-0.049526594,-0.0821143967,0.0007257216,0.1077103055,0.0300399047,-0.0181796165,-0.0068743319,0.0092607117,0.0004076617,-0.0500109515,0.0007933438,-0.0028419924,-0.0641413894,0.0383590943,0.0794020519,-0.0382322605,-0.0047641627,0.0375188452,0.0413514675,-0.001882215,0.0454621597,0.025822288,-0.0594584583,-0.0581258869,-0.0282051534,-0.0336673649,0.0108850953,-0.0314418865,0.0137224584,-0.0746340995,0.0615525095,-0.019306506,-0.0070536487,-0.0250414268,0.0212762666,0.0880433586,-0.0592882822,-0.0161589682,-0.0061738983,-0.0434594103
-0.0053393139,-0.0322109783,-0.0891392769,0.046339844,-0.0215659066,0.0446839032,0.0370169826,-0.0381157722,0.0294675807,0.0539210593,-0.1084182929,-0.0164920485,0.0489752035,-0.0644012913,-0.0005146858,-0.0493180223,-0.0146724933,0.0088344083,-0.0362009889,-0.0085862679,0.0104332756,0.0511102003,0.016528838,-0.0073424804,0.0647073826,-0.0680232343,-0.042714621,-0.0490045395,-0.1285327902,-0.0138664166,-0.0544074936,-0.0441644887,-0.0075267324,-0.0123389048,0.0154855977,-0.0446402441,-0.0236135614,-0.0147570327,0.0457855934,0.0062802999,-0.029122342,-0.0667681081,-0.0239718067,0.0653749784,0.024038589,-0.0661633013,0.0162149029,0.0369884733,-0.0086530781,-0.0427189517,0.0053135472,0.0119632151,-0.0196750695,0.0871249239,0.0167018125,0.0044187317,-0.1402920634,0.0170208949,0.0167012306,-0.0673324991,-0.0423116189,0.0088568402,-0.0521783846,0.0772148329,-0.0156368986,-0.1010423653,-0.0620190284,0.0012672783,0.0404542268,-0.1407034806,-0.0542200266,0.0006968875,-0.101277378,0.0350725129,0.095352741,-0.0248281117,-0.0324225538,-0.0235681737,-0.0101813048,-0.0003749813,-0.0289946506,-0.0534117622,-0.0579024689,-0.0755602648,-0.0937010847,-0.0839347118,-0.0010845224,0.014164034,0.022185317,-0.0761106714,0.0376863372,-0.0206565119,-0.0656593587,-0.087665713,-0.1592215719,-0.0662898299,-0.1587299136,-0.2016654759,-0.0821636771,-0.2191655381,-0.0525151853,-0.0850208032,-0.0456117711,-0.0563384398,-0.0977810872,0.0396152259,0.0272032215,-0.0626536606,0.0238888635,0.0984126718,0.0182692528,0.0128736329,-0.0130441086,0.1130101338,-0.0621530712,-0.0609362247,-0.0068568176,-0.0011826459,0.0929033036,-0.1334873166,-0.1333460858,-0.0050901243,-0.1280763245,-0.1028397851,-0.1462900155,-0.3717955998,-0.5259741128,-0.4009348844,-0.3962163024,-0.3973419834,-0.3042613849,-0.3006849675,-0.1947818979,-0.1272512983,-0.117426584,-0.0225858831,0.0124386566,-0.0201585566,0.0796260076,0.0347413279,-0.0062361504,-0.1005041322,0.0025767817,-0.0149839476,-0.0562086975,0.0912044034,0.1660400846,0.0427240539,-0.1108050715,-0.1469898411,0.0421834866,0.1667801183,0.1435960928,0.022774791,-0.0851301748,-0.3278997281,-0.6264718356,-0.877354635,-0.7800111933,-0.609143764,-0.3950318604,-0.2730811961,-0.1140644745,-0.1143530065,-0.0587417235,-0.0189223589,-0.0132620435,0.0501367634,-0.0483859931,0.0128992643,-0.0614729639,0.0412371445,0.0065295129,0.1223440026,0.4670364273,0.5429284913,0.3138667706,0.2715639562,0.6929098887,0.5427793724,0.5933296696,0.0086960018,-0.3340185919,-0.3314754292,-0.5951988997,-0.9117301366,-0.4678300975,0.1003005121,0.0384304684,-0.0103910165,-0.0730198236,-0.1924607641,-0.1176264355,-0.0126550162,0.0166703441,0.0150425147,0.0055761988,0.0390907815,-0.0223182094,0.0737870859,0.0200759693,0.2317352388,0.676517429,0.6831797103,0.6990490959,1.1000497885,0.9512687181,0.5145209376,0.554374922,0.0532740014,-0.1835101119,-0.090478418,0.0626786754,0.2315360807,0.2273638953,0.4001156234,0.6334208825,0.296947373,0.1674780357,-0.2128309218,-0.2393762971,-0.0782356102,-0.0706501529,0.10691607,0.0132203486,0.0798002944,0.0632420314,-0.0365859293,-0.1419302956,0.1859724766,0.6084814832,1.0530865243,0.9808306263,0.8333573131,0.5530360203,0.4167682409,0.5639603349,0.3557443129,0.9591860813,0.6363499291,0.4397415066,0.0133788172,-0.2256861474,0.2918781561,0.3522027059,0.0548852169,0.0711503963,0.0207324145,-0.1101502789,-0.1232659776,-0.094454225,-0.0737723311,0.0184094117,0.0165095147,-0.0163491631,-0.0359324937,-0.1103208975,0.1362755505,0.1329661899,0.476037562,0.1228725374,-0.0594747599,-0.1085429148,-0.0567972729,0.3441955264,0.2741194703,0.9051828071,0.3361758581,0.260975294,0.1289788465,-0.5284017051,-0.3904410115,-0.128018462,-0.1866065131,-0.0090703422,-0.0340573166,-0.2138020337,-0.064871027,-0.0150296216,-0.0297875458,-0.0101277872,-0.0694206351,-0.036531699,-0.1505427851,0.0170645798,0.0396311023,-0.2678455998,-0.2657331741,-0.371702077,-0.4985054753,-0.3473838613,-0.5325280657,-0.7425032379,-0.8260455233,-0.7487766025,-0.5289213852,-0.2125362532,0.207235964,-0.4255833192,-0.431863706,-0.3232037332,-0.0409020027,-0.2228695465,-0.142086069,-0.1194688474,-0.0409143952,-0.0381836773,0.0202196341,0.0019785262,0.0633068799,0.0113890125,-0.1328222153,-0.2195961081,-0.3363361465,-0.4612263177,-0.3821138702,-0.5189123008,-0.6153803906,-0.6929921557,-0.8753305214,-1.5349891818,-1.7846226753,-1.3675273256,-0.7630937499,-0.0749473234,0.454912549,-0.3270440463,-0.5259793322,-0.4339606058,-0.3103939569,-0.2125031864,-0.1206185734,-0.1507681259,-0.0265013164,0.0109173662,-0.0141279536,0.0324176291,-0.0010884374,-0.0521358754,0.0032786998,-0.2358056773,-0.4733070549,-0.562671052,-0.4124262525,-0.1757165803,-0.654637424,-1.3860023054,-1.5362696366,-1.5546156122,-1.7982759079,-1.5743339218,-0.6090218071,0.017009696,0.1591418098,-0.2339470881,-0.9604611474,-0.6001841163,-0.3916711987,-0.3369337522,-0.2767896413,-0.0107087649,0.0065768725,0.0585813971,-0.0243312071,0.0498225372,0.0513081755,0.0773418788,-0.1451979002,-0.3357764495,-0.5720060431,-0.6789519008,-0.6579183461,-0.4589388677,-0.8031348001,-1.1789534351,-1.117901333,-1.0282419256,-1.0881213418,-1.0030382828,-0.3416247793,-0.0200119899,-0.004353232,-0.5799515172,-0.8933306784,-0.6510690249,-0.349073736,-0.179174469,-0.0212559079,0.0356878792,-0.0085515113,0.0046219189,-0.0066792379,-0.0590658975,-0.0012966293,0.0242667931,-0.0488204384,-0.2774053686,-0.4357188379,-0.6872335731,-0.9235789973,-0.8743002183,-1.0605816489,-1.0765298048,-0.8758222248,-0.7081583212,-0.787818822,-0.7519919121,-0.2243700309,0.1878931418,0.2435127654,0.2432113135,0.2589818865,-0.1663056755,0.1253854723,0.2510794879,0.1109406567,-0.0746832468,0.08007441,0.0276629074,-0.0638778896,0.0242131185,0.0359914793,-0.0154568502,-0.0864757199,-0.2343663105,-0.3050908467,-0.6110265676,-0.9787762184,-1.0291349029,-0.7983223793,-0.7166077144,-0.4720380395,-0.46653272,-0.5513358085,-0.4061347219,0.0555048447,0.2097271447,0.3983889324,0.6039092987,0.311848105,0.296205419,0.3214295707,0.2780311554,0.1311952459,0.1513873146,-0.039221043,-0.0072839849,-0.0551728473,0.078183745,0.0898371398,0.0147523576,-0.1572957749,-0.2454392552,-0.2123844782,-0.2952651451,-0.5602405005,-0.6259862194,-0.3301953646,-0.4409979748,-0.5988887623,-0.3602315976,-0.2984029187,0.1924213488,0.1705276195,0.5792638966,0.1034835819,0.3462817309,0.4049135273,0.2383050104,0.3170379914,0.3355023741,0.1766631227,0.0967355767,-0.0208047744,-0.0445001783,-0.016072301,0.0287350809,0.0387093454,-0.0092076025,-0.0998391332,-0.1432821758,-0.2168708119,-0.2378677865,-0.3083028045,-0.3449497518,-0.0998367297,-0.1493213725,-0.3439004227,-0.0694555488,0.09118016,0.4337222519,0.6116434049,0.0738531515,-0.3805201304,0.0093218571,-0.1070118565,-0.0836927992,-0.0592198987,-0.0048435076,0.1506447666,0.0881999292,-0.0298083517,-0.0059235357,0.0638212268,-0.0459809947,0.0052489362,-0.0454602341,0.0719137804,-0.157777483,-0.257800523,-0.4748051039,-0.4757340861,-0.3279075829,-0.1839478957,-0.1346189025,-0.0914310701,0.3397291551,1.0446818253,0.4647926671,0.1433921684,-0.503472055,-0.4726755209,-0.5418525078,-0.5091221303,-0.6935026337,-0.6240461743,-0.4461337779,-0.2005700573,-0.0570318917,-0.0686433028,-0.0077676233,-0.011377787,-0.0923671379,-0.0102638577,-0.0280584802,-0.0431731582,-0.0807069991,-0.2331658805,-0.4048867915,-0.3946139569,-0.3460884488,-0.2352087912,-0.0032453304,0.0803827379,0.4639801742,1.0281075991,0.3728695689,0.2416847006,-0.1765437577,-0.9420737556,-1.2245595559,-0.9602992838,-0.7661983916,-0.6918215798,-0.4813509395,-0.2660355836,-0.1506619778,0.0444478461,-0.0448938541,-0.0217749659,0.0179572966,0.1165742277,-0.1154387692,-0.0019942949,-0.0441162755,-0.2126296463,-0.2964348181,-0.3941747083,-0.4960521112,-0.4041759575,-0.0802428176,-0.1631278204,0.4603481254,0.6653400765,0.6094819263,0.3728642656,-0.2089202944,-0.8181768694,-1.2676091645,-0.8830348205,-0.6684908834,-0.5141468677,-0.4524533932,-0.3962800824,-0.1762641876,-0.1525340187,0.0675558335,-0.0479375389,-0.0881656344,0.0896724925,0.0221389961,-0.1694981768,-0.1335342905,-0.1865777122,-0.2146446896,-0.4615399792,-0.4280172293,-0.3357169009,-0.1901433194,-0.0373158029,0.1189859506,0.1918576477,0.3695385252,0.2810911661,-0.194141911,-0.5320553492,-0.7805085082,-0.4833813775,-0.3162986714,-0.4166378584,-0.4030191198,-0.2157457756,-0.1105646113,0.1025044565,0.0000111474,0.0558722845,0.013577184,0.0447557512,-0.0500840518,-0.0387266884,-0.1729596664,-0.0970632372,-0.1957930968,-0.0844462884,-0.2691679102,-0.1244855675,0.0645857426,-0.1169994665,-0.2893393561,-0.2656909177,0.1355880497,0.1460393478,-0.0452372713,-0.0392180423,-0.3752186829,-0.0786136194,-0.1892212983,-0.2718444387,-0.2957312883,-0.1582304579,-0.0201888563,-0.0293186925,0.0075212035,-0.0451356079,-0.014253129,0.0105283728,0.0675124915,-0.1125267562,-0.0596920253,-0.0062844084,0.2020901101,0.3306590445,-0.1279159415,-0.1547413281,-0.3941377052,-0.4209125466,-0.2936066634,-0.3471714561,-0.2028487859,0.0589623281,0.146617623,0.0426238547,-0.3268240134,-0.0702300753,-0.2334746456,-0.2802351108,-0.2728438048,-0.2955357824,0.0197702712,0.0600691044,0.0099485554,0.0040567786,-0.0248509882,0.0423131712,0.0507348349,-0.0333103056,0.0945864848,-0.0019012523,0.1674592011,0.2505572311,0.1342434225,-0.0431602504,-0.5710516256,-0.2404954153,-0.2015221133,-0.1690767645,0.0177696531,-0.1870664813,0.0642657115,0.1245549917,-0.3892287882,-0.1903961416,-0.302451702,-0.2818871456,-0.2608355562,-0.2264890737,-0.0410051839,-0.0860948528,0.0199916792,-0.0091382107,0.0196619019,-0.0409317289,0.0315617298,0.0444310139,0.1365854106,0.1113512994,0.0808527615,0.4002486605,0.399878274,0.3112797889,-0.0821599808,0.1025342134,0.1353980159,0.2035429023,-0.1916279064,-0.2789700008,0.0331887121,0.058763867,-0.1151799239,-0.0715337014,-0.2426020608,-0.1403468046,-0.0632646721,-0.06541395,-0.0245369681,-0.074886533,-0.022573262,0.0049341454,-0.1159375729,0.0565736729,0.0484710628,-0.0387225008,0.0572577614,0.0611707705,0.098082434,0.012983116,0.083513267,0.2231980467,0.0775988145,-0.1636004274,-0.3103170411,-0.3143703001,-0.3659651427,-0.332580195,-0.1041573315,-0.0524321214,-0.0386668513,0.0376776196,-0.1287103195,-0.1875697791,-0.0179426325,0.0346623992,-0.0428688613,-0.0235177791,0.0108260844,-0.0329124496,-0.0144476671,-0.0346159218,-0.0517961555,-0.012437543,-0.0270975101,-0.0265997071,0.0260490455,0.0437724832,0.0390846922,0.0547422106,0.0275296629,-0.1200364889,-0.0779805341,0.0020612131,0.040784768,-0.0734166467,-0.0064262027,0.0363863888,-0.0831468846,-0.004168412,0.0149836682,-0.0483590733,-0.0274557484,0.0129176085,-0.0492823072,0.0151228384,-0.0322989807,0.001534255
-0.0123046173,-0.0351321307,0.0175232073,0.0270535125,-0.0593054899,0.0150399546,-0.0597803315,-0.1019926124,-0.0155116757,-0.0250681162,-0.0010219496,0.0103163209,0.0418963259,0.0232688898,-0.018461596,0.0209083405,-0.0045700402,0.0561417285,-0.1137979087,-0.0965450466,-0.0653380843,-0.0052776621,-0.0130968278,-0.0573324432,0.0636124179,-0.0821659194,0.0098405148,0.034465521,0.0001442608,-0.06531693,0.0208104697,0.0265905474,0.0353884777,-0.0874894981,0.0002621966,0.0051247773,0.117092509,-0.0253693187,-0.0299534414,0.0501428662,0.0430723498,0.0159802362,-0.0394524239,0.0520546962,0.0636936024,-0.077592532,0.0476903905,-0.024023524,0.0681155563,-0.0769151962,0.0534396463,-0.0451512245,0.0389239314,0.0030497573,-0.0069772829,0.0213510742,0.0052743041,-0.1272054525,-0.041660574,-0.0921533908,0.0711014502,-0.0191360664,-0.0467695861,-0.0740527291,0.0866048352,-0.059558257,-0.0743507908,-0.0179032936,0.080088702,-0.0057140689,0.0221243835,-0.0444578774,-0.0694481228,-0.1954137691,-0.0492250114,-0.0064251451,-0.0509318956,-0.0934973614,-0.1153899334,-0.044287229,0.0501580489,-0.0027877618,0.0114063051,-0.0226315672,0.0431243099,0.00690216,-0.0475166208,0.0286077318,0.0012763884,0.0361761399,-0.0299127814,-0.0117697137,-0.094598932,-0.0019268344,-0.0197741061,-0.1971361084,-0.157412514,-0.2451809581,-0.1518526028,-0.1381194248,-0.3357420272,-0.4230667999,-0.3446217717,-0.3779011138,-0.2885354341,-0.2062650434,-0.0859162893,-0.0769233032,-0.0343811253,-0.0048330436,-0.0361983557,0.0494344716,0.0410294157,-0.0868260232,0.0470822618,0.0205684352,0.0154762506,-0.050761108,0.023563766,0.0149630826,-0.0617704878,-0.0480192808,-0.3554174247,-0.2837734571,-0.5423299786,-0.2680501862,-0.2977714247,-0.3520630901,-0.5435142372,-0.4018740031,-0.3805506381,-0.518241818,-0.633095277,-0.58858339,-0.431621786,-0.1641275668,-0.0364221763,0.0809965968,-0.0040857665,0.0315796573,0.0255702162,-0.0101440234,-0.033165994,0.0819516886,-0.09566967,-0.1282035384,-0.0530678812,-0.2480110772,-0.2095334989,-0.3802585594,-0.5341908892,-0.5633571508,-0.5754480651,-0.4344781901,-0.4795763746,-0.704215891,-1.0685631787,-1.1666454048,-1.0752783657,-1.1993782287,-0.6534732134,-0.5226722538,-0.5300395012,-0.2105638553,-0.1052993157,-0.0335015145,-0.0650425361,0.0177539351,0.0207210143,0.029111609,-0.1343096633,-0.072157484,-0.095284245,-0.1414900886,-0.2850546285,-0.2267066145,-0.4228718155,-0.4241252554,-0.5909908332,-0.8305466715,-0.9486001147,-1.0133660894,-1.0790062037,-1.0402756105,-0.5265839894,-0.042787944,0.080061457,-0.0640058425,-0.0019578599,0.0410489847,0.0043078469,-0.0179930934,-0.1006562734,-0.1556207317,-0.1180150281,0.0256273256,0.1040383636,-0.0069671491,-0.033963083,-0.1334215299,-0.1184306402,-0.1695895392,-0.263793856,-0.295344897,-0.4832722173,-0.6471972836,-0.8139972936,-1.0484168338,-0.897978966,-0.9151179203,-0.612307658,0.23578581,0.8990027153,0.9800258148,1.3476036434,0.7707934489,0.6544447589,0.6874655681,0.3042489804,0.2072435927,0.0145681094,0.04326086,-0.0698728448,-0.0073263739,-0.1356231534,-0.0907895274,0.0073948306,-0.1219434299,-0.1913536668,-0.3027871704,-0.2979194367,-0.4707713551,-0.5045430913,-0.7783279789,-1.0105667901,-1.0774141399,-0.4690687437,0.0476282381,0.2264663082,0.5332530058,0.741866735,0.3836096607,0.836935359,0.6450489188,0.4289010028,0.4679894,0.5949710358,0.6580486853,0.5331270018,0.068456489,-0.0473373143,-0.0441431646,0.0272823072,0.0514912185,-0.0599581133,-0.1435205322,-0.1924244713,-0.2883043338,-0.3553950685,-0.6052898067,-0.9531395333,-0.9114274333,-0.692442164,-0.2363507046,0.3817517592,0.6077440945,0.5622862769,0.0910791025,-0.388608311,-0.1070616222,0.029907038,0.2651258178,0.063370444,0.2174293649,0.5920342595,0.9497307668,0.7942577007,0.2818238859,-0.0333650766,-0.0963509081,0.0789527502,-0.0430053894,-0.0306886212,-0.131169701,-0.1918168915,-0.3034193087,-0.314132665,-0.653945475,-0.7262687771,-0.4195094306,-0.2461826703,0.6799898,1.0629708528,1.3749753178,1.1424020212,-0.0259023213,-0.1848857943,-0.218042741,-0.3655363584,-0.1220746798,-0.0590397943,0.0484841151,0.5694379831,0.9371155613,0.6734515615,0.3321195789,-0.0218368877,-0.0357634222,0.0016107379,-0.0715536655,-0.140858403,-0.1901068123,-0.1786009891,-0.4689157569,-0.3654672807,-0.2352955783,-0.0584790105,-0.352630939,0.2514407095,0.8733223183,0.9866182581,1.0274038281,0.473841606,-0.0719126572,-0.423301026,-0.368035639,-0.2254809164,0.0480753858,0.4300690888,0.3372310957,0.5425316892,0.5658284515,0.6276784963,0.310589952,0.0210074469,0.0563615676,0.031394036,0.0659644457,-0.1879484096,-0.1876574787,-0.2024258325,-0.3403486626,0.0587369687,0.2241408188,-0.1611828913,-0.0697027212,0.0902825426,0.2344219361,-0.1939145975,0.4307869671,0.0665939854,-0.2510082684,-0.5777544018,-0.1039619545,-0.2801580069,0.1025553169,0.5468756389,0.4721935002,0.2514064495,0.2176015512,0.0970970797,0.1635563048,0.1252242152,-0.0163306682,0.0100478094,0.0293584079,0.0325027591,-0.0715977652,-0.0383029144,0.043655407,0.4424175717,0.0787730604,0.1111479499,0.0381855644,-0.2650648869,-0.3915514521,-0.0702595945,0.2058349361,-0.0036534325,-0.2334957415,-0.2536231521,-0.4801327229,-0.4376883804,-0.0729988458,-0.2458635788,-0.0669159282,0.0948602747,-0.0327813833,-0.0037304428,-0.0449123176,-0.0366241821,0.0625084232,-0.0583771942,-0.0129821256,-0.0302344398,-0.0980427447,0.0517342351,0.123882656,0.2272151404,0.0831345656,-0.2626008873,-0.1057536663,-0.1247766475,-0.1324172535,-0.0539834791,0.0450387437,-0.2479846348,-0.397491596,-0.4988624607,-0.3746059213,-0.5164900448,-0.3177104718,-0.5068652171,-0.2635843137,-0.1546049424,-0.1415411205,0.0539736001,0.0058115776,-0.1062673758,0.0720899805,-0.0710677093,0.0715778084,0.0543730789,-0.0445172657,0.0515257162,0.2109266942,0.2251629668,-0.0493092703,-0.1182693903,-0.0687644235,0.3483535888,0.313306464,0.2106474753,-0.1333705158,-0.467125178,-0.7122597298,-0.4469094568,-0.6786074155,-0.1888866483,-0.4708874055,-0.5258428066,-0.4672739832,-0.3087946658,-0.1834524496,0.0208487596,-0.0491273822,-0.0122545209,0.0268787372,-0.0520064148,-0.024265778,-0.0590741036,-0.2083452085,-0.1898120965,0.1503941704,0.0975974523,0.107680748,0.2756911218,0.3762884766,0.3108725982,0.1719891662,-0.3876712243,-0.9157273003,-1.0338217316,-0.4143030261,-0.1064071573,-0.462908895,-0.3517851377,-0.6699180966,-0.6117826854,-0.683983446,-0.1419437342,0.0007560618,0.0556879395,-0.0434593594,-0.0277186373,0.0019113604,0.0276747834,0.0406454844,-0.0965167256,-0.2533552154,-0.3615004978,0.0922322025,0.4345524605,0.6921349029,0.6998227458,0.7194919612,0.1336956147,-0.4777622178,-1.1759720332,-1.45592593,-0.6810597408,0.1458176053,-0.2653258152,-0.2941068269,-0.4498149169,-0.590754512,-0.6282441112,-0.5474269568,-0.1294521947,-0.1218515895,-0.0327291231,-0.0897858369,-0.0033723908,0.0498124363,-0.0303457055,0.0179119018,-0.1406146578,-0.2575046901,-0.2468267465,0.0903963018,0.4329571097,0.8435429333,0.7733608971,0.1976512274,-0.5406981453,-1.1819497143,-1.5993050112,-0.8223531982,0.1211085362,-0.0024648675,-0.4509759653,-0.2590647166,-0.3152611712,-0.5836549455,-0.6612126597,-0.5397005146,-0.2302169333,-0.1344568425,-0.0414244073,-0.030351018,-0.0583332815,-0.0624798388,-0.0515293764,0.0460967595,-0.0727991937,-0.2917065761,-0.2138718718,-0.2415314511,0.1279585756,0.5345505526,0.6412978582,-0.108793196,-0.6097026153,-0.7044300525,-0.4719231714,-0.1413650496,0.1600669636,-0.3395049036,-0.5115249726,-0.4220726546,-0.3987058497,-0.7524480302,-0.7027093466,-0.2689695882,-0.1006708241,-0.0331991456,-0.0513542419,-0.0320659739,-0.0347382868,-0.0080993838,0.098059077,0.0442405416,-0.0460987622,-0.319953321,-0.2953199448,-0.0252122307,0.1794247546,0.1423268422,0.145592736,0.0846513994,-0.0583067583,-0.1624756804,-0.212217427,0.0612597957,-0.2794528991,-0.5641668483,-0.757105032,-0.5456194673,-0.6210898533,-0.9051321731,-0.6352149334,-0.3856798765,0.0931196206,0.1113501572,-0.0203833545,0.0041705048,-0.0742504598,0.0029561358,0.0004578114,0.0352082655,-0.0350530271,-0.0994842485,-0.1647263848,-0.1661732075,0.0705175971,0.1029978203,-0.0548736215,-0.1005390682,-0.3780777562,-0.0916513576,-0.3412956471,-0.299780989,-0.6899759174,-0.4949432141,-0.7824806533,-0.7530658103,-0.7927924183,-0.6091278021,-0.5557107136,-0.2517489074,-0.0235344832,0.0712207183,0.038173267,0.0393865661,0.0759270409,-0.0310436463,-0.0211691868,0.0194258415,-0.0285471197,0.0463889498,-0.2825604424,-0.1848487114,0.020717692,0.0805387689,0.1520185916,-0.158949439,-0.2675359185,-0.3756235402,-0.1724573883,-0.6608745487,-0.6769682991,-0.8407324097,-0.8112377802,-0.9196053645,-0.7720173828,-0.7248449393,-0.2569514418,-0.202659889,-0.062189227,0.0123127682,0.0303708318,-0.0280862692,-0.0851755918,0.0582685046,0.0413417168,0.0309398577,0.0462174622,-0.0176836112,-0.244436584,-0.4603733255,-0.1370791184,0.0608441293,0.3957877324,0.1356073793,0.1895911489,0.1197161267,-0.0175163051,-0.5405043111,-0.8080682311,-0.4805726373,-0.6882380175,-0.7899945547,-0.6943451074,-0.3898827317,-0.2243444826,-0.1650792396,0.0295027959,0.0125724956,-0.0100821317,0.0598173307,-0.0808862637,0.0665891013,-0.0302548172,0.023708209,0.0431904527,-0.0072294989,-0.1505845636,-0.1237291593,-0.0157828782,-0.069107006,0.0461299882,0.0233299024,0.1739546229,0.1815816908,0.0196061084,-0.1326626158,-0.3765783584,-0.1789988594,-0.3673885522,-0.3161968044,-0.2550329313,-0.0448370718,-0.0714679216,-0.1537585286,-0.0662699092,-0.0029710064,0.1029585919,0.0084304625,-0.0036987133,-0.1205550491,0.031560612,0.0535376326,-0.0208430587,0.058226481,-0.1111599781,0.040138734,0.0705644735,0.2296549882,0.1704847132,0.0905221964,0.2595130808,0.3885402762,0.3392977155,0.2622474177,0.1963060921,0.2003204051,0.3971090528,0.2204602015,-0.0941783275,0.005703561,-0.1207272113,0.0132054459,-0.0457033291,-0.0376230272,0.0153184534,0.0523079578,-0.1093622523,0.001558433,0.0564244245,-0.0670754226,-0.1311825876,-0.020999757,0.006239859,0.0566233868,0.0173343699,0.0240457255,0.0309614616,-0.0109140479,0.1939202034,-0.0239791022,0.2139665472,0.2025005944,0.2492932744,0.1796228227,0.1788600077,0.0657678102,0.1111106829,-0.0144592683,-0.1318334399,0.0551106774,0.1014027095,0.0246843762,0.011939977,0.0214536722,0.0575179035,0.0094391357,0.1021939176,-0.0164878093,-0.0333655066,0.0709887048,0.011380273,-0.0108768275,0.0204580563,0.0986761729,0.0129552287,-0.0783791625,-0.012406934,-0.1264898181,-0.0628212023,0.0542381924,0.0261224471,-0.0240370333,-0.0469490216,0.036862721,-0.0501978714,0.0969960229,0.0969015132,0.0081369063,-0.0264337492,0.0031729618,0.059959105,0.0759154566,0.026003364,-0.0297687228
-0.0805599348,-0.0167848245,-0.0164442179,0.0482987612,0.0614715494,-0.0965370448,-0.0673161358,0.0223261479,-0.0708111251,-0.0497495811,-0.1026812373,-0.0457084219,-0.0183657009,0.0538442691,0.0051884595,-0.0422445168,-0.0092830769,0.0718068814,-0.0449573259,-0.0326698224,0.097797933,-0.0334313535,-0.02218433,0.0525376383,-0.0812626096,0.1378878416,0.0223684003,0.1035116679,0.0311585344,-0.0441436683,-0.0675482278,0.0795330339,0.0360175437,0.0114609623,-0.0567470952,-0.036030181,0.0036842014,-0.0899050692,0.0235876557,-0.046226198,-0.013252535,-0.0144634324,-0.0903899269,-0.052513331,-0.0154275959,0.000432118,0.0328226888,-0.0391380318,-0.0251000892,-0.0135860753,0.0046616971,-0.0256339434,-0.0105884369,-0.0131094677,-0.0295843661,0.0926499063,-0.0040124568,0.0445995027,0.164724851,0.0063348588,-0.0380167866,0.0046647669,-0.0231933224,-0.0096352597,0.0082066262,-0.0771312623,-0.2416051562,-0.1912583788,-0.2506574743,-0.2299548005,-0.1300121321,-0.1498155432,-0.1096718569,-0.000018106,-0.0628421181,-0.0151160811,0.0409998761,0.0136099404,-0.0324301266,-0.0839313176,-0.1109257721,-0.0623214379,0.0705865031,-0.0333865565,0.0391678803,-0.0263224577,0.0517567705,0.0060857707,-0.0259839701,0.0386539045,0.009957262,-0.0260544654,-0.1221181748,-0.1815602976,-0.4203895439,-0.4040366661,-0.3808168652,-0.4577931315,-0.358744708,-0.4442779011,-0.2853554507,-0.2205400948,-0.1534367931,0.0224748255,0.0752352412,0.1728918724,0.0626793248,-0.0001711324,-0.0525751077,-0.0555685953,-0.0147989526,0.0302560952,-0.1106000896,-0.0127097697,-0.0350784754,-0.1022700662,0.108544388,0.084272594,-0.0812748291,-0.0684660007,-0.224129068,-0.5378822173,-0.6615143512,-0.4800341836,-0.3927249953,-0.4645354204,-0.5345773279,-0.5226421869,-0.2589386519,-0.3405283694,-0.4369028135,-0.0334797475,0.1758473789,0.178520275,0.1989757479,0.1036818873,-0.0692926166,0.0008505116,0.007905941,-0.0116970913,0.025846214,0.0333253322,-0.0055430115,-0.0082532408,0.1183869501,0.1479448092,0.0217157127,-0.0510161549,-0.2024128892,-0.273187812,-0.3257391671,-0.1227479776,-0.2713457576,-0.6035597019,-0.8701415472,-1.0297796842,-0.4380886848,-0.039165378,-0.0184621958,0.4185487316,0.3436636807,0.2158319459,0.4320276398,0.4644948134,0.2064690384,0.0022630427,0.0684438913,-0.0411145163,0.0781558328,0.0104099451,-0.0241291588,-0.0012307157,0.1425886399,0.1799433605,0.3556848979,0.2426290857,0.0242828871,-0.2906363605,-0.5984477323,-0.5263824305,-0.4672490557,-0.586124258,-0.9188600833,-1.5051212157,-0.9212879627,-0.0988227997,-0.2464428753,0.1348025839,0.3152496652,0.4008143286,0.5246428088,0.7039524011,0.3577598372,0.0633727529,0.02206737,0.1107291553,0.0903024325,0.0721566568,0.0734034385,-0.0438602052,0.072017475,0.3301708785,0.2822321662,0.4420018826,0.1445861406,-0.4246135407,-0.6897135756,-0.5215136971,-0.6462442518,-0.7614587956,-0.626026391,-1.4137112107,-1.4059411186,-0.7562123976,-0.5451329391,0.0067970548,0.0661230178,0.180201219,0.5924162639,0.8385748793,0.634290894,0.250042221,0.0855908984,0.0221551376,-0.0268710357,0.0007973694,0.0412826995,0.088873377,0.1504427035,0.3572474746,0.361571033,0.6314053821,-0.1744353626,-0.7038163201,-0.5338075233,-0.3565491884,-0.9094730754,-1.1247341488,-1.7413201513,-1.9012187738,-1.4849518306,-0.4770422212,-0.1785184526,0.2071256098,0.3787501632,0.5080147056,0.6416993239,0.6819718394,0.6191132666,0.1881969964,0.0000332167,-0.1308997165,-0.0280065533,0.0046525418,0.0020191586,-0.0712675375,0.0238043263,0.5383157523,0.3759302956,0.3273049138,-0.1287843708,-0.6555433116,-0.2612812894,-0.2239077138,-0.3983741742,-1.2939227373,-2.2460840517,-1.5488651703,0.073637293,0.2239971116,0.69622247,0.5415124861,0.2716030723,0.3710881286,0.3519725567,0.310767074,0.1708862319,0.1970813804,0.0608810006,-0.0120563423,-0.0316313097,-0.0195540798,0.0093270637,0.0623076656,0.0371313148,0.234576792,-0.0500433483,0.0349404053,0.0157666792,-0.0950748184,0.1820854327,0.8453768857,0.3757481161,-0.9838236097,-2.0431790509,-0.8419933889,0.1764923845,0.2731520615,0.3810733535,0.682781288,0.4867630859,0.2854547856,0.0420790759,-0.1005722239,0.0769024684,0.1164698438,0.0267501305,-0.0729060581,-0.0332850239,0.064569425,0.0332193165,-0.0138176664,0.1330849925,-0.0607010383,0.035377329,0.2148740283,0.1667934496,0.4455642307,0.9562766327,1.2641984987,0.4330765691,-1.0777539031,-1.6641158764,-0.6807543858,0.0314728914,-0.1133111786,0.0689791701,0.3738692446,-0.25113323,-0.3137688588,-0.5670510926,-0.4865155789,-0.3245166206,-0.0222636289,0.1304779104,0.0477547597,-0.0116652169,-0.0108948055,0.0294785813,0.0556407101,0.0518909234,-0.3845173107,0.1976043826,0.8935157826,0.5747523022,0.9156487141,1.0645283952,1.1412333364,-0.0319281342,-0.9864593178,-1.3674712327,-0.6327795071,0.2132577007,-0.1322665054,-0.0605349177,0.1613526028,-0.3027504636,-0.3356219668,-0.7358106947,-0.7721045541,-0.4039931067,0.0020948532,0.0938016746,0.0630516928,0.031689485,-0.0360501105,0.0704771535,0.0117452889,0.2109966565,-0.0372307318,0.684742218,1.09205162,1.1381004668,1.114304985,0.9968717904,0.616117005,-0.224915605,-0.9268592469,-1.0179265822,-0.382279249,-0.2248348328,-0.145154281,0.1394282968,0.4160626874,0.4221436687,-0.1883687613,-0.2802922913,-0.5622447058,-0.5360133457,-0.169342094,-0.1154822767,0.0222549818,0.0268972855,-0.051275122,-0.0273190734,0.0407742532,0.2232208187,0.6872636095,0.8151412579,0.7633587808,0.6892709859,0.7441235964,0.6851899703,0.4661863276,-0.2681265707,-0.7857864219,-0.6199946631,-0.5659528816,-0.2264784024,0.1751984966,-0.0852378587,0.7498980886,0.3253196665,0.1005143826,0.0457968993,-0.1967988072,-0.4944236305,-0.2023376713,-0.0727141628,0.000386168,0.0757482964,0.0431108395,0.0140654937,0.028170796,0.0590782682,0.752197087,0.6934789664,0.554749941,0.0521866747,0.1870789084,0.1450141874,0.0410679866,0.1911564687,0.038654691,0.1599065077,-0.1421404574,0.3624521956,0.5227714163,0.116347669,0.701462755,0.3917842767,0.4462454465,0.5762966663,0.1691757839,-0.3130428829,-0.0964259899,-0.1018155656,0.0484251288,0.069000317,-0.001481729,0.0247629801,0.0677272847,-0.0403277415,0.181520448,0.5443686205,0.3427800931,0.0423872801,-0.0818245806,-0.1732759566,-0.250326463,0.134648958,0.1548693999,0.2031540162,0.2215409383,0.2740158523,0.2434708281,0.4695111975,0.268643846,0.1898885154,0.7192271941,0.2452688198,-0.1743784282,-0.2244656906,-0.1707398863,-0.0668409075,-0.0556275628,-0.0448853542,-0.0168130635,0.0172720469,0.1176100059,0.0615206322,0.0058748979,0.1663994928,0.2034726912,-0.1918766299,-0.4023127397,-0.3891613935,-0.6103573691,-0.3861232559,0.4143089285,0.6224190654,-0.0217960781,0.3720009499,0.1475215345,0.5332066764,-0.3402673592,-0.0777768645,0.2513324552,0.0048026142,-0.2798352534,-0.2360939755,-0.0772252356,-0.0756186247,-0.0010195668,-0.0753384646,-0.0073952101,0.0051665182,0.0513489528,-0.0560619077,-0.2589220335,0.0731025316,0.09350007,-0.4123941725,-0.2972417197,-0.5141265776,-0.5694136373,-0.2548085441,0.2579692371,0.1486806803,-0.0606180291,-0.0569424299,-0.6476027985,-0.2722948622,-0.3228772451,0.0740579435,0.0151018459,-0.5482554327,-0.4358566721,-0.308899339,-0.1649947275,-0.0233982799,-0.0951412671,0.0868317226,-0.0197905828,-0.0903176671,-0.0370515764,-0.2239978734,-0.3880762283,-0.3432655461,-0.339588501,-0.8209705987,-0.8749477888,-0.9067648257,-1.0791392193,-0.8823858353,-0.3476976944,-0.3458126631,-0.5741666121,-0.6855375835,-0.6023604234,-0.106636779,-0.1638260297,0.0040914913,-0.1906067617,-0.4852073672,-0.3072788436,-0.1108756289,0.0392316377,0.0251005467,-0.0091449396,-0.1147737121,0.0332481514,0.0502613887,-0.0312367752,-0.2101168547,-0.706659559,-0.7712952475,-0.7515474898,-0.9003415198,-0.9729303066,-0.9116730285,-0.7852216987,-0.2589162404,-0.3501454757,-0.6616974885,-0.9201209323,-0.6647235432,-0.1509793567,-0.0492176433,-0.100888667,-0.1387164469,-0.2249710879,-0.1631136081,-0.1420510733,-0.2180080481,-0.0660831371,0.0560292019,0.0306588476,0.0712031042,0.0055368751,0.0248207333,-0.0253877129,-0.2102235684,-0.4706062553,-0.7677582189,-0.7640787221,-0.6091214007,-0.6911256043,-0.5591082755,-0.0973816076,-0.0842218616,-0.3658460371,-0.6162941188,-0.725177992,-0.320654616,-0.2963913218,-0.0399354502,0.1486580374,-0.0449857462,-0.0028691962,0.1262561392,0.03737918,-0.0848600741,-0.0354576327,-0.0230849268,0.0229495138,0.0077220263,-0.0319480802,0.0320524389,-0.0125174592,-0.1289205271,-0.1716853512,-0.3096264358,-0.4500886791,-0.4098075193,-0.4168140817,-0.3755302901,0.0747968528,-0.3074627761,-0.1150698419,-0.2759240202,-0.2625060538,0.0025167991,0.1244711401,0.2675522537,0.3341202017,0.164165045,0.1731546814,0.2072605274,0.0214143126,-0.1089450317,0.0457499293,-0.0056685343,-0.1215323279,0.0050913818,-0.0168257376,-0.0216570849,-0.0368467148,-0.062030793,-0.0641326151,-0.0210488067,0.0779667168,0.009444026,-0.1068372259,0.2520640256,-0.0953090522,-0.525358512,0.0144484554,0.2853758444,-0.2899330236,-0.0067422729,0.5612870175,0.2024946842,0.0795357227,0.2475677642,0.0584018056,-0.0888117757,-0.1237423194,-0.0839400024,-0.0261266192,0.0191178063,-0.0263398885,0.0511254221,0.0845636638,0.0633568824,0.0179940403,0.1180454486,0.1117643234,0.2075702174,0.1411145876,-0.0201752334,0.0461969591,0.1709382179,-0.0382253348,-0.0834389543,0.3348555599,0.2500460922,-0.6558490413,-0.3201282743,0.0767687713,-0.3746553998,-0.4472089473,-0.1997153879,-0.38811508,-0.1578404547,-0.0154405123,0.0130183316,0.0526064565,-0.024112641,-0.0586759439,0.0048495693,-0.0013670531,-0.0160840283,0.0769352215,0.0484555047,0.1035763949,0.1281401365,-0.0157038211,-0.2295030774,-0.3957303799,-0.4405974708,-0.5532868788,-0.4135168832,-0.1813625811,-0.442123741,-0.7664704884,-0.4653852391,-0.4624533862,-0.7654245948,-0.8244075631,-0.5871900359,-0.3934695282,-0.1502526469,0.0507998315,0.0274176154,-0.0386773674,0.0190082362,0.0984865158,0.0343652748,-0.0197420821,-0.0401937802,-0.0089346368,-0.0463669161,0.024420895,0.0206569149,0.0356211318,-0.0925476372,-0.2499861258,-0.310909896,-0.3514879076,-0.4314372288,-0.4883895448,-0.7448801895,-0.5793408572,-0.2275571924,-0.3126892549,-0.414219305,-0.3478648313,-0.2870568815,-0.2537985108,-0.0389888401,-0.113861283,0.0010147973,0.0718430461,0.0501789799,0.0156567074,0.0468215023,0.0068797227,-0.0584413265,-0.0317919722,-0.0224229498,-0.008193004,-0.0398538049,0.0146308109,-0.0012643424,-0.0964375777,-0.0847263616,-0.1464732865,-0.1588111368,-0.068155751,-0.0540655662,-0.0170579171,-0.0411505894,-0.0064518345,-0.0156797951,-0.0227028866,0.00751047,0.0112267864,-0.0562005487,-0.0529657478,0.0249964525,0.0370303774,-0.0383694618,0.038453132
